{"learner":{"attributes":{"best_iteration":"7","best_score":"1.9996574375364515"},"feature_names":["feriado","fin_de_semana","dow","mes","lag_1","lag_7","lag_14","lag_28","rolling_mean_7","rolling_std_7","rolling_mean_14","rolling_std_14","rolling_mean_28","rolling_std_28"],"feature_types":["int","int","int","int","float","float","float","float","float","float","float","float","float","float"],"gradient_booster":{"model":{"cats":{"enc":[],"feature_segments":[],"sorted_idx":[]},"gbtree_model_param":{"num_parallel_tree":"1","num_trees":"48"},"iteration_indptr":[0,1,2,3,4,5,6,7,8,9,10,11,12,13,14,15,16,17,18,19,20,21,22,23,24,25,26,27,28,29,30,31,32,33,34,35,36,37,38,39,40,41,42,43,44,45,46,47,48],"tree_info":[0,0,0,0,0,0,0,0,0,0,0,0,0,0,0,0,0,0,0,0,0,0,0,0,0,0,0,0,0,0,0,0,0,0,0,0,0,0,0,0,0,0,0,0,0,0,0,0],"trees":[{"base_weights":[2.5143083E-2,-3.4758064E-1,9.370086E-1,-8.8088024E-1,-1.9555877E-1,-2.1286608E-1,1.5026734E0,1.14361355E-2,-5.8507123E-3,-2.9644892E-3,2.923132E-4,-3.1388875E-3,4.6799243E-3,8.286077E-3,2.8681532E-2],"categories":[],"categories_nodes":[],"categories_segments":[],"categories_sizes":[],"default_left":[0,0,0,0,0,0,0,0,0,0,0,0,0,0,0],"id":0,"left_children":[1,3,5,7,9,11,13,-1,-1,-1,-1,-1,-1,-1,-1],"loss_changes":[4.7422305E2,7.922277E1,2.647231E2,3.8771744E1,5.334059E1,3.832309E1,1.299737E2,0E0,0E0,0E0,0E0,0E0,0E0,0E0,0E0],"parents":[2147483647,0,0,1,1,2,2,3,3,4,4,5,5,6,6],"right_children":[2,4,6,8,10,12,14,-1,-1,-1,-1,-1,-1,-1,-1],"split_conditions":[1E0,6.392857E0,6.678571E0,2E0,7E0,9E0,1E0,1.14361355E-2,-5.8507123E-3,-2.9644892E-3,2.923132E-4,-3.1388875E-3,4.6799243E-3,8.286077E-3,2.8681532E-2],"split_indices":[1,12,12,4,7,7,0,0,0,0,0,0,0,0,0],"split_type":[0,0,0,0,0,0,0,0,0,0,0,0,0,0,0],"sum_hessian":[1.392E3,9.88E2,4.04E2,2.17E2,7.71E2,1.33E2,2.71E2,4E0,2.13E2,3.57E2,4.14E2,1.03E2,3E1,2.59E2,1.2E1],"tree_param":{"num_deleted":"0","num_feature":"14","num_nodes":"15","size_leaf_vector":"1"}},{"base_weights":[2.0081094E-2,-3.7211382E-1,9.929485E-1,-5.305832E-1,1.5226005E-1,1.5174005E-3,1.4914563E0,-6.915882E-3,-2.6493953E-3,1.9194814E-4,1.6873986E-2,-1.1472125E-3,6.932177E-3,8.152648E-3,2.7800433E-2],"categories":[],"categories_nodes":[],"categories_segments":[],"categories_sizes":[],"default_left":[0,0,0,0,0,0,0,0,0,0,0,0,0,0,0],"id":1,"left_children":[1,3,5,7,9,11,13,-1,-1,-1,-1,-1,-1,-1,-1],"loss_changes":[5.296818E2,8.246202E1,1.9612985E2,4.423062E1,6.932219E1,2.9051697E1,1.2921185E2,0E0,0E0,0E0,0E0,0E0,0E0,0E0,0E0],"parents":[2147483647,0,0,1,1,2,2,3,3,4,4,5,5,6,6],"right_children":[2,4,6,8,10,12,14,-1,-1,-1,-1,-1,-1,-1,-1],"split_conditions":[1E0,2.9625082E0,6.678571E0,6.107143E0,1E0,3.0091436E0,1E0,-6.915882E-3,-2.6493953E-3,1.9194814E-4,1.6873986E-2,-1.1472125E-3,6.932177E-3,8.152648E-3,2.7800433E-2],"split_indices":[1,13,12,12,0,11,0,0,0,0,0,0,0,0,0],"split_type":[0,0,0,0,0,0,0,0,0,0,0,0,0,0,0],"sum_hessian":[1.385E3,9.87E2,3.98E2,7.59E2,2.28E2,1.34E2,2.64E2,1.11E2,6.48E2,2.19E2,9E0,1.15E2,1.9E1,2.51E2,1.3E1],"tree_param":{"num_deleted":"0","num_feature":"14","num_nodes":"15","size_leaf_vector":"1"}},{"base_weights":[1.9415187E-2,-3.657055E-1,9.6467817E-1,-5.1709574E-1,1.24259576E-1,-4.504229E-1,1.2327372E0,-4.2205537E-3,-5.838048E-4,2.1768104E-4,1.2460289E-2,-4.8734E-3,1.1786285E-2,5.927086E-3,1.4012722E-2],"categories":[],"categories_nodes":[],"categories_segments":[],"categories_sizes":[],"default_left":[0,0,0,0,0,0,0,0,0,0,0,0,0,0,0],"id":2,"left_children":[1,3,5,7,9,11,13,-1,-1,-1,-1,-1,-1,-1,-1],"loss_changes":[5.0282623E2,7.304747E1,1.5289066E2,5.138745E1,3.728701E1,5.1359146E1,9.118359E1,0E0,0E0,0E0,0E0,0E0,0E0,0E0,0E0],"parents":[2147483647,0,0,1,1,2,2,3,3,4,4,5,5,6,6],"right_children":[2,4,6,8,10,12,14,-1,-1,-1,-1,-1,-1,-1,-1],"split_conditions":[1E0,2.9625082E0,6.142857E0,9E0,1E0,2.7936058E0,3.04703E0,-4.2205537E-3,-5.838048E-4,2.1768104E-4,1.2460289E-2,-4.8734E-3,1.1786285E-2,5.927086E-3,1.4012722E-2],"split_indices":[1,13,10,3,0,13,13,0,0,0,0,0,0,0,0],"split_type":[0,0,0,0,0,0,0,0,0,0,0,0,0,0,0],"sum_hessian":[1.378E3,9.79E2,3.99E2,7.49E2,2.3E2,6.3E1,3.36E2,5.38E2,2.11E2,2.21E2,9E0,5.6E1,7E0,2.67E2,6.9E1],"tree_param":{"num_deleted":"0","num_feature":"14","num_nodes":"15","size_leaf_vector":"1"}},{"base_weights":[3.4285713E-2,-3.5967028E-1,1.013984E0,-5.571387E-1,4.1758963E-1,1.3466075E-1,1.4804772E0,3.415798E-3,-3.8644127E-3,-4.3803444E-3,4.001524E-3,-8.702256E-3,1.9919209E-3,8.185068E-3,2.8636325E-2],"categories":[],"categories_nodes":[],"categories_segments":[],"categories_sizes":[],"default_left":[0,0,0,0,0,0,0,0,0,0,0,0,0,0,0],"id":3,"left_children":[1,3,5,7,9,11,13,-1,-1,-1,-1,-1,-1,-1,-1],"loss_changes":[5.4082324E2,1.5352553E2,1.6353308E2,5.9144028E1,5.226363E1,4.0223503E1,1.2070007E2,0E0,0E0,0E0,0E0,0E0,0E0,0E0,0E0],"parents":[2147483647,0,0,1,1,2,2,3,3,4,4,5,5,6,6],"right_children":[2,4,6,8,10,12,14,-1,-1,-1,-1,-1,-1,-1,-1],"split_conditions":[1E0,2.9840848E0,6.678571E0,2E0,2E0,5.142857E0,1E0,3.415798E-3,-3.8644127E-3,-4.3803444E-3,4.001524E-3,-8.702256E-3,1.9919209E-3,8.185068E-3,2.8636325E-2],"split_indices":[1,13,12,3,3,8,0,0,0,0,0,0,0,0,0],"split_type":[0,0,0,0,0,0,0,0,0,0,0,0,0,0,0],"sum_hessian":[1.398E3,9.97E2,4.01E2,7.96E2,2.01E2,1.4E2,2.61E2,4.4E1,7.52E2,3.3E1,1.68E2,1.4E1,1.26E2,2.5E2,1.1E1],"tree_param":{"num_deleted":"0","num_feature":"14","num_nodes":"15","size_leaf_vector":"1"}},{"base_weights":[1.8744656E-3,-4.086554E-1,9.955545E-1,-5.651148E-1,2.0535012E-1,6.8383396E-1,2.5504866E0,3.4862577E-3,-3.8989005E-3,-5.1678983E-3,2.7550913E-3,3.506739E-3,2.3474904E-2,-0E0,1.6554587E-2],"categories":[],"categories_nodes":[],"categories_segments":[],"categories_sizes":[],"default_left":[0,0,0,0,0,0,0,0,0,0,0,0,0,0,0],"id":4,"left_children":[1,3,5,7,9,11,13,-1,-1,-1,-1,-1,-1,-1,-1],"loss_changes":[5.6626184E2,9.462712E1,1.9264716E2,5.699727E1,4.9594696E1,1.1909967E2,2.0959045E1,0E0,0E0,0E0,0E0,0E0,0E0,0E0,0E0],"parents":[2147483647,0,0,1,1,2,2,3,3,4,4,5,5,6,6],"right_children":[2,4,6,8,10,12,14,-1,-1,-1,-1,-1,-1,-1,-1],"split_conditions":[1E0,2.9858572E0,3.0541844E0,2E0,2E0,1E0,2.2446518E0,3.4862577E-3,-3.8989005E-3,-5.1678983E-3,2.7550913E-3,3.506739E-3,2.3474904E-2,-0E0,1.6554587E-2],"split_indices":[1,13,13,3,3,0,11,0,0,0,0,0,0,0,0],"split_type":[0,0,0,0,0,0,0,0,0,0,0,0,0,0,0],"sum_hessian":[1.385E3,9.8E2,4.05E2,7.82E2,1.98E2,3.39E2,6.6E1,4.1E1,7.41E2,3.6E1,1.62E2,3.28E2,1.1E1,3E0,6.3E1],"tree_param":{"num_deleted":"0","num_feature":"14","num_nodes":"15","size_leaf_vector":"1"}},{"base_weights":[-1.7454248E-2,-3.8224268E-1,9.0363646E-1,-1.0732776E0,-2.8809986E-1,-1.358838E-1,1.4246309E0,-8.446519E-3,-0E0,-2.5800464E-3,1.1064154E-3,-5.0875745E-3,1.6930889E-3,7.793087E-3,2.8026639E-2],"categories":[],"categories_nodes":[],"categories_segments":[],"categories_sizes":[],"default_left":[0,0,0,0,0,0,0,0,0,0,0,0,0,0,0],"id":5,"left_children":[1,3,5,7,9,11,13,-1,-1,-1,-1,-1,-1,-1,-1],"loss_changes":[4.7409152E2,6.45282E1,2.1779153E2,3.8300903E1,5.3700058E1,3.8200466E1,1.280727E2,0E0,0E0,0E0,0E0,0E0,0E0,0E0,0E0],"parents":[2147483647,0,0,1,1,2,2,3,3,4,4,5,5,6,6],"right_children":[2,4,6,8,10,12,14,-1,-1,-1,-1,-1,-1,-1,-1],"split_conditions":[1E0,6.107143E0,6.678571E0,8E0,3.2659864E0,6E0,1E0,-8.446519E-3,-0E0,-2.5800464E-3,1.1064154E-3,-5.0875745E-3,1.6930889E-3,7.793087E-3,2.8026639E-2],"split_indices":[1,12,12,7,9,10,0,0,0,0,0,0,0,0,0],"split_type":[0,0,0,0,0,0,0,0,0,0,0,0,0,0,0],"sum_hessian":[1.41E3,1.011E3,3.99E2,1.19E2,8.92E2,1.33E2,2.66E2,9.4E1,2.5E1,7.01E2,1.91E2,5E1,8.3E1,2.54E2,1.2E1],"tree_param":{"num_deleted":"0","num_feature":"14","num_nodes":"15","size_leaf_vector":"1"}},{"base_weights":[-3.0578077E-2,-3.7745488E-1,8.6857665E-1,-5.416194E-1,2.531633E-1,-1.4680451E-1,1.3737314E0,-4.522562E-3,-2.9056508E-4,-5.9695938E-3,3.3061397E-3,-2.241748E-3,7.2407383E-3,7.60202E-3,2.801662E-2],"categories":[],"categories_nodes":[],"categories_segments":[],"categories_sizes":[],"default_left":[0,0,0,0,0,0,0,0,0,0,0,0,0,0,0],"id":6,"left_children":[1,3,5,7,9,11,13,-1,-1,-1,-1,-1,-1,-1,-1],"loss_changes":[4.3727194E2,1.05226685E2,2.0116083E2,7.436116E1,7.1517006E1,3.661722E1,1.1080054E2,0E0,0E0,0E0,0E0,0E0,0E0,0E0,0E0],"parents":[2147483647,0,0,1,1,2,2,3,3,4,4,5,5,6,6],"right_children":[2,4,6,8,10,12,14,-1,-1,-1,-1,-1,-1,-1,-1],"split_conditions":[1E0,2.9840848E0,6.678571E0,9E0,2E0,3.0091436E0,1E0,-4.522562E-3,-2.9056508E-4,-5.9695938E-3,3.3061397E-3,-2.241748E-3,7.2407383E-3,7.60202E-3,2.801662E-2],"split_indices":[1,13,12,3,3,11,0,0,0,0,0,0,0,0,0],"split_type":[0,0,0,0,0,0,0,0,0,0,0,0,0,0,0],"sum_hessian":[1.401E3,1.012E3,3.89E2,8.04E2,2.08E2,1.29E2,2.6E2,5.81E2,2.23E2,3.8E1,1.7E2,1.12E2,1.7E1,2.5E2,1E1],"tree_param":{"num_deleted":"0","num_feature":"14","num_nodes":"15","size_leaf_vector":"1"}},{"base_weights":[-3.498288E-2,-3.8310426E-1,8.431568E-1,-7.1379447E-1,-1.106687E-1,-7.253052E-2,1.3214724E0,-4.7375467E-3,4.169059E-3,-1.1171196E-3,7.932826E-3,-4.645593E-3,2.2006233E-3,7.308896E-3,2.5459783E-2],"categories":[],"categories_nodes":[],"categories_segments":[],"categories_sizes":[],"default_left":[0,0,0,0,0,0,0,0,0,0,0,0,0,0,0],"id":7,"left_children":[1,3,5,7,9,11,13,-1,-1,-1,-1,-1,-1,-1,-1],"loss_changes":[4.2890723E2,8.9953964E1,1.753429E2,3.246974E1,5.307748E1,4.024781E1,9.48291E1,0E0,0E0,0E0,0E0,0E0,0E0,0E0,0E0],"parents":[2147483647,0,0,1,1,2,2,3,3,4,4,5,5,6,6],"right_children":[2,4,6,8,10,12,14,-1,-1,-1,-1,-1,-1,-1,-1],"split_conditions":[1E0,6.964286E0,6.678571E0,1E0,3.8800702E0,6E0,1E0,-4.7375467E-3,4.169059E-3,-1.1171196E-3,7.932826E-3,-4.645593E-3,2.2006233E-3,7.308896E-3,2.5459783E-2],"split_indices":[1,12,12,0,11,10,0,0,0,0,0,0,0,0,0],"split_type":[0,0,0,0,0,0,0,0,0,0,0,0,0,0,0],"sum_hessian":[1.402E3,1.005E3,3.97E2,4.52E2,5.53E2,1.36E2,2.61E2,4.37E2,1.5E1,5.28E2,2.5E1,5.3E1,8.3E1,2.5E2,1.1E1],"tree_param":{"num_deleted":"0","num_feature":"14","num_nodes":"15","size_leaf_vector":"1"}},{"base_weights":[5.4403683E-3,-3.6048168E-1,9.508147E-1,-9.569173E-1,-2.0295689E-1,-2.4286865E-1,1.3280536E0,1.1469666E-2,-6.3450686E-3,-2.144001E-3,1.4160346E-3,-5.314522E-3,3.9856485E-3,6.5454994E-3,1.402592E-2],"categories":[],"categories_nodes":[],"categories_segments":[],"categories_sizes":[],"default_left":[0,0,0,0,0,0,0,0,0,0,0,0,0,0,0],"id":8,"left_children":[1,3,5,7,9,11,13,-1,-1,-1,-1,-1,-1,-1,-1],"loss_changes":[4.8821732E2,9.441502E1,1.7855978E2,4.1080612E1,4.9912205E1,5.24962E1,7.137872E1,0E0,0E0,0E0,0E0,0E0,0E0,0E0,0E0],"parents":[2147483647,0,0,1,1,2,2,3,3,4,4,5,5,6,6],"right_children":[2,4,6,8,10,12,14,-1,-1,-1,-1,-1,-1,-1,-1],"split_conditions":[1E0,6.357143E0,6.357143E0,2E0,2.9858572E0,8E0,3.04703E0,1.1469666E-2,-6.3450686E-3,-2.144001E-3,1.4160346E-3,-5.314522E-3,3.9856485E-3,6.5454994E-3,1.402592E-2],"split_indices":[1,12,10,4,13,7,13,0,0,0,0,0,0,0,0],"split_type":[0,0,0,0,0,0,0,0,0,0,0,0,0,0,0],"sum_hessian":[1.408E3,1.015E3,3.93E2,2.1E2,8.05E2,9.4E1,2.99E2,4E0,2.06E2,6.06E2,1.99E2,5.6E1,3.8E1,2.34E2,6.5E1],"tree_param":{"num_deleted":"0","num_feature":"14","num_nodes":"15","size_leaf_vector":"1"}},{"base_weights":[-6.721581E-3,-4.037339E-1,9.819303E-1,-5.611404E-1,-4.3603987E-2,6.7669004E-1,2.6338408E0,-4.4557066E-3,-1.2290005E-4,9.4783595E-3,-1.0468769E-3,-4.3851025E-3,5.831559E-3,1.1730741E-2,2.316971E-2],"categories":[],"categories_nodes":[],"categories_segments":[],"categories_sizes":[],"default_left":[0,0,0,0,0,0,0,0,0,0,0,0,0,0,0],"id":9,"left_children":[1,3,5,7,9,11,13,-1,-1,-1,-1,-1,-1,-1,-1],"loss_changes":[5.4284174E2,5.5543335E1,1.9543777E2,5.8087128E1,5.9030533E1,1.238499E2,3.8537933E1,0E0,0E0,0E0,0E0,0E0,0E0,0E0,0E0],"parents":[2147483647,0,0,1,1,2,2,3,3,4,4,5,5,6,6],"right_children":[2,4,6,8,10,12,14,-1,-1,-1,-1,-1,-1,-1,-1],"split_conditions":[1E0,9E0,3.1089137E0,2.9481857E0,4E0,6E0,3.3665016E0,-4.4557066E-3,-1.2290005E-4,9.4783595E-3,-1.0468769E-3,-4.3851025E-3,5.831559E-3,1.1730741E-2,2.316971E-2],"split_indices":[1,3,13,13,4,10,9,0,0,0,0,0,0,0,0],"split_type":[0,0,0,0,0,0,0,0,0,0,0,0,0,0,0],"sum_hessian":[1.382E3,9.87E2,3.95E2,6.85E2,3.02E2,3.35E2,6E1,5.29E2,1.56E2,2.1E1,2.81E2,5.3E1,2.82E2,3.8E1,2.2E1],"tree_param":{"num_deleted":"0","num_feature":"14","num_nodes":"15","size_leaf_vector":"1"}},{"base_weights":[-3.9367862E-2,-3.7986597E-1,8.139603E-1,-5.5796057E-1,2.6709783E-1,5.2192456E-1,2.207499E0,3.7595294E-3,-3.8778917E-3,-5.269395E-3,3.103161E-3,-2.5587315E-3,5.3050104E-3,5.341866E-3,1.6259503E-2],"categories":[],"categories_nodes":[],"categories_segments":[],"categories_sizes":[],"default_left":[0,0,0,0,0,0,0,0,0,0,0,0,0,0,0],"id":10,"left_children":[1,3,5,7,9,11,13,-1,-1,-1,-1,-1,-1,-1,-1],"loss_changes":[4.0476065E2,1.15245316E2,1.5839954E2,6.2275604E1,5.6338684E1,1.0379402E2,3.323712E1,0E0,0E0,0E0,0E0,0E0,0E0,0E0,0E0],"parents":[2147483647,0,0,1,1,2,2,3,3,4,4,5,5,6,6],"right_children":[2,4,6,8,10,12,14,-1,-1,-1,-1,-1,-1,-1,-1],"split_conditions":[1E0,2.9840848E0,3.0541844E0,2E0,2E0,6.357143E0,6E0,3.7595294E-3,-3.8778917E-3,-5.269395E-3,3.103161E-3,-2.5587315E-3,5.3050104E-3,5.341866E-3,1.6259503E-2],"split_indices":[1,13,13,3,3,10,4,0,0,0,0,0,0,0,0],"split_type":[0,0,0,0,0,0,0,0,0,0,0,0,0,0,0],"sum_hessian":[1.392E3,9.96E2,3.96E2,7.82E2,2.14E2,3.29E2,6.7E1,4.2E1,7.4E2,3.6E1,1.78E2,8.6E1,2.43E2,1.7E1,5E1],"tree_param":{"num_deleted":"0","num_feature":"14","num_nodes":"15","size_leaf_vector":"1"}},{"base_weights":[4.83483E-2,-3.0568972E-1,9.302447E-1,-4.6380985E-1,2.617357E-1,7.9525626E-1,3.897644E0,4.169614E-3,-3.2841116E-3,-4.3276395E-3,2.9276046E-3,3.4107543E-3,1.305772E-2,1.2329278E-2,3.270672E-2],"categories":[],"categories_nodes":[],"categories_segments":[],"categories_sizes":[],"default_left":[0,0,0,0,0,0,0,0,0,0,0,0,0,0,0],"id":11,"left_children":[1,3,5,7,9,11,13,-1,-1,-1,-1,-1,-1,-1,-1],"loss_changes":[4.391241E2,9.0176895E1,1.548157E2,5.931067E1,4.428784E1,1.2118822E2,2.8700989E1,0E0,0E0,0E0,0E0,0E0,0E0,0E0,0E0],"parents":[2147483647,0,0,1,1,2,2,3,3,4,4,5,5,6,6],"right_children":[2,4,6,8,10,12,14,-1,-1,-1,-1,-1,-1,-1,-1],"split_conditions":[1E0,2.9840848E0,1E0,2E0,2E0,3.1089137E0,6E0,4.169614E-3,-3.2841116E-3,-4.3276395E-3,2.9276046E-3,3.4107543E-3,1.305772E-2,1.2329278E-2,3.270672E-2],"split_indices":[1,13,0,3,3,13,2,0,0,0,0,0,0,0,0],"split_type":[0,0,0,0,0,0,0,0,0,0,0,0,0,0,0],"sum_hessian":[1.403E3,1.001E3,4.02E2,7.84E2,2.17E2,3.86E2,1.6E1,4.2E1,7.42E2,3.8E1,1.79E2,3.27E2,5.9E1,8E0,8E0],"tree_param":{"num_deleted":"0","num_feature":"14","num_nodes":"15","size_leaf_vector":"1"}},{"base_weights":[4.112404E-2,-3.1485525E-1,9.246949E-1,-3.6631858E-1,1.3693272E0,3.7494404E-3,1.3686329E0,-4.536812E-3,-9.558526E-4,4.0205554E-3,3.398904E-2,-1.4090529E-3,8.255847E-3,7.628214E-3,2.55872E-2],"categories":[],"categories_nodes":[],"categories_segments":[],"categories_sizes":[],"default_left":[0,0,0,0,0,0,0,0,0,0,0,0,0,0,0],"id":12,"left_children":[1,3,5,7,9,11,13,-1,-1,-1,-1,-1,-1,-1,-1],"loss_changes":[4.357559E2,8.525362E1,1.6173062E2,7.3560104E1,7.795352E1,4.135613E1,9.265982E1,0E0,0E0,0E0,0E0,0E0,0E0,0E0,0E0],"parents":[2147483647,0,0,1,1,2,2,3,3,4,4,5,5,6,6],"right_children":[2,4,6,8,10,12,14,-1,-1,-1,-1,-1,-1,-1,-1],"split_conditions":[5E0,1E0,6.678571E0,6.75E0,3.4503279E0,3.0091436E0,1E0,-4.536812E-3,-9.558526E-4,4.0205554E-3,3.398904E-2,-1.4090529E-3,8.255847E-3,7.628214E-3,2.55872E-2],"split_indices":[2,0,12,12,9,11,0,0,0,0,0,0,0,0,0],"split_type":[0,0,0,0,0,0,0,0,0,0,0,0,0,0,0],"sum_hessian":[1.382E3,9.85E2,3.97E2,9.57E2,2.8E1,1.3E2,2.67E2,3.49E2,6.08E2,2.5E1,3E0,1.11E2,1.9E1,2.56E2,1.1E1],"tree_param":{"num_deleted":"0","num_feature":"14","num_nodes":"15","size_leaf_vector":"1"}},{"base_weights":[-5.8247214E-3,-3.7557763E-1,8.866179E-1,-5.528404E-1,2.7744707E-1,-0E0,1.3344507E0,-4.443759E-3,-8.1269525E-4,-3.6596993E-3,2.9414168E-3,-1.1113837E-3,1.0867516E-2,7.503125E-3,2.3859778E-2],"categories":[],"categories_nodes":[],"categories_segments":[],"categories_sizes":[],"default_left":[0,0,0,0,0,0,0,0,0,0,0,0,0,0,0],"id":13,"left_children":[1,3,5,7,9,11,13,-1,-1,-1,-1,-1,-1,-1,-1],"loss_changes":[4.632819E2,1.1542595E2,1.6309976E2,5.3529877E1,3.6507195E1,4.4182205E1,7.640848E1,0E0,0E0,0E0,0E0,0E0,0E0,0E0,0E0],"parents":[2147483647,0,0,1,1,2,2,3,3,4,4,5,5,6,6],"right_children":[2,4,6,8,10,12,14,-1,-1,-1,-1,-1,-1,-1,-1],"split_conditions":[1E0,2.9840848E0,6.678571E0,9E0,2E0,2.866519E0,1E0,-4.443759E-3,-8.1269525E-4,-3.6596993E-3,2.9414168E-3,-1.1113837E-3,1.0867516E-2,7.503125E-3,2.3859778E-2],"split_indices":[1,13,12,3,3,13,0,0,0,0,0,0,0,0,0],"split_type":[0,0,0,0,0,0,0,0,0,0,0,0,0,0,0],"sum_hessian":[1.403E3,9.93E2,4.1E2,7.82E2,2.11E2,1.38E2,2.72E2,5.61E2,2.21E2,3.8E1,1.73E2,1.26E2,1.2E1,2.61E2,1.1E1],"tree_param":{"num_deleted":"0","num_feature":"14","num_nodes":"15","size_leaf_vector":"1"}},{"base_weights":[1.1650384E-2,-3.3817196E-1,9.0144485E-1,-9.3034965E-1,-1.6876748E-1,-5.9283167E-2,1.3959681E0,1.06123015E-2,-6.2201195E-3,-1.3444803E-3,1.0008752E-2,-1.0449441E-2,1.0649764E-3,7.4859234E-3,1.5711812E-2],"categories":[],"categories_nodes":[],"categories_segments":[],"categories_sizes":[],"default_left":[0,0,0,0,0,0,0,0,0,0,0,0,0,0,0],"id":14,"left_children":[1,3,5,7,9,11,13,-1,-1,-1,-1,-1,-1,-1,-1],"loss_changes":[4.2997836E2,9.835575E1,1.8636536E2,4.377533E1,6.5730606E1,5.1433865E1,4.935788E1,0E0,0E0,0E0,0E0,0E0,0E0,0E0,0E0],"parents":[2147483647,0,0,1,1,2,2,3,3,4,4,5,5,6,6],"right_children":[2,4,6,8,10,12,14,-1,-1,-1,-1,-1,-1,-1,-1],"split_conditions":[5E0,6.392857E0,6.678571E0,2E0,1E0,5.142857E0,3.6055512E0,1.06123015E-2,-6.2201195E-3,-1.3444803E-3,1.0008752E-2,-1.0449441E-2,1.0649764E-3,7.4859234E-3,1.5711812E-2],"split_indices":[2,12,12,4,0,8,9,0,0,0,0,0,0,0,0],"split_type":[0,0,0,0,0,0,0,0,0,0,0,0,0,0,0],"sum_hessian":[1.378E3,9.89E2,3.89E2,2.18E2,7.71E2,1.32E2,2.57E2,5E0,2.13E2,7.52E2,1.9E1,1.6E1,1.16E2,2.23E2,3.4E1],"tree_param":{"num_deleted":"0","num_feature":"14","num_nodes":"15","size_leaf_vector":"1"}},{"base_weights":[-1.4849093E-2,-3.6081305E-1,8.3455133E-1,-4.7880325E-1,9.772057E-2,-2.9112753E-1,1.1839234E0,4.4643306E-3,-3.3953076E-3,-6.7008464E-3,2.1955348E-3,-3.1811188E-3,9.875351E-3,5.4948227E-3,1.3475143E-2],"categories":[],"categories_nodes":[],"categories_segments":[],"categories_sizes":[],"default_left":[0,0,0,0,0,0,0,0,0,0,0,0,0,0,0],"id":15,"left_children":[1,3,5,7,9,11,13,-1,-1,-1,-1,-1,-1,-1,-1],"loss_changes":[4.105033E2,5.410553E1,1.5990637E2,6.593645E1,6.1294167E1,4.0287346E1,8.675763E1,0E0,0E0,0E0,0E0,0E0,0E0,0E0,0E0],"parents":[2147483647,0,0,1,1,2,2,3,3,4,4,5,5,6,6],"right_children":[2,4,6,8,10,12,14,-1,-1,-1,-1,-1,-1,-1,-1],"split_conditions":[1E0,2.9840848E0,6.357143E0,2E0,2E0,3.002746E0,3.04703E0,4.4643306E-3,-3.3953076E-3,-6.7008464E-3,2.1955348E-3,-3.1811188E-3,9.875351E-3,5.4948227E-3,1.3475143E-2],"split_indices":[1,13,10,3,3,11,13,0,0,0,0,0,0,0,0],"split_type":[0,0,0,0,0,0,0,0,0,0,0,0,0,0,0],"sum_hessian":[1.396E3,9.93E2,4.03E2,7.91E2,2.02E2,9.5E1,3.08E2,4.2E1,7.49E2,3.5E1,1.67E2,8.6E1,9E0,2.39E2,6.9E1],"tree_param":{"num_deleted":"0","num_feature":"14","num_nodes":"15","size_leaf_vector":"1"}},{"base_weights":[1.3753627E-2,-3.448305E-1,8.8315374E-1,-5.100795E-1,3.066957E-1,-4.484459E-2,1.3147134E0,-3.4011817E-3,5.0957506E-3,1.295706E-3,1.748578E-2,-8.401352E-3,9.9222E-4,7.4447114E-3,2.5608523E-2],"categories":[],"categories_nodes":[],"categories_segments":[],"categories_sizes":[],"default_left":[0,0,0,0,0,0,0,0,0,0,0,0,0,0,0],"id":16,"left_children":[1,3,5,7,9,11,13,-1,-1,-1,-1,-1,-1,-1,-1],"loss_changes":[4.3218484E2,1.0582477E2,1.6319653E2,4.0741013E1,4.579595E1,3.576646E1,7.943204E1,0E0,0E0,0E0,0E0,0E0,0E0,0E0,0E0],"parents":[2147483647,0,0,1,1,2,2,3,3,4,4,5,5,6,6],"right_children":[2,4,6,8,10,12,14,-1,-1,-1,-1,-1,-1,-1,-1],"split_conditions":[1E0,2.9858572E0,6.642857E0,1E0,1E0,5.142857E0,1E0,-3.4011817E-3,5.0957506E-3,1.295706E-3,1.748578E-2,-8.401352E-3,9.9222E-4,7.4447114E-3,2.5608523E-2],"split_indices":[1,13,12,0,0,8,0,0,0,0,0,0,0,0,0],"split_type":[0,0,0,0,0,0,0,0,0,0,0,0,0,0,0],"sum_hessian":[1.383E3,9.79E2,4.04E2,7.82E2,1.97E2,1.28E2,2.76E2,7.61E2,2.1E1,1.91E2,6E0,1.7E1,1.11E2,2.67E2,9E0],"tree_param":{"num_deleted":"0","num_feature":"14","num_nodes":"15","size_leaf_vector":"1"}},{"base_weights":[-1.3523862E-2,-3.783705E-1,8.98124E-1,-5.349756E-1,2.2713423E-1,-1.374054E-1,1.4113027E0,-3.0126134E-3,-1.3523827E-2,7.6610135E-4,2.1566993E-2,-1.9850368E-3,9.308185E-3,7.87465E-3,2.6067995E-2],"categories":[],"categories_nodes":[],"categories_segments":[],"categories_sizes":[],"default_left":[0,0,0,0,0,0,0,0,0,0,0,0,0,0,0],"id":17,"left_children":[1,3,5,7,9,11,13,-1,-1,-1,-1,-1,-1,-1,-1],"loss_changes":[4.6231638E2,9.46095E1,2.121174E2,6.0568634E1,6.56364E1,3.9239857E1,9.4977905E1,0E0,0E0,0E0,0E0,0E0,0E0,0E0,0E0],"parents":[2147483647,0,0,1,1,2,2,3,3,4,4,5,5,6,6],"right_children":[2,4,6,8,10,12,14,-1,-1,-1,-1,-1,-1,-1,-1],"split_conditions":[1E0,3.287784E0,6.678571E0,3.207135E0,1E0,3.1035252E0,1E0,-3.0126134E-3,-1.3523827E-2,7.6610135E-4,2.1566993E-2,-1.9850368E-3,9.308185E-3,7.87465E-3,2.6067995E-2],"split_indices":[1,9,12,9,0,11,0,0,0,0,0,0,0,0,0],"split_type":[0,0,0,0,0,0,0,0,0,0,0,0,0,0,0],"sum_hessian":[1.389E3,9.93E2,3.96E2,7.9E2,2.03E2,1.31E2,2.65E2,7.69E2,2.1E1,1.98E2,5E0,1.19E2,1.2E1,2.54E2,1.1E1],"tree_param":{"num_deleted":"0","num_feature":"14","num_nodes":"15","size_leaf_vector":"1"}},{"base_weights":[-2.5418226E-2,-3.6292303E-1,8.148577E-1,-5.241203E-1,2.2667006E-1,-3.0391258E-1,1.166703E0,3.686299E-3,-3.6411064E-3,-4.885566E-3,2.860803E-3,2.1096487E-3,-6.0124835E-3,6.4358506E-3,2.736413E-2],"categories":[],"categories_nodes":[],"categories_segments":[],"categories_sizes":[],"default_left":[0,0,0,0,0,0,0,0,0,0,0,0,0,0,0],"id":18,"left_children":[1,3,5,7,9,11,13,-1,-1,-1,-1,-1,-1,-1,-1],"loss_changes":[3.9617328E2,9.5193665E1,1.584631E2,5.6111603E1,5.1196102E1,4.203632E1,1.18250305E2,0E0,0E0,0E0,0E0,0E0,0E0,0E0,0E0],"parents":[2147483647,0,0,1,1,2,2,3,3,4,4,5,5,6,6],"right_children":[2,4,6,8,10,12,14,-1,-1,-1,-1,-1,-1,-1,-1],"split_conditions":[1E0,2.9840848E0,6.357143E0,2E0,2E0,2.236068E0,1E0,3.686299E-3,-3.6411064E-3,-4.885566E-3,2.860803E-3,2.1096487E-3,-6.0124835E-3,6.4358506E-3,2.736413E-2],"split_indices":[1,13,10,3,3,9,0,0,0,0,0,0,0,0,0],"split_type":[0,0,0,0,0,0,0,0,0,0,0,0,0,0,0],"sum_hessian":[1.396E3,9.97E2,3.99E2,7.84E2,2.13E2,9.5E1,3.04E2,4.1E1,7.43E2,3.9E1,1.74E2,4.8E1,4.7E1,2.94E2,1E1],"tree_param":{"num_deleted":"0","num_feature":"14","num_nodes":"15","size_leaf_vector":"1"}},{"base_weights":[-3.2885265E-2,-3.7753558E-1,8.2954484E-1,-5.2941364E-1,2.3125005E-1,-1.7729291E-1,1.1460998E0,-8.491394E-3,-2.8501027E-3,-3.705937E-3,2.5734054E-3,-4.063987E-3,5.7335906E-3,5.752746E-3,1.1920194E-2],"categories":[],"categories_nodes":[],"categories_segments":[],"categories_sizes":[],"default_left":[0,0,0,0,0,0,0,0,0,0,0,0,0,0,0],"id":19,"left_children":[1,3,5,7,9,11,13,-1,-1,-1,-1,-1,-1,-1,-1],"loss_changes":[4.1673264E2,9.308571E1,1.2841476E2,4.4987564E1,3.0654457E1,5.1103466E1,4.7717957E1,0E0,0E0,0E0,0E0,0E0,0E0,0E0,0E0],"parents":[2147483647,0,0,1,1,2,2,3,3,4,4,5,5,6,6],"right_children":[2,4,6,8,10,12,14,-1,-1,-1,-1,-1,-1,-1,-1],"split_conditions":[1E0,2.9840848E0,6.357143E0,5.571429E0,2E0,9E0,3.04703E0,-8.491394E-3,-2.8501027E-3,-3.705937E-3,2.5734054E-3,-4.063987E-3,5.7335906E-3,5.752746E-3,1.1920194E-2],"split_indices":[1,13,10,10,3,7,13,0,0,0,0,0,0,0,0],"split_type":[0,0,0,0,0,0,0,0,0,0,0,0,0,0,0],"sum_hessian":[1.401E3,1.002E3,3.99E2,8.03E2,1.99E2,9.5E1,3.04E2,5.9E1,7.44E2,3.5E1,1.64E2,6.7E1,2.8E1,2.4E2,6.4E1],"tree_param":{"num_deleted":"0","num_feature":"14","num_nodes":"15","size_leaf_vector":"1"}},{"base_weights":[-6.1529237E-3,-3.5222673E-1,8.555218E-1,-5.22808E-1,2.691715E-1,-3.0328473E-1,1.2401056E0,-4.1057E-3,-8.878334E-4,-3.4081077E-3,2.8821016E-3,-4.269839E-3,3.8480836E-3,6.7527737E-3,2.781549E-2],"categories":[],"categories_nodes":[],"categories_segments":[],"categories_sizes":[],"default_left":[0,0,0,0,0,0,0,0,0,0,0,0,0,0,0],"id":20,"left_children":[1,3,5,7,9,11,13,-1,-1,-1,-1,-1,-1,-1,-1],"loss_changes":[4.248964E2,1.0824112E2,1.829161E2,4.1750763E1,3.535864E1,3.6874557E1,1.4085635E2,0E0,0E0,0E0,0E0,0E0,0E0,0E0,0E0],"parents":[2147483647,0,0,1,1,2,2,3,3,4,4,5,5,6,6],"right_children":[2,4,6,8,10,12,14,-1,-1,-1,-1,-1,-1,-1,-1],"split_conditions":[1E0,2.9840848E0,6.428571E0,9E0,2E0,9E0,1E0,-4.1057E-3,-8.878334E-4,-3.4081077E-3,2.8821016E-3,-4.269839E-3,3.8480836E-3,6.7527737E-3,2.781549E-2],"split_indices":[1,13,10,3,3,7,0,0,0,0,0,0,0,0,0],"split_type":[0,0,0,0,0,0,0,0,0,0,0,0,0,0,0],"sum_hessian":[1.424E3,1.017E3,4.07E2,7.99E2,2.18E2,1.01E2,3.06E2,5.82E2,2.17E2,4.1E1,1.77E2,7.2E1,2.9E1,2.94E2,1.2E1],"tree_param":{"num_deleted":"0","num_feature":"14","num_nodes":"15","size_leaf_vector":"1"}},{"base_weights":[4.6421632E-2,-3.1372315E-1,9.3861127E-1,-4.5787382E-1,2.5721487E-1,8.9436196E-2,1.3616711E0,-3.8427413E-3,-7.794885E-4,4.3206695E-3,-4.0331387E-4,-3.7636916E-4,1.0548007E-2,7.5712716E-3,2.7576562E-2],"categories":[],"categories_nodes":[],"categories_segments":[],"categories_sizes":[],"default_left":[0,0,0,0,0,0,0,0,0,0,0,0,0,0,0],"id":21,"left_children":[1,3,5,7,9,11,13,-1,-1,-1,-1,-1,-1,-1,-1],"loss_changes":[4.512585E2,8.248982E1,1.43969E2,4.24301E1,2.9018883E1,3.4248474E1,1.06440216E2,0E0,0E0,0E0,0E0,0E0,0E0,0E0,0E0],"parents":[2147483647,0,0,1,1,2,2,3,3,4,4,5,5,6,6],"right_children":[2,4,6,8,10,12,14,-1,-1,-1,-1,-1,-1,-1,-1],"split_conditions":[1E0,2.9840848E0,6.678571E0,8E0,7.5E0,3.1035252E0,1E0,-3.8427413E-3,-7.794885E-4,4.3206695E-3,-4.0331387E-4,-3.7636916E-4,1.0548007E-2,7.5712716E-3,2.7576562E-2],"split_indices":[1,13,12,7,12,11,0,0,0,0,0,0,0,0,0],"split_type":[0,0,0,0,0,0,0,0,0,0,0,0,0,0,0],"sum_hessian":[1.401E3,9.98E2,4.03E2,7.98E2,2E2,1.35E2,2.68E2,5.34E2,2.64E2,8.5E1,1.15E2,1.24E2,1.1E1,2.58E2,1E1],"tree_param":{"num_deleted":"0","num_feature":"14","num_nodes":"15","size_leaf_vector":"1"}},{"base_weights":[-2.686341E-2,-3.9749125E-1,8.67592E-1,-5.265517E-1,1.0123591E-1,-6.93554E-2,1.3219281E0,-4.254373E-3,-6.8364636E-4,3.5645377E-3,-2.3298436E-3,-8.32175E-3,7.517435E-4,7.1066897E-3,1.5812086E-2],"categories":[],"categories_nodes":[],"categories_segments":[],"categories_sizes":[],"default_left":[0,0,0,0,0,0,0,0,0,0,0,0,0,0,0],"id":22,"left_children":[1,3,5,7,9,11,13,-1,-1,-1,-1,-1,-1,-1,-1],"loss_changes":[4.631471E2,6.40249E1,1.7512857E2,5.1756912E1,4.629589E1,3.3605904E1,5.3707825E1,0E0,0E0,0E0,0E0,0E0,0E0,0E0,0E0],"parents":[2147483647,0,0,1,1,2,2,3,3,4,4,5,5,6,6],"right_children":[2,4,6,8,10,12,14,-1,-1,-1,-1,-1,-1,-1,-1],"split_conditions":[1E0,2.9840848E0,6.678571E0,9E0,3.2094026E0,5.142857E0,3.6055512E0,-4.254373E-3,-6.8364636E-4,3.5645377E-3,-2.3298436E-3,-8.32175E-3,7.517435E-4,7.1066897E-3,1.5812086E-2],"split_indices":[1,13,12,3,13,8,9,0,0,0,0,0,0,0,0],"split_type":[0,0,0,0,0,0,0,0,0,0,0,0,0,0,0],"sum_hessian":[1.396E3,9.88E2,4.08E2,7.86E2,2.02E2,1.33E2,2.75E2,5.66E2,2.2E2,1.02E2,1E2,1.7E1,1.16E2,2.43E2,3.2E1],"tree_param":{"num_deleted":"0","num_feature":"14","num_nodes":"15","size_leaf_vector":"1"}},{"base_weights":[-2.2981739E-2,-3.3569634E-1,7.743564E-1,-4.7035146E-1,1.6820557E-1,-4.166347E-1,1.164561E0,4.8691984E-3,-3.1884245E-3,-5.0560487E-3,2.3374702E-3,-4.155811E-3,8.648175E-3,6.4180717E-3,2.5325384E-2],"categories":[],"categories_nodes":[],"categories_segments":[],"categories_sizes":[],"default_left":[0,0,0,0,0,0,0,0,0,0,0,0,0,0,0],"id":23,"left_children":[1,3,5,7,9,11,13,-1,-1,-1,-1,-1,-1,-1,-1],"loss_changes":[3.5077975E2,6.8971466E1,1.8509708E2,4.46257E1,4.3819496E1,4.5572655E1,1.04474335E2,0E0,0E0,0E0,0E0,0E0,0E0,0E0,0E0],"parents":[2147483647,0,0,1,1,2,2,3,3,4,4,5,5,6,6],"right_children":[2,4,6,8,10,12,14,-1,-1,-1,-1,-1,-1,-1,-1],"split_conditions":[5E0,2.9840848E0,6.357143E0,1.2535664E0,2E0,3.002746E0,1E0,4.8691984E-3,-3.1884245E-3,-5.0560487E-3,2.3374702E-3,-4.155811E-3,8.648175E-3,6.4180717E-3,2.5325384E-2],"split_indices":[2,13,10,9,3,11,0,0,0,0,0,0,0,0,0],"split_type":[0,0,0,0,0,0,0,0,0,0,0,0,0,0,0],"sum_hessian":[1.406E3,1.011E3,3.95E2,7.99E2,2.12E2,9.7E1,2.98E2,2.6E1,7.73E2,3.6E1,1.76E2,8.6E1,1.1E1,2.87E2,1.1E1],"tree_param":{"num_deleted":"0","num_feature":"14","num_nodes":"15","size_leaf_vector":"1"}},{"base_weights":[-1.4327915E-2,-3.045809E-1,7.281966E-1,-4.457289E-1,2.4697669E-1,-1.7692035E-1,1.1807142E0,3.527764E-3,-3.1349515E-3,5.9033325E-4,7.833116E-3,-2.219339E-3,1.101609E-2,6.3063903E-3,2.591813E-2],"categories":[],"categories_nodes":[],"categories_segments":[],"categories_sizes":[],"default_left":[0,0,0,0,0,0,0,0,0,0,0,0,0,0,0],"id":24,"left_children":[1,3,5,7,9,11,13,-1,-1,-1,-1,-1,-1,-1,-1],"loss_changes":[3.0316614E2,7.912483E1,1.6274629E2,4.9609634E1,3.067891E1,4.6399837E1,1.2100809E2,0E0,0E0,0E0,0E0,0E0,0E0,0E0,0E0],"parents":[2147483647,0,0,1,1,2,2,3,3,4,4,5,5,6,6],"right_children":[2,4,6,8,10,12,14,-1,-1,-1,-1,-1,-1,-1,-1],"split_conditions":[1E0,2.9840848E0,6.678571E0,2E0,3.8800702E0,2.866519E0,1E0,3.527764E-3,-3.1349515E-3,5.9033325E-4,7.833116E-3,-2.219339E-3,1.101609E-2,6.3063903E-3,2.591813E-2],"split_indices":[1,13,12,3,11,13,0,0,0,0,0,0,0,0,0],"split_type":[0,0,0,0,0,0,0,0,0,0,0,0,0,0,0],"sum_hessian":[1.406E3,1.012E3,3.94E2,8.07E2,2.05E2,1.31E2,2.63E2,4.4E1,7.63E2,1.8E2,2.5E1,1.21E2,1E1,2.51E2,1.2E1],"tree_param":{"num_deleted":"0","num_feature":"14","num_nodes":"15","size_leaf_vector":"1"}},{"base_weights":[2.601483E-3,-3.4391633E-1,8.4763664E-1,-9.308632E-1,-2.0230511E-1,1.8719631E-1,1.6172132E0,-6.0907034E-3,1.5214403E-2,-1.5598508E-3,7.2502242E-3,-1.785248E-3,3.6979145E-3,7.5452784E-3,1.52188735E-2],"categories":[],"categories_nodes":[],"categories_segments":[],"categories_sizes":[],"default_left":[0,0,0,0,0,0,0,0,0,0,0,0,0,0,0],"id":25,"left_children":[1,3,5,7,9,11,13,-1,-1,-1,-1,-1,-1,-1,-1],"loss_changes":[4.176545E2,8.293296E1,2.093198E2,3.579367E1,5.497887E1,4.42086E1,5.8254486E1,0E0,0E0,0E0,0E0,0E0,0E0,0E0,0E0],"parents":[2147483647,0,0,1,1,2,2,3,3,4,4,5,5,6,6],"right_children":[2,4,6,8,10,12,14,-1,-1,-1,-1,-1,-1,-1,-1],"split_conditions":[5E0,6.357143E0,7.071429E0,1.2E1,3.8800702E0,6.428571E0,3.04703E0,-6.0907034E-3,1.5214403E-2,-1.5598508E-3,7.2502242E-3,-1.785248E-3,3.6979145E-3,7.5452784E-3,1.52188735E-2],"split_indices":[2,12,12,6,11,10,13,0,0,0,0,0,0,0,0],"split_type":[0,0,0,0,0,0,0,0,0,0,0,0,0,0,0],"sum_hessian":[1.423E3,1.009E3,4.14E2,1.94E2,8.15E2,2.24E2,1.9E2,1.92E2,2E0,7.88E2,2.7E1,1.03E2,1.21E2,1.31E2,5.9E1],"tree_param":{"num_deleted":"0","num_feature":"14","num_nodes":"15","size_leaf_vector":"1"}},{"base_weights":[-1.3010344E-2,-3.2586086E-1,7.696372E-1,-1.0867739E0,-2.2466592E-1,-2.5113535E-1,1.0929024E0,7.7535736E-4,-7.901877E-3,-1.6839032E-3,8.103751E-3,2.5520482E-4,-1.345515E-2,6.118423E-3,2.309155E-2],"categories":[],"categories_nodes":[],"categories_segments":[],"categories_sizes":[],"default_left":[0,0,0,0,0,0,0,0,0,0,0,0,0,0,0],"id":26,"left_children":[1,3,5,7,9,11,13,-1,-1,-1,-1,-1,-1,-1,-1],"loss_changes":[3.415141E2,7.564228E1,1.3224097E2,2.7496094E1,6.33178E1,5.5548927E1,7.6978485E1,0E0,0E0,0E0,0E0,0E0,0E0,0E0,0E0],"parents":[2147483647,0,0,1,1,2,2,3,3,4,4,5,5,6,6],"right_children":[2,4,6,8,10,12,14,-1,-1,-1,-1,-1,-1,-1,-1],"split_conditions":[1E0,6.107143E0,6.357143E0,2.031498E0,1E0,1E1,1E0,7.7535736E-4,-7.901877E-3,-1.6839032E-3,8.103751E-3,2.5520482E-4,-1.345515E-2,6.118423E-3,2.309155E-2],"split_indices":[1,12,10,13,0,4,0,0,0,0,0,0,0,0,0],"split_type":[0,0,0,0,0,0,0,0,0,0,0,0,0,0,0],"sum_hessian":[1.394E3,9.97E2,3.97E2,1.15E2,8.82E2,9.5E1,3.02E2,1.5E1,1E2,8.57E2,2.5E1,8.3E1,1.2E1,2.92E2,1E1],"tree_param":{"num_deleted":"0","num_feature":"14","num_nodes":"15","size_leaf_vector":"1"}},{"base_weights":[3.1350102E-2,-2.7619368E-1,7.898629E-1,-4.4912323E-1,1.0043582E-1,-0E0,1.1960907E0,1.1176624E-2,-2.9489708E-3,1.267107E-4,1.3944854E-2,-1.0904009E-3,1.05612E-2,6.569044E-3,2.3222532E-2],"categories":[],"categories_nodes":[],"categories_segments":[],"categories_sizes":[],"default_left":[0,0,0,0,0,0,0,0,0,0,0,0,0,0,0],"id":27,"left_children":[1,3,5,7,9,11,13,-1,-1,-1,-1,-1,-1,-1,-1],"loss_changes":[3.313935E2,6.601932E1,1.3193872E2,4.172058E1,5.2820637E1,4.183187E1,8.6436066E1,0E0,0E0,0E0,0E0,0E0,0E0,0E0,0E0],"parents":[2147483647,0,0,1,1,2,2,3,3,4,4,5,5,6,6],"right_children":[2,4,6,8,10,12,14,-1,-1,-1,-1,-1,-1,-1,-1],"split_conditions":[1E0,7.392857E0,6.678571E0,2E0,1E0,2.866519E0,1E0,1.1176624E-2,-2.9489708E-3,1.267107E-4,1.3944854E-2,-1.0904009E-3,1.05612E-2,6.569044E-3,2.3222532E-2],"split_indices":[1,12,12,4,0,13,0,0,0,0,0,0,0,0,0],"split_type":[0,0,0,0,0,0,0,0,0,0,0,0,0,0,0],"sum_hessian":[1.417E3,1.008E3,4.09E2,6.92E2,3.16E2,1.39E2,2.7E2,7E0,6.85E2,3.06E2,1E1,1.27E2,1.2E1,2.58E2,1.2E1],"tree_param":{"num_deleted":"0","num_feature":"14","num_nodes":"15","size_leaf_vector":"1"}},{"base_weights":[-1.9765679E-2,-3.3033916E-1,7.603481E-1,-7.155836E-1,-1.0178636E-1,5.0075E-1,2.129546E0,-4.788428E-3,4.5306E-3,-1.5468183E-3,1.3591655E-3,-1.9673265E-3,5.0075436E-3,1.1379257E-2,2.3376027E-2],"categories":[],"categories_nodes":[],"categories_segments":[],"categories_sizes":[],"default_left":[0,0,0,0,0,0,0,0,0,0,0,0,0,0,0],"id":28,"left_children":[1,3,5,7,9,11,13,-1,-1,-1,-1,-1,-1,-1,-1],"loss_changes":[3.3551782E2,8.667743E1,1.3703812E2,3.104831E1,2.9751095E1,8.437581E1,1.8621399E1,0E0,0E0,0E0,0E0,0E0,0E0,0E0,0E0],"parents":[2147483647,0,0,1,1,2,2,3,3,4,4,5,5,6,6],"right_children":[2,4,6,8,10,12,14,-1,-1,-1,-1,-1,-1,-1,-1],"split_conditions":[1E0,6.75E0,3.1089137E0,1E0,2.9840848E0,6.357143E0,1.3E1,-4.788428E-3,4.5306E-3,-1.5468183E-3,1.3591655E-3,-1.9673265E-3,5.0075436E-3,1.1379257E-2,2.3376027E-2],"split_indices":[1,12,13,0,13,10,4,0,0,0,0,0,0,0,0],"split_type":[0,0,0,0,0,0,0,0,0,0,0,0,0,0,0],"sum_hessian":[1.384E3,9.91E2,3.93E2,3.67E2,6.24E2,3.32E2,6.1E1,3.54E2,1.3E1,4.29E2,1.95E2,9E1,2.42E2,5.4E1,7E0],"tree_param":{"num_deleted":"0","num_feature":"14","num_nodes":"15","size_leaf_vector":"1"}},{"base_weights":[1.7513404E-2,-3.2081228E-1,8.446606E-1,-3.7806743E-1,1.568482E0,-2.6222858E-1,1.1989049E0,-3.1666905E-3,8.8302227E-4,5.4790643E-3,3.3458747E-2,1.1486504E-2,-2.9574288E-3,6.690489E-3,2.4707403E-2],"categories":[],"categories_nodes":[],"categories_segments":[],"categories_sizes":[],"default_left":[0,0,0,0,0,0,0,0,0,0,0,0,0,0,0],"id":29,"left_children":[1,3,5,7,9,11,13,-1,-1,-1,-1,-1,-1,-1,-1],"loss_changes":[3.9217548E2,1.0716717E2,1.606099E2,6.7139114E1,6.659976E1,4.49752E1,9.457974E1,0E0,0E0,0E0,0E0,0E0,0E0,0E0,0E0],"parents":[2147483647,0,0,1,1,2,2,3,3,4,4,5,5,6,6],"right_children":[2,4,6,8,10,12,14,-1,-1,-1,-1,-1,-1,-1,-1],"split_conditions":[1E0,1E0,6.357143E0,2.9840848E0,3.4503279E0,3E0,1E0,-3.1666905E-3,8.8302227E-4,5.4790643E-3,3.3458747E-2,1.1486504E-2,-2.9574288E-3,6.690489E-3,2.4707403E-2],"split_indices":[1,0,10,13,9,3,0,0,0,0,0,0,0,0,0],"split_type":[0,0,0,0,0,0,0,0,0,0,0,0,0,0,0],"sum_hessian":[1.398E3,9.92E2,4.06E2,9.64E2,2.8E1,9.8E1,3.08E2,7.69E2,1.95E2,2.5E1,3E0,8E0,9E1,2.97E2,1.1E1],"tree_param":{"num_deleted":"0","num_feature":"14","num_nodes":"15","size_leaf_vector":"1"}},{"base_weights":[2.5807425E-2,-2.658839E-1,7.205934E-1,-3.9767388E-1,2.2703072E-1,5.960467E-1,3.712241E0,-2.641602E-3,1.2353088E-2,-4.7668247E-3,2.859187E-3,2.116462E-3,1.108921E-2,1.0875658E-2,3.311309E-2],"categories":[],"categories_nodes":[],"categories_segments":[],"categories_sizes":[],"default_left":[0,0,0,0,0,0,0,0,0,0,0,0,0,0,0],"id":30,"left_children":[1,3,5,7,9,11,13,-1,-1,-1,-1,-1,-1,-1,-1],"loss_changes":[2.822383E2,6.3817093E1,1.4809741E2,5.2709633E1,4.8254253E1,1.1841325E2,3.631993E1,0E0,0E0,0E0,0E0,0E0,0E0,0E0,0E0],"parents":[2147483647,0,0,1,1,2,2,3,3,4,4,5,5,6,6],"right_children":[2,4,6,8,10,12,14,-1,-1,-1,-1,-1,-1,-1,-1],"split_conditions":[5E0,2.9840848E0,1E0,1.3E1,2E0,3.0541844E0,6E0,-2.641602E-3,1.2353088E-2,-4.7668247E-3,2.859187E-3,2.116462E-3,1.108921E-2,1.0875658E-2,3.311309E-2],"split_indices":[2,13,0,6,3,13,2,0,0,0,0,0,0,0,0],"split_type":[0,0,0,0,0,0,0,0,0,0,0,0,0,0,0],"sum_hessian":[1.389E3,9.78E2,4.11E2,7.73E2,2.05E2,3.96E2,1.5E1,7.65E2,8E0,3.8E1,1.67E2,3.28E2,6.8E1,8E0,7E0],"tree_param":{"num_deleted":"0","num_feature":"14","num_nodes":"15","size_leaf_vector":"1"}},{"base_weights":[-2.0050574E-2,-3.8081482E-1,8.530943E-1,-4.238382E-1,9.1553944E-1,-2.5433186E-1,1.213567E0,-4.208307E-3,-1.3202031E-3,1.2797877E-2,-1.9810866E-3,-3.368185E-3,6.184537E-3,6.6899755E-3,2.4387997E-2],"categories":[],"categories_nodes":[],"categories_segments":[],"categories_sizes":[],"default_left":[0,0,0,0,0,0,0,0,0,0,0,0,0,0,0],"id":31,"left_children":[1,3,5,7,9,11,13,-1,-1,-1,-1,-1,-1,-1,-1],"loss_changes":[4.4635886E2,5.604315E1,1.6629974E2,5.1560944E1,4.7452328E1,3.7189533E1,1.0609848E2,0E0,0E0,0E0,0E0,0E0,0E0,0E0,0E0],"parents":[2147483647,0,0,1,1,2,2,3,3,4,4,5,5,6,6],"right_children":[2,4,6,8,10,12,14,-1,-1,-1,-1,-1,-1,-1,-1],"split_conditions":[5E0,1E0,6.357143E0,6.928571E0,7E0,9E0,1E0,-4.208307E-3,-1.3202031E-3,1.2797877E-2,-1.9810866E-3,-3.368185E-3,6.184537E-3,6.6899755E-3,2.4387997E-2],"split_indices":[2,0,10,12,4,3,0,0,0,0,0,0,0,0,0],"split_type":[0,0,0,0,0,0,0,0,0,0,0,0,0,0,0],"sum_hessian":[1.416E3,1.003E3,4.13E2,9.72E2,3.1E1,1.01E2,3.12E2,4.37E2,5.35E2,1.6E1,1.5E1,8.3E1,1.8E1,2.99E2,1.3E1],"tree_param":{"num_deleted":"0","num_feature":"14","num_nodes":"15","size_leaf_vector":"1"}},{"base_weights":[-3.42282E-3,-3.35454E-1,8.021721E-1,-5.4102963E-1,2.6225295E-2,-5.0358977E-3,1.21435E0,-3.713408E-3,3.4407561E-3,-3.5611846E-4,1.3331185E-2,1.20319575E-2,-1.0976455E-3,6.6801333E-3,2.4824185E-2],"categories":[],"categories_nodes":[],"categories_segments":[],"categories_sizes":[],"default_left":[0,0,0,0,0,0,0,0,0,0,0,0,0,0,0],"id":32,"left_children":[1,3,5,7,9,11,13,-1,-1,-1,-1,-1,-1,-1,-1],"loss_changes":[3.760297E2,7.45213E1,1.3731061E2,4.104129E1,6.586539E1,4.565361E1,9.5362976E1,0E0,0E0,0E0,0E0,0E0,0E0,0E0,0E0],"parents":[2147483647,0,0,1,1,2,2,3,3,4,4,5,5,6,6],"right_children":[2,4,6,8,10,12,14,-1,-1,-1,-1,-1,-1,-1,-1],"split_conditions":[5E0,7.285714E0,6.678571E0,3.0420337E0,1E0,2.0813482E0,1E0,-3.713408E-3,3.4407561E-3,-3.5611846E-4,1.3331185E-2,1.20319575E-2,-1.0976455E-3,6.6801333E-3,2.4824185E-2],"split_indices":[2,12,12,13,0,13,0,0,0,0,0,0,0,0,0],"split_type":[0,0,0,0,0,0,0,0,0,0,0,0,0,0,0],"sum_hessian":[1.405E3,9.96E2,4.09E2,6.36E2,3.6E2,1.38E2,2.71E2,6.05E2,3.1E1,3.47E2,1.3E1,1E1,1.28E2,2.6E2,1.1E1],"tree_param":{"num_deleted":"0","num_feature":"14","num_nodes":"15","size_leaf_vector":"1"}},{"base_weights":[-6.126653E-2,-3.8944176E-1,7.4221915E-1,-5.1458293E-1,1.014481E-1,-2.4826516E-1,1.0627079E0,-2.9108406E-3,-1.2644876E-2,7.262735E-5,1.54651515E-2,-2.933887E-3,8.542142E-3,5.992341E-3,2.1624064E-2],"categories":[],"categories_nodes":[],"categories_segments":[],"categories_sizes":[],"default_left":[0,0,0,0,0,0,0,0,0,0,0,0,0,0,0],"id":33,"left_children":[1,3,5,7,9,11,13,-1,-1,-1,-1,-1,-1,-1,-1],"loss_changes":[3.7131976E2,6.1848846E1,1.3039264E2,5.185721E1,4.1764343E1,3.6665413E1,6.502438E1,0E0,0E0,0E0,0E0,0E0,0E0,0E0,0E0],"parents":[2147483647,0,0,1,1,2,2,3,3,4,4,5,5,6,6],"right_children":[2,4,6,8,10,12,14,-1,-1,-1,-1,-1,-1,-1,-1],"split_conditions":[1E0,3.287784E0,6.357143E0,3.207135E0,1E0,3.002746E0,1E0,-2.9108406E-3,-1.2644876E-2,7.262735E-5,1.54651515E-2,-2.933887E-3,8.542142E-3,5.992341E-3,2.1624064E-2],"split_indices":[1,9,10,9,0,11,0,0,0,0,0,0,0,0,0],"split_type":[0,0,0,0,0,0,0,0,0,0,0,0,0,0,0],"sum_hessian":[1.407E3,1E3,4.07E2,7.98E2,2.02E2,9.9E1,3.08E2,7.77E2,2.1E1,1.96E2,6E0,8.8E1,1.1E1,2.98E2,1E1],"tree_param":{"num_deleted":"0","num_feature":"14","num_nodes":"15","size_leaf_vector":"1"}},{"base_weights":[-1.5905367E-2,-3.082896E-1,7.4377906E-1,-8.009153E-1,-1.9084986E-1,6.141912E-1,3.9021523E0,-2.7493327E-3,-8.118919E-3,5.996511E-3,-1.4013374E-3,-2.0294457E-3,5.8999993E-3,1.2341258E-2,3.234024E-2],"categories":[],"categories_nodes":[],"categories_segments":[],"categories_sizes":[],"default_left":[0,0,0,0,0,0,0,0,0,0,0,0,0,0,0],"id":34,"left_children":[1,3,5,7,9,11,13,-1,-1,-1,-1,-1,-1,-1,-1],"loss_changes":[3.1356198E2,5.8190994E1,1.5468593E2,3.3605927E1,3.350379E1,1.2107915E2,2.181128E1,0E0,0E0,0E0,0E0,0E0,0E0,0E0,0E0],"parents":[2147483647,0,0,1,1,2,2,3,3,4,4,5,5,6,6],"right_children":[2,4,6,8,10,12,14,-1,-1,-1,-1,-1,-1,-1,-1],"split_conditions":[1E0,6.321429E0,1E0,3E0,1.2535664E0,6.428571E0,6E0,-2.7493327E-3,-8.118919E-3,5.996511E-3,-1.4013374E-3,-2.0294457E-3,5.8999993E-3,1.2341258E-2,3.234024E-2],"split_indices":[1,12,0,2,9,10,2,0,0,0,0,0,0,0,0],"split_type":[0,0,0,0,0,0,0,0,0,0,0,0,0,0,0],"sum_hessian":[1.411E3,1.02E3,3.91E2,1.94E2,8.26E2,3.77E2,1.4E1,1.16E2,7.8E1,2.3E1,8.03E2,9.9E1,2.78E2,7E0,7E0],"tree_param":{"num_deleted":"0","num_feature":"14","num_nodes":"15","size_leaf_vector":"1"}},{"base_weights":[1.4376943E-2,-2.915931E-1,7.8850603E-1,-5.9429204E-1,-1.445276E-2,-8.048056E-1,1.0153744E0,-3.8484423E-3,1.6192693E-2,-4.250728E-3,5.197744E-4,-7.237547E-3,1.2285057E-2,5.1039597E-3,1.1211708E-2],"categories":[],"categories_nodes":[],"categories_segments":[],"categories_sizes":[],"default_left":[0,0,0,0,0,0,0,0,0,0,0,0,0,0,0],"id":35,"left_children":[1,3,5,7,9,11,13,-1,-1,-1,-1,-1,-1,-1,-1],"loss_changes":[3.4097668E2,8.595812E1,1.4849382E2,4.237256E1,3.615704E1,5.3469303E1,5.1036438E1,0E0,0E0,0E0,0E0,0E0,0E0,0E0,0E0],"parents":[2147483647,0,0,1,1,2,2,3,3,4,4,5,5,6,6],"right_children":[2,4,6,8,10,12,14,-1,-1,-1,-1,-1,-1,-1,-1],"split_conditions":[1E0,7E0,6E0,1.3E1,6.857143E0,2.7545056E0,3.04703E0,-3.8484423E-3,1.6192693E-2,-4.250728E-3,5.197744E-4,-7.237547E-3,1.2285057E-2,5.1039597E-3,1.1211708E-2],"split_indices":[1,12,10,6,10,13,13,0,0,0,0,0,0,0,0],"split_type":[0,0,0,0,0,0,0,0,0,0,0,0,0,0,0],"sum_hessian":[1.436E3,1.029E3,4.07E2,4.9E2,5.39E2,5E1,3.57E2,4.87E2,3E0,6.9E1,4.7E2,4.5E1,5E0,2.9E2,6.7E1],"tree_param":{"num_deleted":"0","num_feature":"14","num_nodes":"15","size_leaf_vector":"1"}},{"base_weights":[1.6573532E-3,-3.0266553E-1,7.503154E-1,-4.6310136E-1,3.1730613E-1,1.84382E-1,1.3609915E0,4.0006824E-3,-3.2859407E-3,-5.0776196E-3,3.3332491E-3,-3.828282E-3,2.728729E-3,7.762435E-3,2.7258348E-2],"categories":[],"categories_nodes":[],"categories_segments":[],"categories_sizes":[],"default_left":[0,0,0,0,0,0,0,0,0,0,0,0,0,0,0],"id":36,"left_children":[1,3,5,7,9,11,13,-1,-1,-1,-1,-1,-1,-1,-1],"loss_changes":[3.1908093E2,9.913082E1,1.3859717E2,5.9183456E1,5.141651E1,4.3691124E1,5.4025787E1,0E0,0E0,0E0,0E0,0E0,0E0,0E0,0E0],"parents":[2147483647,0,0,1,1,2,2,3,3,4,4,5,5,6,6],"right_children":[2,4,6,8,10,12,14,-1,-1,-1,-1,-1,-1,-1,-1],"split_conditions":[5E0,2.9840848E0,7.071429E0,2E0,2E0,6E0,1E0,4.0006824E-3,-3.2859407E-3,-5.0776196E-3,3.3332491E-3,-3.828282E-3,2.728729E-3,7.762435E-3,2.7258348E-2],"split_indices":[2,13,12,3,3,10,0,0,0,0,0,0,0,0,0],"split_type":[0,0,0,0,0,0,0,0,0,0,0,0,0,0,0],"sum_hessian":[1.397E3,9.93E2,4.04E2,7.9E2,2.03E2,2.11E2,1.93E2,4.4E1,7.46E2,3.2E1,1.71E2,5E1,1.61E2,1.88E2,5E0],"tree_param":{"num_deleted":"0","num_feature":"14","num_nodes":"15","size_leaf_vector":"1"}},{"base_weights":[2.8345214E-2,-2.7085832E-1,7.523601E-1,-5.12212E-1,-0E0,-1.2246608E-1,1.1737952E0,-4.3024574E-3,8.373396E-5,2.5714578E-3,-1.1257099E-3,-8.771161E-3,2.9813612E-4,6.3570244E-3,2.491458E-2],"categories":[],"categories_nodes":[],"categories_segments":[],"categories_sizes":[],"default_left":[0,0,0,0,0,0,0,0,0,0,0,0,0,0,0],"id":37,"left_children":[1,3,5,7,9,11,13,-1,-1,-1,-1,-1,-1,-1,-1],"loss_changes":[3.0211526E2,6.443326E1,1.5134967E2,5.038713E1,3.5152718E1,3.0407316E1,1.08294556E2,0E0,0E0,0E0,0E0,0E0,0E0,0E0,0E0],"parents":[2147483647,0,0,1,1,2,2,3,3,4,4,5,5,6,6],"right_children":[2,4,6,8,10,12,14,-1,-1,-1,-1,-1,-1,-1,-1],"split_conditions":[1E0,7.107143E0,6.678571E0,9E0,2.1930625E0,5.142857E0,1E0,-4.3024574E-3,8.373396E-5,2.5714578E-3,-1.1257099E-3,-8.771161E-3,2.9813612E-4,6.3570244E-3,2.491458E-2],"split_indices":[1,12,12,3,9,8,0,0,0,0,0,0,0,0,0],"split_type":[0,0,0,0,0,0,0,0,0,0,0,0,0,0,0],"sum_hessian":[1.391E3,9.84E2,4.07E2,5.2E2,4.64E2,1.32E2,2.75E2,3.87E2,1.33E2,1.41E2,3.23E2,1.5E1,1.17E2,2.63E2,1.2E1],"tree_param":{"num_deleted":"0","num_feature":"14","num_nodes":"15","size_leaf_vector":"1"}},{"base_weights":[2.5344418E-2,-2.783687E-1,7.86713E-1,-5.398828E-1,-3.6873575E-2,-5.9529144E-2,1.2143161E0,-4.5265206E-3,-1.3959494E-3,-5.271837E-4,7.487078E-3,-1.613382E-3,1.4848365E-2,6.7673023E-3,2.2614336E-2],"categories":[],"categories_nodes":[],"categories_segments":[],"categories_sizes":[],"default_left":[0,0,0,0,0,0,0,0,0,0,0,0,0,0,0],"id":38,"left_children":[1,3,5,7,9,11,13,-1,-1,-1,-1,-1,-1,-1,-1],"loss_changes":[3.2503162E2,6.2905952E1,1.4603233E2,2.7918045E1,3.0740189E1,6.569101E1,7.190326E1,0E0,0E0,0E0,0E0,0E0,0E0,0E0,0E0],"parents":[2147483647,0,0,1,1,2,2,3,3,4,4,5,5,6,6],"right_children":[2,4,6,8,10,12,14,-1,-1,-1,-1,-1,-1,-1,-1],"split_conditions":[1E0,7E0,6.678571E0,2.572751E0,1E0,2.866519E0,1E0,-4.5265206E-3,-1.3959494E-3,-5.271837E-4,7.487078E-3,-1.613382E-3,1.4848365E-2,6.7673023E-3,2.2614336E-2],"split_indices":[1,12,12,9,0,13,0,0,0,0,0,0,0,0,0],"split_type":[0,0,0,0,0,0,0,0,0,0,0,0,0,0,0],"sum_hessian":[1.402E3,1.002E3,4E2,4.79E2,5.23E2,1.34E2,2.66E2,2.96E2,1.83E2,5.05E2,1.8E1,1.25E2,9E0,2.55E2,1.1E1],"tree_param":{"num_deleted":"0","num_feature":"14","num_nodes":"15","size_leaf_vector":"1"}},{"base_weights":[-1.8090579E-3,-3.1299287E-1,7.655788E-1,-3.6377963E-1,1.1694047E0,-2.0118992E-1,1.0673546E0,-5.0435276E-3,-1.5328663E-3,1.7272517E-3,2.2945289E-2,-4.875009E-3,3.6606411E-3,5.847935E-3,2.2728633E-2],"categories":[],"categories_nodes":[],"categories_segments":[],"categories_sizes":[],"default_left":[0,0,0,0,0,0,0,0,0,0,0,0,0,0,0],"id":39,"left_children":[1,3,5,7,9,11,13,-1,-1,-1,-1,-1,-1,-1,-1],"loss_changes":[3.2636557E2,7.318632E1,1.1581172E2,4.843419E1,6.832208E1,4.4228287E1,8.984543E1,0E0,0E0,0E0,0E0,0E0,0E0,0E0,0E0],"parents":[2147483647,0,0,1,1,2,2,3,3,4,4,5,5,6,6],"right_children":[2,4,6,8,10,12,14,-1,-1,-1,-1,-1,-1,-1,-1],"split_conditions":[1E0,1E0,6.357143E0,6.392857E0,9E0,8E0,1E0,-5.0435276E-3,-1.5328663E-3,1.7272517E-3,2.2945289E-2,-4.875009E-3,3.6606411E-3,5.847935E-3,2.2728633E-2],"split_indices":[1,0,10,12,7,7,0,0,0,0,0,0,0,0,0],"split_type":[0,0,0,0,0,0,0,0,0,0,0,0,0,0,0],"sum_hessian":[1.366E3,9.73E2,3.93E2,9.42E2,3.1E1,9.3E1,3E2,1.91E2,7.51E2,2.4E1,7E0,5.4E1,3.9E1,2.88E2,1.2E1],"tree_param":{"num_deleted":"0","num_feature":"14","num_nodes":"15","size_leaf_vector":"1"}},{"base_weights":[-6.217193E-5,-3.0006212E-1,7.6802886E-1,-3.4088004E-1,1.2140987E0,5.2367556E-1,2.09E0,-6.325876E-3,-1.6979609E-3,2.8960804E-2,3.2329909E-3,-0E0,5.4131695E-3,8.576849E-3,2.1015005E-2],"categories":[],"categories_nodes":[],"categories_segments":[],"categories_sizes":[],"default_left":[0,0,0,0,0,0,0,0,0,0,0,0,0,0,0],"id":40,"left_children":[1,3,5,7,9,11,13,-1,-1,-1,-1,-1,-1,-1,-1],"loss_changes":[3.2020074E2,6.1662666E1,1.22957016E2,4.314731E1,5.6057205E1,6.1103424E1,4.6810974E1,0E0,0E0,0E0,0E0,0E0,0E0,0E0,0E0],"parents":[2147483647,0,0,1,1,2,2,3,3,4,4,5,5,6,6],"right_children":[2,4,6,8,10,12,14,-1,-1,-1,-1,-1,-1,-1,-1],"split_conditions":[1E0,3.8800702E0,3.1089137E0,5.714286E0,7.214286E0,6.678571E0,3.4503279E0,-6.325876E-3,-1.6979609E-3,2.8960804E-2,3.2329909E-3,-0E0,5.4131695E-3,8.576849E-3,2.1015005E-2],"split_indices":[1,11,13,10,10,12,9,0,0,0,0,0,0,0,0],"split_type":[0,0,0,0,0,0,0,0,0,0,0,0,0,0,0],"sum_hessian":[1.389E3,1E3,3.89E2,9.75E2,2.5E1,3.3E2,5.9E1,8.5E1,8.9E2,3E0,2.2E1,1.32E2,1.98E2,4E1,1.9E1],"tree_param":{"num_deleted":"0","num_feature":"14","num_nodes":"15","size_leaf_vector":"1"}},{"base_weights":[-3.322866E-2,-3.4607413E-1,7.5824577E-1,-8.334383E-1,-2.0872596E-1,-8.257959E-1,9.7860885E-1,-2.4772398E-3,-8.015402E-3,-2.135013E-3,1.2985555E-3,-7.252361E-3,1.02371825E-2,5.4242774E-3,2.0431252E-2],"categories":[],"categories_nodes":[],"categories_segments":[],"categories_sizes":[],"default_left":[0,0,0,0,0,0,0,0,0,0,0,0,0,0,0],"id":41,"left_children":[1,3,5,7,9,11,13,-1,-1,-1,-1,-1,-1,-1,-1],"loss_changes":[3.429199E2,6.560097E1,1.3779463E2,4.1534073E1,4.4372517E1,4.2665806E1,7.657681E1,0E0,0E0,0E0,0E0,0E0,0E0,0E0,0E0],"parents":[2147483647,0,0,1,1,2,2,3,3,4,4,5,5,6,6],"right_children":[2,4,6,8,10,12,14,-1,-1,-1,-1,-1,-1,-1,-1],"split_conditions":[1E0,6.392857E0,6E0,2.4146817E0,2.9840848E0,2.7545056E0,1E0,-2.4772398E-3,-8.015402E-3,-2.135013E-3,1.2985555E-3,-7.252361E-3,1.02371825E-2,5.4242774E-3,2.0431252E-2],"split_indices":[1,12,10,13,13,13,0,0,0,0,0,0,0,0,0],"split_type":[0,0,0,0,0,0,0,0,0,0,0,0,0,0,0],"sum_hessian":[1.384E3,9.93E2,3.91E2,2.16E2,7.77E2,4.7E1,3.44E2,1.13E2,1.03E2,5.88E2,1.89E2,4.2E1,5E0,3.31E2,1.3E1],"tree_param":{"num_deleted":"0","num_feature":"14","num_nodes":"15","size_leaf_vector":"1"}},{"base_weights":[-1.852779E-2,-3.1131852E-1,7.0762765E-1,-6.143985E-1,-2.9572478E-2,1.6501004E-1,1.2429787E0,-4.1611358E-3,6.398314E-3,-1.426442E-3,1.6906369E-3,-8.475125E-3,1.6957364E-3,6.9599813E-3,2.06623E-2],"categories":[],"categories_nodes":[],"categories_segments":[],"categories_sizes":[],"default_left":[0,0,0,0,0,0,0,0,0,0,0,0,0,0,0],"id":42,"left_children":[1,3,5,7,9,11,13,-1,-1,-1,-1,-1,-1,-1,-1],"loss_changes":[2.9696616E2,8.4651245E1,1.15260605E2,4.551335E1,3.1523151E1,3.306766E1,4.3246613E1,0E0,0E0,0E0,0E0,0E0,0E0,0E0,0E0],"parents":[2147483647,0,0,1,1,2,2,3,3,4,4,5,5,6,6],"right_children":[2,4,6,8,10,12,14,-1,-1,-1,-1,-1,-1,-1,-1],"split_conditions":[1E0,7E0,7.071429E0,1E0,2.8784916E0,5.142857E0,1.3E1,-4.1611358E-3,6.398314E-3,-1.426442E-3,1.6906369E-3,-8.475125E-3,1.6957364E-3,6.9599813E-3,2.06623E-2],"split_indices":[1,12,12,0,11,8,4,0,0,0,0,0,0,0,0],"split_type":[0,0,0,0,0,0,0,0,0,0,0,0,0,0,0],"sum_hessian":[1.396E3,9.96E2,4E2,4.78E2,5.18E2,2E2,2E2,4.63E2,1.5E1,3.13E2,2.05E2,1.2E1,1.88E2,1.91E2,9E0],"tree_param":{"num_deleted":"0","num_feature":"14","num_nodes":"15","size_leaf_vector":"1"}},{"base_weights":[1.5236509E-2,-2.775723E-1,7.39597E-1,-4.3526074E-1,2.9149854E-1,-4.123795E-1,1.0903274E0,4.4046715E-3,-2.952059E-3,8.7627023E-4,8.722437E-3,9.0008415E-4,-8.113647E-3,6.038285E-3,2.2401536E-2],"categories":[],"categories_nodes":[],"categories_segments":[],"categories_sizes":[],"default_left":[0,0,0,0,0,0,0,0,0,0,0,0,0,0,0],"id":43,"left_children":[1,3,5,7,9,11,13,-1,-1,-1,-1,-1,-1,-1,-1],"loss_changes":[2.9898007E2,9.0154724E1,1.6501138E2,3.723456E1,3.5023537E1,4.857931E1,8.43103E1,0E0,0E0,0E0,0E0,0E0,0E0,0E0,0E0],"parents":[2147483647,0,0,1,1,2,2,3,3,4,4,5,5,6,6],"right_children":[2,4,6,8,10,12,14,-1,-1,-1,-1,-1,-1,-1,-1],"split_conditions":[1E0,2.9840848E0,6.357143E0,1.2535664E0,3.8800702E0,2.4397502E0,1E0,4.4046715E-3,-2.952059E-3,8.7627023E-4,8.722437E-3,9.0008415E-4,-8.113647E-3,6.038285E-3,2.2401536E-2],"split_indices":[1,13,10,9,11,9,0,0,0,0,0,0,0,0,0],"split_type":[0,0,0,0,0,0,0,0,0,0,0,0,0,0,0],"sum_hessian":[1.406E3,1.001E3,4.05E2,7.85E2,2.16E2,9.4E1,3.11E2,2.6E1,7.59E2,1.92E2,2.4E1,5.8E1,3.6E1,2.99E2,1.2E1],"tree_param":{"num_deleted":"0","num_feature":"14","num_nodes":"15","size_leaf_vector":"1"}},{"base_weights":[-7.311501E-3,-2.7866364E-1,6.806398E-1,-4.2513856E-1,1.8790899E-1,-1.3914296E-1,1.1065594E0,-2.8219216E-3,1.11797135E-2,3.557162E-4,8.833239E-3,-2.0699243E-3,1.0166039E-2,5.97135E-3,2.4069304E-2],"categories":[],"categories_nodes":[],"categories_segments":[],"categories_sizes":[],"default_left":[0,0,0,0,0,0,0,0,0,0,0,0,0,0,0],"id":44,"left_children":[1,3,5,7,9,11,13,-1,-1,-1,-1,-1,-1,-1,-1],"loss_changes":[2.5827197E2,6.818901E1,1.3739825E2,5.0994705E1,3.7119873E1,4.6108562E1,9.503302E1,0E0,0E0,0E0,0E0,0E0,0E0,0E0,0E0],"parents":[2147483647,0,0,1,1,2,2,3,3,4,4,5,5,6,6],"right_children":[2,4,6,8,10,12,14,-1,-1,-1,-1,-1,-1,-1,-1],"split_conditions":[1E0,2.9625082E0,6.678571E0,1.3E1,3.8800702E0,2.866519E0,1E0,-2.8219216E-3,1.11797135E-2,3.557162E-4,8.833239E-3,-2.0699243E-3,1.0166039E-2,5.97135E-3,2.4069304E-2],"split_indices":[1,13,12,6,11,13,0,0,0,0,0,0,0,0,0],"split_type":[0,0,0,0,0,0,0,0,0,0,0,0,0,0,0],"sum_hessian":[1.383E3,9.93E2,3.9E2,7.57E2,2.36E2,1.33E2,2.57E2,7.48E2,9E0,2.15E2,2.1E1,1.21E2,1.2E1,2.46E2,1.1E1],"tree_param":{"num_deleted":"0","num_feature":"14","num_nodes":"15","size_leaf_vector":"1"}},{"base_weights":[1.3833161E-2,-2.709533E-1,7.391335E-1,-1.0256523E0,-1.7097904E-1,-1.6189097E-1,1.024404E0,2.388255E-3,-7.2461152E-3,-1.3468066E-3,8.310774E-3,1.3444152E-2,-2.361409E-3,5.834322E-3,1.7759912E-2],"categories":[],"categories_nodes":[],"categories_segments":[],"categories_sizes":[],"default_left":[0,0,0,0,0,0,0,0,0,0,0,0,0,0,0],"id":45,"left_children":[1,3,5,7,9,11,13,-1,-1,-1,-1,-1,-1,-1,-1],"loss_changes":[2.8849432E2,7.4476425E1,1.02080765E2,2.4566109E1,6.1603607E1,4.8121456E1,4.0230072E1,0E0,0E0,0E0,0E0,0E0,0E0,0E0,0E0],"parents":[2147483647,0,0,1,1,2,2,3,3,4,4,5,5,6,6],"right_children":[2,4,6,8,10,12,14,-1,-1,-1,-1,-1,-1,-1,-1],"split_conditions":[1E0,6.107143E0,6.357143E0,1.780542E0,3.8800702E0,3E0,1.3E1,2.388255E-3,-7.2461152E-3,-1.3468066E-3,8.310774E-3,1.3444152E-2,-2.361409E-3,5.834322E-3,1.7759912E-2],"split_indices":[1,12,10,11,11,3,4,0,0,0,0,0,0,0,0],"split_type":[0,0,0,0,0,0,0,0,0,0,0,0,0,0,0],"sum_hessian":[1.393E3,1E3,3.93E2,1.15E2,8.85E2,9.4E1,2.99E2,1E1,1.05E2,8.6E2,2.5E1,7E0,8.7E1,2.88E2,1.1E1],"tree_param":{"num_deleted":"0","num_feature":"14","num_nodes":"15","size_leaf_vector":"1"}},{"base_weights":[3.143213E-2,-2.601747E-1,7.362063E-1,-4.120969E-1,2.8666887E-1,-1.3756315E-1,1.1344326E0,-3.4867213E-3,-1.5471526E-4,-3.4985412E-3,2.9912393E-3,-2.1152552E-3,7.3136142E-3,6.2837163E-3,2.2910532E-2],"categories":[],"categories_nodes":[],"categories_segments":[],"categories_sizes":[],"default_left":[0,0,0,0,0,0,0,0,0,0,0,0,0,0,0],"id":46,"left_children":[1,3,5,7,9,11,13,-1,-1,-1,-1,-1,-1,-1,-1],"loss_changes":[2.8848157E2,8.2546684E1,1.4391028E2,4.4853867E1,3.6109295E1,3.4460724E1,8.001224E1,0E0,0E0,0E0,0E0,0E0,0E0,0E0,0E0],"parents":[2147483647,0,0,1,1,2,2,3,3,4,4,5,5,6,6],"right_children":[2,4,6,8,10,12,14,-1,-1,-1,-1,-1,-1,-1,-1],"split_conditions":[1E0,2.9858572E0,6.642857E0,9E0,2E0,3.0091436E0,1E0,-3.4867213E-3,-1.5471526E-4,-3.4985412E-3,2.9912393E-3,-2.1152552E-3,7.3136142E-3,6.2837163E-3,2.2910532E-2],"split_indices":[1,13,12,3,3,11,0,0,0,0,0,0,0,0,0],"split_type":[0,0,0,0,0,0,0,0,0,0,0,0,0,0,0],"sum_hessian":[1.4E3,9.9E2,4.1E2,7.76E2,2.14E2,1.28E2,2.82E2,5.57E2,2.19E2,3.9E1,1.75E2,1.12E2,1.6E1,2.71E2,1.1E1],"tree_param":{"num_deleted":"0","num_feature":"14","num_nodes":"15","size_leaf_vector":"1"}},{"base_weights":[-7.9702865E-3,-3.0631977E-1,7.5318944E-1,-1.014864E0,-2.1224245E-1,-7.2671E-1,9.8959976E-1,-3.7064906E-3,-9.198797E-3,-1.5729648E-3,8.205176E-3,-6.536489E-3,1.20405285E-2,5.42901E-3,2.164279E-2],"categories":[],"categories_nodes":[],"categories_segments":[],"categories_sizes":[],"default_left":[0,0,0,0,0,0,0,0,0,0,0,0,0,0,0],"id":47,"left_children":[1,3,5,7,9,11,13,-1,-1,-1,-1,-1,-1,-1,-1],"loss_changes":[3.1557965E2,6.554447E1,1.3774599E2,2.027256E1,5.6131004E1,4.881508E1,8.967227E1,0E0,0E0,0E0,0E0,0E0,0E0,0E0,0E0],"parents":[2147483647,0,0,1,1,2,2,3,3,4,4,5,5,6,6],"right_children":[2,4,6,8,10,12,14,-1,-1,-1,-1,-1,-1,-1,-1],"split_conditions":[1E0,6.107143E0,6E0,3E0,1E0,2.7545056E0,1E0,-3.7064906E-3,-9.198797E-3,-1.5729648E-3,8.205176E-3,-6.536489E-3,1.20405285E-2,5.42901E-3,2.164279E-2],"split_indices":[1,12,10,2,0,13,0,0,0,0,0,0,0,0,0],"split_type":[0,0,0,0,0,0,0,0,0,0,0,0,0,0,0],"sum_hessian":[1.389E3,9.99E2,3.9E2,1.15E2,8.84E2,5.3E1,3.37E2,6.3E1,5.2E1,8.62E2,2.2E1,4.8E1,5E0,3.24E2,1.3E1],"tree_param":{"num_deleted":"0","num_feature":"14","num_nodes":"15","size_leaf_vector":"1"}}]},"name":"gbtree"},"learner_model_param":{"base_score":"[6.9944305E0]","boost_from_average":"1","num_class":"0","num_feature":"14","num_target":"1"},"objective":{"name":"reg:squarederror","reg_loss_param":{"scale_pos_weight":"1"}}},"version":[3,1,2]}