{"learner":{"attributes":{"best_iteration":"239","best_score":"3.7739453103807237"},"feature_names":["feriado","fin_de_semana","dow","mes","lag_1","lag_7","lag_14","lag_28","rolling_mean_7","rolling_std_7","rolling_mean_14","rolling_std_14","rolling_mean_28","rolling_std_28"],"feature_types":["int","int","int","int","float","float","float","float","float","float","float","float","float","float"],"gradient_booster":{"model":{"cats":{"enc":[],"feature_segments":[],"sorted_idx":[]},"gbtree_model_param":{"num_parallel_tree":"1","num_trees":"280"},"iteration_indptr":[0,1,2,3,4,5,6,7,8,9,10,11,12,13,14,15,16,17,18,19,20,21,22,23,24,25,26,27,28,29,30,31,32,33,34,35,36,37,38,39,40,41,42,43,44,45,46,47,48,49,50,51,52,53,54,55,56,57,58,59,60,61,62,63,64,65,66,67,68,69,70,71,72,73,74,75,76,77,78,79,80,81,82,83,84,85,86,87,88,89,90,91,92,93,94,95,96,97,98,99,100,101,102,103,104,105,106,107,108,109,110,111,112,113,114,115,116,117,118,119,120,121,122,123,124,125,126,127,128,129,130,131,132,133,134,135,136,137,138,139,140,141,142,143,144,145,146,147,148,149,150,151,152,153,154,155,156,157,158,159,160,161,162,163,164,165,166,167,168,169,170,171,172,173,174,175,176,177,178,179,180,181,182,183,184,185,186,187,188,189,190,191,192,193,194,195,196,197,198,199,200,201,202,203,204,205,206,207,208,209,210,211,212,213,214,215,216,217,218,219,220,221,222,223,224,225,226,227,228,229,230,231,232,233,234,235,236,237,238,239,240,241,242,243,244,245,246,247,248,249,250,251,252,253,254,255,256,257,258,259,260,261,262,263,264,265,266,267,268,269,270,271,272,273,274,275,276,277,278,279,280],"tree_info":[0,0,0,0,0,0,0,0,0,0,0,0,0,0,0,0,0,0,0,0,0,0,0,0,0,0,0,0,0,0,0,0,0,0,0,0,0,0,0,0,0,0,0,0,0,0,0,0,0,0,0,0,0,0,0,0,0,0,0,0,0,0,0,0,0,0,0,0,0,0,0,0,0,0,0,0,0,0,0,0,0,0,0,0,0,0,0,0,0,0,0,0,0,0,0,0,0,0,0,0,0,0,0,0,0,0,0,0,0,0,0,0,0,0,0,0,0,0,0,0,0,0,0,0,0,0,0,0,0,0,0,0,0,0,0,0,0,0,0,0,0,0,0,0,0,0,0,0,0,0,0,0,0,0,0,0,0,0,0,0,0,0,0,0,0,0,0,0,0,0,0,0,0,0,0,0,0,0,0,0,0,0,0,0,0,0,0,0,0,0,0,0,0,0,0,0,0,0,0,0,0,0,0,0,0,0,0,0,0,0,0,0,0,0,0,0,0,0,0,0,0,0,0,0,0,0,0,0,0,0,0,0,0,0,0,0,0,0,0,0,0,0,0,0,0,0,0,0,0,0,0,0,0,0,0,0,0,0,0,0,0,0,0,0,0,0,0,0,0,0,0,0,0,0,0,0,0,0,0,0],"trees":[{"base_weights":[-4.1724827E-2,-1.052828E0,2.5277789E0,-1.3175851E0,6.732148E0,2.2503858E0,9.316113E0,-1.746929E-2,-5.6263474E-3,1.3251795E-2,4.7359385E-2,4.399592E-3,1.8208787E-2,7.308278E-3,6.0460415E-2],"categories":[],"categories_nodes":[],"categories_segments":[],"categories_sizes":[],"default_left":[0,0,0,0,0,0,0,0,0,0,0,0,0,0,0],"id":0,"left_children":[1,3,5,7,9,11,13,-1,-1,-1,-1,-1,-1,-1,-1],"loss_changes":[3.6260361E3,2.070579E3,7.118428E2,5.9127734E2,1.1412671E2,3.979928E2,3.4046143E1,0E0,0E0,0E0,0E0,0E0,0E0,0E0,0E0],"parents":[2147483647,0,0,1,1,2,2,3,3,4,4,5,5,6,6],"right_children":[2,4,6,8,10,12,14,-1,-1,-1,-1,-1,-1,-1,-1],"split_conditions":[1E0,1E0,1E0,2.0785715E1,1.8E1,2.1071428E1,1.1E1,-1.746929E-2,-5.6263474E-3,1.3251795E-2,4.7359385E-2,4.399592E-3,1.8208787E-2,7.308278E-3,6.0460415E-2],"split_indices":[1,0,0,12,6,10,4,0,0,0,0,0,0,0,0],"split_type":[0,0,0,0,0,0,0,0,0,0,0,0,0,0,0],"sum_hessian":[1.394E3,1.001E3,3.93E2,9.69E2,3.2E1,3.79E2,1.4E1,2.06E2,7.63E2,6E0,2.6E1,1.18E2,2.61E2,1E0,1.3E1],"tree_param":{"num_deleted":"0","num_feature":"14","num_nodes":"15","size_leaf_vector":"1"}},{"base_weights":[3.0274056E-2,-1.0554477E0,2.7737484E0,-1.2825491E0,6.7989397E0,2.4496148E0,1.072647E1,-1.7590487E-2,-5.6858915E-3,4.9532972E-2,5.9024827E-3,6.944982E-3,2.1443505E-2,7.2860373E-3,6.982581E-2],"categories":[],"categories_nodes":[],"categories_segments":[],"categories_sizes":[],"default_left":[0,0,0,0,0,0,0,0,0,0,0,0,0,0,0],"id":1,"left_children":[1,3,5,7,9,11,13,-1,-1,-1,-1,-1,-1,-1,-1],"loss_changes":[4.138759E3,1.7799135E3,9.7890796E2,5.443744E2,1.813977E2,5.031482E2,5.501941E1,0E0,0E0,0E0,0E0,0E0,0E0,0E0,0E0],"parents":[2147483647,0,0,1,1,2,2,3,3,4,4,5,5,6,6],"right_children":[2,4,6,8,10,12,14,-1,-1,-1,-1,-1,-1,-1,-1],"split_conditions":[1E0,1E0,1E0,2.0678572E1,5.5291433E0,2.1642857E1,1.1E1,-1.7590487E-2,-5.6858915E-3,4.9532972E-2,5.9024827E-3,6.944982E-3,2.1443505E-2,7.2860373E-3,6.982581E-2],"split_indices":[1,0,0,12,9,12,4,0,0,0,0,0,0,0,0],"split_type":[0,0,0,0,0,0,0,0,0,0,0,0,0,0,0],"sum_hessian":[1.387E3,9.94E2,3.93E2,9.67E2,2.7E1,3.79E2,1.4E1,1.82E2,7.85E2,2.2E1,5E0,1.65E2,2.14E2,1E0,1.3E1],"tree_param":{"num_deleted":"0","num_feature":"14","num_nodes":"15","size_leaf_vector":"1"}},{"base_weights":[1.5440326E-2,-1.0125073E0,2.5765817E0,-1.259772E0,6.1378293E0,2.321761E0,9.288251E0,-9.206283E-3,1.2638614E-3,4.497967E-2,5.1044906E-3,5.4228636E-3,1.7518658E-2,3.203977E-2,7.1914226E-2],"categories":[],"categories_nodes":[],"categories_segments":[],"categories_sizes":[],"default_left":[0,0,0,0,0,0,0,0,0,0,0,0,0,0,0],"id":2,"left_children":[1,3,5,7,9,11,13,-1,-1,-1,-1,-1,-1,-1,-1],"loss_changes":[3.6397224E3,1.747803E3,6.465342E2,3.1671326E2,1.8469507E2,2.747588E2,5.952771E1,0E0,0E0,0E0,0E0,0E0,0E0,0E0,0E0],"parents":[2147483647,0,0,1,1,2,2,3,3,4,4,5,5,6,6],"right_children":[2,4,6,8,10,12,14,-1,-1,-1,-1,-1,-1,-1,-1],"split_conditions":[1E0,1E0,1E0,2.3714285E1,5.5291433E0,2.0571428E1,5.3375096E0,-9.206283E-3,1.2638614E-3,4.497967E-2,5.1044906E-3,5.4228636E-3,1.7518658E-2,3.203977E-2,7.1914226E-2],"split_indices":[1,0,0,10,9,8,11,0,0,0,0,0,0,0,0],"split_type":[0,0,0,0,0,0,0,0,0,0,0,0,0,0,0],"sum_hessian":[1.38E3,9.85E2,3.95E2,9.53E2,3.2E1,3.82E2,1.3E1,8.26E2,1.27E2,2.6E1,6E0,1E2,2.82E2,6E0,7E0],"tree_param":{"num_deleted":"0","num_feature":"14","num_nodes":"15","size_leaf_vector":"1"}},{"base_weights":[-4.4283256E-2,-1.0743532E0,2.525199E0,-1.3039325E0,5.8891735E0,2.2380548E0,1.0225014E1,-1.6158406E-2,-5.8064116E-3,4.3095782E-2,1.0657121E-2,2.2479899E-3,1.77714E-2,6.586062E-2,1.290021E-2],"categories":[],"categories_nodes":[],"categories_segments":[],"categories_sizes":[],"default_left":[0,0,0,0,0,0,0,0,0,0,0,0,0,0,0],"id":3,"left_children":[1,3,5,7,9,11,13,-1,-1,-1,-1,-1,-1,-1,-1],"loss_changes":[3.709944E3,1.6049626E3,8.538906E2,4.58886E2,1.2361047E2,4.5488635E2,1.3925171E1,0E0,0E0,0E0,0E0,0E0,0E0,0E0,0E0],"parents":[2147483647,0,0,1,1,2,2,3,3,4,4,5,5,6,6],"right_children":[2,4,6,8,10,12,14,-1,-1,-1,-1,-1,-1,-1,-1],"split_conditions":[1E0,1E0,1E0,2.0785715E1,5.0839114E0,2.0785715E1,3.1E1,-1.6158406E-2,-5.8064116E-3,4.3095782E-2,1.0657121E-2,2.2479899E-3,1.77714E-2,6.586062E-2,1.290021E-2],"split_indices":[1,0,0,12,11,10,7,0,0,0,0,0,0,0,0],"split_type":[0,0,0,0,0,0,0,0,0,0,0,0,0,0,0],"sum_hessian":[1.4E3,1E3,4E2,9.69E2,3.1E1,3.87E2,1.3E1,2.11E2,7.58E2,2.4E1,7E0,9.8E1,2.89E2,1.2E1,1E0],"tree_param":{"num_deleted":"0","num_feature":"14","num_nodes":"15","size_leaf_vector":"1"}},{"base_weights":[2.5900502E-3,-1.040136E0,2.5376835E0,-1.2923962E0,6.475178E0,2.2564418E0,9.628349E0,-1.6467702E-2,-5.500225E-3,4.879272E-2,1.500041E-3,2.6488672E-3,1.8117517E-2,6.2582746E-2,6.965961E-3],"categories":[],"categories_nodes":[],"categories_segments":[],"categories_sizes":[],"default_left":[0,0,0,0,0,0,0,0,0,0,0,0,0,0,0],"id":4,"left_children":[1,3,5,7,9,11,13,-1,-1,-1,-1,-1,-1,-1,-1],"loss_changes":[3.6729714E3,1.8704534E3,7.765571E2,5.216046E2,2.7144617E2,4.7351746E2,4.0301636E1,0E0,0E0,0E0,0E0,0E0,0E0,0E0,0E0],"parents":[2147483647,0,0,1,1,2,2,3,3,4,4,5,5,6,6],"right_children":[2,4,6,8,10,12,14,-1,-1,-1,-1,-1,-1,-1,-1],"split_conditions":[1E0,1E0,1E0,2.0821428E1,5.5291433E0,2.0857143E1,6.7753053E0,-1.6467702E-2,-5.500225E-3,4.879272E-2,1.500041E-3,2.6488672E-3,1.8117517E-2,6.2582746E-2,6.965961E-3],"split_indices":[1,0,0,12,9,10,9,0,0,0,0,0,0,0,0],"split_type":[0,0,0,0,0,0,0,0,0,0,0,0,0,0,0],"sum_hessian":[1.387E3,9.83E2,4.04E2,9.52E2,3.1E1,3.9E2,1.4E1,2.16E2,7.36E2,2.5E1,6E0,1.05E2,2.85E2,1.3E1,1E0],"tree_param":{"num_deleted":"0","num_feature":"14","num_nodes":"15","size_leaf_vector":"1"}},{"base_weights":[5.5084243E-2,-9.9233615E-1,2.6635122E0,-1.2300786E0,6.5092325E0,2.4254878E0,9.063027E0,-1.7534649E-2,-4.849602E-3,4.50879E-2,5.629411E-3,4.430941E-3,1.8579742E-2,6.9447644E-3,5.903812E-2],"categories":[],"categories_nodes":[],"categories_segments":[],"categories_sizes":[],"default_left":[0,0,0,0,0,0,0,0,0,0,0,0,0,0,0],"id":5,"left_children":[1,3,5,7,9,11,13,-1,-1,-1,-1,-1,-1,-1,-1],"loss_changes":[3.861809E3,1.8022317E3,5.8582764E2,6.95125E2,1.20503296E2,3.7920093E2,3.295288E1,0E0,0E0,0E0,0E0,0E0,0E0,0E0,0E0],"parents":[2147483647,0,0,1,1,2,2,3,3,4,4,5,5,6,6],"right_children":[2,4,6,8,10,12,14,-1,-1,-1,-1,-1,-1,-1,-1],"split_conditions":[1E0,1E0,1E0,2.0785715E1,5.5291433E0,2.0785715E1,1.1E1,-1.7534649E-2,-4.849602E-3,4.50879E-2,5.629411E-3,4.430941E-3,1.8579742E-2,6.9447644E-3,5.903812E-2],"split_indices":[1,0,0,12,9,10,4,0,0,0,0,0,0,0,0],"split_type":[0,0,0,0,0,0,0,0,0,0,0,0,0,0,0],"sum_hessian":[1.411E3,1.007E3,4.04E2,9.77E2,3E1,3.91E2,1.3E1,2.12E2,7.65E2,2.6E1,4E0,9.9E1,2.92E2,1E0,1.2E1],"tree_param":{"num_deleted":"0","num_feature":"14","num_nodes":"15","size_leaf_vector":"1"}},{"base_weights":[-5.7035487E-2,-1.0447124E0,2.420227E0,-1.2666974E0,6.1731496E0,2.0925267E0,1.008658E1,-1.696295E-2,-5.272956E-3,7.791022E-3,4.6963293E-2,2.905775E-3,1.5336206E-2,6.466874E-2,1.2490874E-2],"categories":[],"categories_nodes":[],"categories_segments":[],"categories_sizes":[],"default_left":[0,0,0,0,0,0,0,0,0,0,0,0,0,0,0],"id":6,"left_children":[1,3,5,7,9,11,13,-1,-1,-1,-1,-1,-1,-1,-1],"loss_changes":[3.4344783E3,1.613259E3,9.742639E2,5.91188E2,1.9124353E2,2.3569714E2,1.4366089E1,0E0,0E0,0E0,0E0,0E0,0E0,0E0,0E0],"parents":[2147483647,0,0,1,1,2,2,3,3,4,4,5,5,6,6],"right_children":[2,4,6,8,10,12,14,-1,-1,-1,-1,-1,-1,-1,-1],"split_conditions":[1E0,1E0,1E0,2.0785715E1,1.8E1,2.0642857E1,3.1E1,-1.696295E-2,-5.272956E-3,7.791022E-3,4.6963293E-2,2.905775E-3,1.5336206E-2,6.466874E-2,1.2490874E-2],"split_indices":[1,0,0,12,6,12,7,0,0,0,0,0,0,0,0],"split_type":[0,0,0,0,0,0,0,0,0,0,0,0,0,0,0],"sum_hessian":[1.402E3,1.003E3,3.99E2,9.74E2,2.9E1,3.84E2,1.5E1,2.13E2,7.61E2,7E0,2.2E1,7.4E1,3.1E2,1.4E1,1E0],"tree_param":{"num_deleted":"0","num_feature":"14","num_nodes":"15","size_leaf_vector":"1"}},{"base_weights":[8.5093886E-2,-9.3375456E-1,2.5787122E0,-1.1558161E0,5.776792E0,2.314755E0,9.269717E0,-1.5805664E-2,-5.1723956E-3,4.4511143E-2,3.47165E-3,4.4082813E-3,1.796867E-2,6.7268494E-3,6.023678E-2],"categories":[],"categories_nodes":[],"categories_segments":[],"categories_sizes":[],"default_left":[0,0,0,0,0,0,0,0,0,0,0,0,0,0,0],"id":7,"left_children":[1,3,5,7,9,11,13,-1,-1,-1,-1,-1,-1,-1,-1],"loss_changes":[3.5733547E3,1.4907864E3,6.8998364E2,4.2846948E2,2.2521008E2,3.648069E2,3.6713013E1,0E0,0E0,0E0,0E0,0E0,0E0,0E0,0E0],"parents":[2147483647,0,0,1,1,2,2,3,3,4,4,5,5,6,6],"right_children":[2,4,6,8,10,12,14,-1,-1,-1,-1,-1,-1,-1,-1],"split_conditions":[1E0,1E0,1E0,2.0642857E1,5.5291433E0,2.0571428E1,1.1E1,-1.5805664E-2,-5.1723956E-3,4.4511143E-2,3.47165E-3,4.4082813E-3,1.796867E-2,6.7268494E-3,6.023678E-2],"split_indices":[1,0,0,12,9,8,4,0,0,0,0,0,0,0,0],"split_type":[0,0,0,0,0,0,0,0,0,0,0,0,0,0,0],"sum_hessian":[1.404E3,9.97E2,4.07E2,9.66E2,3.1E1,3.93E2,1.4E1,1.79E2,7.87E2,2.4E1,7E0,1.06E2,2.87E2,1E0,1.3E1],"tree_param":{"num_deleted":"0","num_feature":"14","num_nodes":"15","size_leaf_vector":"1"}},{"base_weights":[-1.8023508E-2,-9.6897763E-1,2.4457383E0,-2.3578622E0,-5.486412E-1,8.063854E-1,2.893029E0,7.146693E-3,-1.6036475E-2,-4.16051E-3,1.0369535E-2,1.3754431E-2,-3.5769623E-3,1.6910465E-2,3.2205176E-2],"categories":[],"categories_nodes":[],"categories_segments":[],"categories_sizes":[],"default_left":[0,0,0,0,0,0,0,0,0,0,0,0,0,0,0],"id":8,"left_children":[1,3,5,7,9,11,13,-1,-1,-1,-1,-1,-1,-1,-1],"loss_changes":[3.3073337E3,5.9145734E2,2.8309155E2,1.9479285E2,2.1431609E2,1.7075957E2,9.598926E1,0E0,0E0,0E0,0E0,0E0,0E0,0E0,0E0],"parents":[2147483647,0,0,1,1,2,2,3,3,4,4,5,5,6,6],"right_children":[2,4,6,8,10,12,14,-1,-1,-1,-1,-1,-1,-1,-1],"split_conditions":[1E0,2.0821428E1,2.0428572E1,1.3E1,3.1E1,7E0,2.5428572E1,7.146693E-3,-1.6036475E-2,-4.16051E-3,1.0369535E-2,1.3754431E-2,-3.5769623E-3,1.6910465E-2,3.2205176E-2],"split_indices":[1,12,8,7,4,3,8,0,0,0,0,0,0,0,0],"split_type":[0,0,0,0,0,0,0,0,0,0,0,0,0,0,0],"sum_hessian":[1.41E3,1.018E3,3.92E2,2.35E2,7.83E2,8.5E1,3.07E2,1.4E1,2.21E2,7.43E2,4E1,4.2E1,4.3E1,2.89E2,1.8E1],"tree_param":{"num_deleted":"0","num_feature":"14","num_nodes":"15","size_leaf_vector":"1"}},{"base_weights":[-3.882305E-2,-1.0265743E0,2.4349298E0,-1.2723553E0,6.111114E0,2.1109195E0,9.9107065E0,-1.2118141E-2,-4.947552E-3,4.6801783E-2,3.482479E-3,2.7328846E-3,1.6850498E-2,6.717262E-3,6.4288355E-2],"categories":[],"categories_nodes":[],"categories_segments":[],"categories_sizes":[],"default_left":[0,0,0,0,0,0,0,0,0,0,0,0,0,0,0],"id":9,"left_children":[1,3,5,7,9,11,13,-1,-1,-1,-1,-1,-1,-1,-1],"loss_changes":[3.3833933E3,1.7413673E3,9.2644116E2,3.065973E2,2.5397559E2,3.825332E2,4.567627E1,0E0,0E0,0E0,0E0,0E0,0E0,0E0,0E0],"parents":[2147483647,0,0,1,1,2,2,3,3,4,4,5,5,6,6],"right_children":[2,4,6,8,10,12,14,-1,-1,-1,-1,-1,-1,-1,-1],"split_conditions":[1E0,1E0,1E0,2.15E1,5.5291433E0,2.1E1,1.1E1,-1.2118141E-2,-4.947552E-3,4.6801783E-2,3.482479E-3,2.7328846E-3,1.6850498E-2,6.717262E-3,6.4288355E-2],"split_indices":[1,0,0,10,9,10,4,0,0,0,0,0,0,0,0],"split_type":[0,0,0,0,0,0,0,0,0,0,0,0,0,0,0],"sum_hessian":[1.383E3,9.89E2,3.94E2,9.57E2,3.2E1,3.79E2,1.5E1,3.9E2,5.67E2,2.5E1,7E0,1.02E2,2.77E2,1E0,1.4E1],"tree_param":{"num_deleted":"0","num_feature":"14","num_nodes":"15","size_leaf_vector":"1"}},{"base_weights":[-7.21248E-2,-9.776933E-1,2.2349386E0,-1.2306137E0,6.2314935E0,1.9569865E0,9.543653E0,-1.4005392E-2,-5.7375957E-3,4.6622615E-2,3.7867966E-4,2.595585E-3,1.5597567E-2,6.6968203E-3,6.2283598E-2],"categories":[],"categories_nodes":[],"categories_segments":[],"categories_sizes":[],"default_left":[0,0,0,0,0,0,0,0,0,0,0,0,0,0,0],"id":10,"left_children":[1,3,5,7,9,11,13,-1,-1,-1,-1,-1,-1,-1,-1],"loss_changes":[2.9137766E3,1.8313728E3,7.7071936E2,2.994978E2,2.65412E2,3.2417017E2,4.0924927E1,0E0,0E0,0E0,0E0,0E0,0E0,0E0,0E0],"parents":[2147483647,0,0,1,1,2,2,3,3,4,4,5,5,6,6],"right_children":[2,4,6,8,10,12,14,-1,-1,-1,-1,-1,-1,-1,-1],"split_conditions":[1E0,1E0,1E0,2.0571428E1,5.5291433E0,2.0571428E1,1.1E1,-1.4005392E-2,-5.7375957E-3,4.6622615E-2,3.7867966E-4,2.595585E-3,1.5597567E-2,6.6968203E-3,6.2283598E-2],"split_indices":[1,0,0,10,9,8,4,0,0,0,0,0,0,0,0],"split_type":[0,0,0,0,0,0,0,0,0,0,0,0,0,0,0],"sum_hessian":[1.393E3,1.001E3,3.92E2,9.68E2,3.3E1,3.79E2,1.3E1,2.19E2,7.49E2,2.7E1,6E0,1.02E2,2.77E2,1E0,1.2E1],"tree_param":{"num_deleted":"0","num_feature":"14","num_nodes":"15","size_leaf_vector":"1"}},{"base_weights":[6.401481E-2,-9.175538E-1,2.4855883E0,-1.1674944E0,6.197623E0,2.173782E0,9.430255E0,-1.5086894E-2,-4.9927426E-3,4.591591E-2,2.1792715E-3,3.9544892E-3,1.7769355E-2,6.6764425E-3,6.095141E-2],"categories":[],"categories_nodes":[],"categories_segments":[],"categories_sizes":[],"default_left":[0,0,0,0,0,0,0,0,0,0,0,0,0,0,0],"id":11,"left_children":[1,3,5,7,9,11,13,-1,-1,-1,-1,-1,-1,-1,-1],"loss_changes":[3.3455696E3,1.7840544E3,8.4954004E2,4.3939893E2,2.3283594E2,4.1108777E2,3.883374E1,0E0,0E0,0E0,0E0,0E0,0E0,0E0,0E0],"parents":[2147483647,0,0,1,1,2,2,3,3,4,4,5,5,6,6],"right_children":[2,4,6,8,10,12,14,-1,-1,-1,-1,-1,-1,-1,-1],"split_conditions":[1E0,1E0,1E0,2.0857143E1,5.5291433E0,2.1142857E1,1.1E1,-1.5086894E-2,-4.9927426E-3,4.591591E-2,2.1792715E-3,3.9544892E-3,1.7769355E-2,6.6764425E-3,6.095141E-2],"split_indices":[1,0,0,12,9,10,4,0,0,0,0,0,0,0,0],"split_type":[0,0,0,0,0,0,0,0,0,0,0,0,0,0,0],"sum_hessian":[1.405E3,1E3,4.05E2,9.67E2,3.3E1,3.89E2,1.6E1,2.13E2,7.54E2,2.7E1,6E0,1.22E2,2.67E2,1E0,1.5E1],"tree_param":{"num_deleted":"0","num_feature":"14","num_nodes":"15","size_leaf_vector":"1"}},{"base_weights":[-4.0224608E-2,-9.974276E-1,2.4024274E0,-1.2137911E0,5.7469497E0,2.150948E0,8.928278E0,-1.631979E-2,-5.0492943E-3,4.1944124E-2,1.4392829E-3,5.321465E-3,1.6717684E-2,6.656129E-3,5.818415E-2],"categories":[],"categories_nodes":[],"categories_segments":[],"categories_sizes":[],"default_left":[0,0,0,0,0,0,0,0,0,0,0,0,0,0,0],"id":12,"left_children":[1,3,5,7,9,11,13,-1,-1,-1,-1,-1,-1,-1,-1],"loss_changes":[3.2398342E3,1.4573849E3,6.121321E2,5.4247876E2,1.6817297E2,2.6145935E2,3.278833E1,0E0,0E0,0E0,0E0,0E0,0E0,0E0,0E0],"parents":[2147483647,0,0,1,1,2,2,3,3,4,4,5,5,6,6],"right_children":[2,4,6,8,10,12,14,-1,-1,-1,-1,-1,-1,-1,-1],"split_conditions":[5E0,1E0,1E0,2.0785715E1,5.5291433E0,2.1071428E1,1.1E1,-1.631979E-2,-5.0492943E-3,4.1944124E-2,1.4392829E-3,5.321465E-3,1.6717684E-2,6.656129E-3,5.818415E-2],"split_indices":[2,0,0,12,9,10,4,0,0,0,0,0,0,0,0],"split_type":[0,0,0,0,0,0,0,0,0,0,0,0,0,0,0],"sum_hessian":[1.384E3,9.95E2,3.89E2,9.65E2,3E1,3.76E2,1.3E1,2.1E2,7.55E2,2.5E1,5E0,1.13E2,2.63E2,1E0,1.2E1],"tree_param":{"num_deleted":"0","num_feature":"14","num_nodes":"15","size_leaf_vector":"1"}},{"base_weights":[5.5719633E-2,-8.9855397E-1,2.3618426E0,-1.1366723E0,5.6387634E0,2.0994484E0,9.595143E0,-1.5643634E-2,-4.7562923E-3,4.25183E-2,3.4420914E-3,9.467219E-4,1.7243182E-2,6.635873E-3,6.2636666E-2],"categories":[],"categories_nodes":[],"categories_segments":[],"categories_sizes":[],"default_left":[0,0,0,0,0,0,0,0,0,0,0,0,0,0,0],"id":13,"left_children":[1,3,5,7,9,11,13,-1,-1,-1,-1,-1,-1,-1,-1],"loss_changes":[3.0974895E3,1.5522959E3,7.526504E2,4.8791492E2,2.084159E2,5.281255E2,4.202295E1,0E0,0E0,0E0,0E0,0E0,0E0,0E0,0E0],"parents":[2147483647,0,0,1,1,2,2,3,3,4,4,5,5,6,6],"right_children":[2,4,6,8,10,12,14,-1,-1,-1,-1,-1,-1,-1,-1],"split_conditions":[1E0,1E0,1E0,2.0785715E1,5.5291433E0,2.0857143E1,1.1E1,-1.5643634E-2,-4.7562923E-3,4.25183E-2,3.4420914E-3,9.467219E-4,1.7243182E-2,6.635873E-3,6.2636666E-2],"split_indices":[1,0,0,12,9,10,4,0,0,0,0,0,0,0,0],"split_type":[0,0,0,0,0,0,0,0,0,0,0,0,0,0,0],"sum_hessian":[1.405E3,9.94E2,4.11E2,9.6E2,3.4E1,3.98E2,1.3E1,2E2,7.6E2,2.7E1,7E0,1.04E2,2.94E2,1E0,1.2E1],"tree_param":{"num_deleted":"0","num_feature":"14","num_nodes":"15","size_leaf_vector":"1"}},{"base_weights":[-1.9985192E-2,-9.924504E-1,2.4847825E0,-1.2141341E0,6.1474056E0,2.1928194E0,9.488992E0,-1.5089837E-2,-5.459027E-3,2.2929648E-3,4.496829E-2,1.0846292E-2,2.605529E-2,6.103181E-2,1.1279834E-2],"categories":[],"categories_nodes":[],"categories_segments":[],"categories_sizes":[],"default_left":[0,0,0,0,0,0,0,0,0,0,0,0,0,0,0],"id":14,"left_children":[1,3,5,7,9,11,13,-1,-1,-1,-1,-1,-1,-1,-1],"loss_changes":[3.3629622E3,1.5790801E3,7.593699E2,3.8835852E2,1.8418823E2,3.192373E2,1.44539795E1,0E0,0E0,0E0,0E0,0E0,0E0,0E0,0E0],"parents":[2147483647,0,0,1,1,2,2,3,3,4,4,5,5,6,6],"right_children":[2,4,6,8,10,12,14,-1,-1,-1,-1,-1,-1,-1,-1],"split_conditions":[5E0,1E0,1E0,2.0785715E1,1.8E1,2.3178572E1,3.1E1,-1.5089837E-2,-5.459027E-3,2.2929648E-3,4.496829E-2,1.0846292E-2,2.605529E-2,6.103181E-2,1.1279834E-2],"split_indices":[2,0,0,12,6,12,7,0,0,0,0,0,0,0,0],"split_type":[0,0,0,0,0,0,0,0,0,0,0,0,0,0,0],"sum_hessian":[1.379E3,9.94E2,3.85E2,9.65E2,2.9E1,3.71E2,1.4E1,2.05E2,7.6E2,5E0,2.4E1,3.06E2,6.5E1,1.3E1,1E0],"tree_param":{"num_deleted":"0","num_feature":"14","num_nodes":"15","size_leaf_vector":"1"}},{"base_weights":[-4.3605067E-2,-1.0157278E0,2.4019501E0,-2.1352656E0,-7.097824E-1,7.349168E-1,2.9865117E0,-7.3118787E-3,-1.7680202E-2,-5.7940865E-3,2.025336E-3,-1.1170235E-2,8.913814E-3,1.296159E-2,2.3229647E-2],"categories":[],"categories_nodes":[],"categories_segments":[],"categories_sizes":[],"default_left":[0,0,0,0,0,0,0,0,0,0,0,0,0,0,0],"id":15,"left_children":[1,3,5,7,9,11,13,-1,-1,-1,-1,-1,-1,-1,-1],"loss_changes":[3.327561E3,3.395746E2,3.8289795E2,1.4036584E2,1.8499643E2,1.8994551E2,1.8816797E2,0E0,0E0,0E0,0E0,0E0,0E0,0E0,0E0],"parents":[2147483647,0,0,1,1,2,2,3,3,4,4,5,5,6,6],"right_children":[2,4,6,8,10,12,14,-1,-1,-1,-1,-1,-1,-1,-1],"split_conditions":[1E0,2.0571428E1,2.0571428E1,4.3149796E0,2.3714285E1,4.26813E0,4.8107023E0,-7.3118787E-3,-1.7680202E-2,-5.7940865E-3,2.025336E-3,-1.1170235E-2,8.913814E-3,1.296159E-2,2.3229647E-2],"split_indices":[1,10,8,9,10,13,9,0,0,0,0,0,0,0,0],"split_type":[0,0,0,0,0,0,0,0,0,0,0,0,0,0,0],"sum_hessian":[1.398E3,1.001E3,3.97E2,2.13E2,7.88E2,1.04E2,2.93E2,9.3E1,1.2E2,6.48E2,1.4E2,2.2E1,8.2E1,1.37E2,1.56E2],"tree_param":{"num_deleted":"0","num_feature":"14","num_nodes":"15","size_leaf_vector":"1"}},{"base_weights":[1.1489904E-1,-8.215807E-1,2.3925788E0,-1.0552925E0,6.351483E0,2.0874927E0,9.5938425E0,-1.5637988E-2,-4.198511E-3,4.4557475E-2,9.428032E-3,1.2256445E-3,1.6912635E-2,6.158634E-2,1.1206065E-2],"categories":[],"categories_nodes":[],"categories_segments":[],"categories_sizes":[],"default_left":[0,0,0,0,0,0,0,0,0,0,0,0,0,0,0],"id":16,"left_children":[1,3,5,7,9,11,13,-1,-1,-1,-1,-1,-1,-1,-1],"loss_changes":[2.9574644E3,1.6494087E3,8.5841626E2,5.2395276E2,1.0810254E2,4.6914587E2,1.58688965E1,0E0,0E0,0E0,0E0,0E0,0E0,0E0,0E0],"parents":[2147483647,0,0,1,1,2,2,3,3,4,4,5,5,6,6],"right_children":[2,4,6,8,10,12,14,-1,-1,-1,-1,-1,-1,-1,-1],"split_conditions":[1E0,1E0,1E0,2.0785715E1,5.2190127E0,2.0857143E1,3.1E1,-1.5637988E-2,-4.198511E-3,4.4557475E-2,9.428032E-3,1.2256445E-3,1.6912635E-2,6.158634E-2,1.1206065E-2],"split_indices":[1,0,0,12,9,10,7,0,0,0,0,0,0,0,0],"split_type":[0,0,0,0,0,0,0,0,0,0,0,0,0,0,0],"sum_hessian":[1.384E3,9.81E2,4.03E2,9.51E2,3E1,3.88E2,1.5E1,1.93E2,7.58E2,2.5E1,5E0,9.9E1,2.89E2,1.4E1,1E0],"tree_param":{"num_deleted":"0","num_feature":"14","num_nodes":"15","size_leaf_vector":"1"}},{"base_weights":[3.1352554E-2,-1.0120898E0,2.5847216E0,-1.1987692E0,5.3984003E0,2.2903514E0,9.513604E0,-1.5856136E-2,-5.269542E-3,4.1695464E-2,2.0683242E-3,3.6831198E-3,1.7512744E-2,6.2154406E-3,6.1731946E-2],"categories":[],"categories_nodes":[],"categories_segments":[],"categories_sizes":[],"default_left":[0,0,0,0,0,0,0,0,0,0,0,0,0,0,0],"id":17,"left_children":[1,3,5,7,9,11,13,-1,-1,-1,-1,-1,-1,-1,-1],"loss_changes":[3.7099841E3,1.1860414E3,7.929258E2,4.5062537E2,1.8142468E2,3.4928748E2,4.2875732E1,0E0,0E0,0E0,0E0,0E0,0E0,0E0,0E0],"parents":[2147483647,0,0,1,1,2,2,3,3,4,4,5,5,6,6],"right_children":[2,4,6,8,10,12,14,-1,-1,-1,-1,-1,-1,-1,-1],"split_conditions":[1E0,1E0,1E0,2.075E1,5.2190127E0,2.0785715E1,1.6571428E1,-1.5856136E-2,-5.269542E-3,4.1695464E-2,2.0683242E-3,3.6831198E-3,1.7512744E-2,6.2154406E-3,6.1731946E-2],"split_indices":[1,0,0,12,9,10,8,0,0,0,0,0,0,0,0],"split_type":[0,0,0,0,0,0,0,0,0,0,0,0,0,0,0],"sum_hessian":[1.39E3,9.87E2,4.03E2,9.6E2,2.7E1,3.88E2,1.5E1,1.94E2,7.66E2,2.1E1,6E0,9.4E1,2.94E2,1E0,1.4E1],"tree_param":{"num_deleted":"0","num_feature":"14","num_nodes":"15","size_leaf_vector":"1"}},{"base_weights":[-6.564491E-2,-9.404954E-1,2.1428363E0,-1.1545397E0,6.2555814E0,1.9443566E0,7.7788663E0,-8.496391E-3,1.0145993E-3,-1.2968038E-4,4.5163225E-2,1.7366235E-3,1.5499354E-2,2.1266028E-2,6.165917E-2],"categories":[],"categories_nodes":[],"categories_segments":[],"categories_sizes":[],"default_left":[0,0,0,0,0,0,0,0,0,0,0,0,0,0,0],"id":18,"left_children":[1,3,5,7,9,11,13,-1,-1,-1,-1,-1,-1,-1,-1],"loss_changes":[2.7042795E3,1.5487303E3,4.21391E2,2.794928E2,1.936521E2,3.5406335E2,7.793042E1,0E0,0E0,0E0,0E0,0E0,0E0,0E0,0E0],"parents":[2147483647,0,0,1,1,2,2,3,3,4,4,5,5,6,6],"right_children":[2,4,6,8,10,12,14,-1,-1,-1,-1,-1,-1,-1,-1],"split_conditions":[1E0,1E0,1E0,2.3714285E1,1.8E1,2.0785715E1,2.1357143E1,-8.496391E-3,1.0145993E-3,-1.2968038E-4,4.5163225E-2,1.7366235E-3,1.5499354E-2,2.1266028E-2,6.165917E-2],"split_indices":[1,0,0,10,6,10,10,0,0,0,0,0,0,0,0],"split_type":[0,0,0,0,0,0,0,0,0,0,0,0,0,0,0],"sum_hessian":[1.398E3,1.002E3,3.96E2,9.74E2,2.8E1,3.84E2,1.2E1,8.37E2,1.37E2,4E0,2.4E1,9.7E1,2.87E2,5E0,7E0],"tree_param":{"num_deleted":"0","num_feature":"14","num_nodes":"15","size_leaf_vector":"1"}},{"base_weights":[-5.640729E-2,-9.3271273E-1,2.1723747E0,-1.2809376E0,2.279399E-1,3.7024215E-1,2.7063532E0,-1.2858243E-2,-5.89599E-3,3.0446418E-2,4.8633665E-4,-1.4045719E-2,9.016397E-3,6.19819E-2,1.609375E-2],"categories":[],"categories_nodes":[],"categories_segments":[],"categories_sizes":[],"default_left":[0,0,0,0,0,0,0,0,0,0,0,0,0,0,0],"id":19,"left_children":[1,3,5,7,9,11,13,-1,-1,-1,-1,-1,-1,-1,-1],"loss_changes":[2.74146E3,4.0848468E2,3.778291E2,1.9877917E2,1.5915588E2,2.6609613E2,2.0694214E2,0E0,0E0,0E0,0E0,0E0,0E0,0E0,0E0],"parents":[2147483647,0,0,1,1,2,2,3,3,4,4,5,5,6,6],"right_children":[2,4,6,8,10,12,14,-1,-1,-1,-1,-1,-1,-1,-1],"split_conditions":[1E0,2.2857143E1,2.0428572E1,2.0821428E1,2.2990682E0,4.3198814E0,1.3E1,-1.2858243E-2,-5.89599E-3,3.0446418E-2,4.8633665E-4,-1.4045719E-2,9.016397E-3,6.19819E-2,1.609375E-2],"split_indices":[1,12,8,12,9,13,5,0,0,0,0,0,0,0,0],"split_type":[0,0,0,0,0,0,0,0,0,0,0,0,0,0,0],"sum_hessian":[1.402E3,1.007E3,3.95E2,7.75E2,2.32E2,9.1E1,3.04E2,2.25E2,5.5E2,6E0,2.26E2,2.6E1,6.5E1,3E0,3.01E2],"tree_param":{"num_deleted":"0","num_feature":"14","num_nodes":"15","size_leaf_vector":"1"}},{"base_weights":[5.1288847E-2,-8.721655E-1,2.3069155E0,-1.0800552E0,5.306588E0,2.0121078E0,9.029026E0,-1.4599334E-2,-4.3544103E-3,4.0569466E-2,3.1797946E-3,2.7982164E-3,1.5677415E-2,6.104376E-3,5.8382727E-2],"categories":[],"categories_nodes":[],"categories_segments":[],"categories_sizes":[],"default_left":[0,0,0,0,0,0,0,0,0,0,0,0,0,0,0],"id":20,"left_children":[1,3,5,7,9,11,13,-1,-1,-1,-1,-1,-1,-1,-1],"loss_changes":[2.9756006E3,1.3041101E3,7.9562964E2,4.684098E2,1.8780511E2,3.191245E2,3.6608643E1,0E0,0E0,0E0,0E0,0E0,0E0,0E0,0E0],"parents":[2147483647,0,0,1,1,2,2,3,3,4,4,5,5,6,6],"right_children":[2,4,6,8,10,12,14,-1,-1,-1,-1,-1,-1,-1,-1],"split_conditions":[1E0,1E0,1E0,2.0857143E1,5.5291433E0,2.0785715E1,1.1E1,-1.4599334E-2,-4.3544103E-3,4.0569466E-2,3.1797946E-3,2.7982164E-3,1.5677415E-2,6.104376E-3,5.8382727E-2],"split_indices":[1,0,0,12,9,10,4,0,0,0,0,0,0,0,0],"split_type":[0,0,0,0,0,0,0,0,0,0,0,0,0,0,0],"sum_hessian":[1.426E3,1.012E3,4.14E2,9.8E2,3.2E1,3.98E2,1.6E1,2.22E2,7.58E2,2.5E1,7E0,1E2,2.98E2,1E0,1.5E1],"tree_param":{"num_deleted":"0","num_feature":"14","num_nodes":"15","size_leaf_vector":"1"}},{"base_weights":[-5.313225E-2,-9.760891E-1,2.2779505E0,-1.1888353E0,5.3050604E0,2.057218E0,9.119124E0,-1.44122485E-2,-5.2854647E-3,1.6655149E-2,4.8709497E-2,2.8700733E-3,1.6351065E-2,6.0858037E-3,6.0097158E-2],"categories":[],"categories_nodes":[],"categories_segments":[],"categories_sizes":[],"default_left":[0,0,0,0,0,0,0,0,0,0,0,0,0,0,0],"id":21,"left_children":[1,3,5,7,9,11,13,-1,-1,-1,-1,-1,-1,-1,-1],"loss_changes":[3.0199746E3,1.3478987E3,5.734895E2,3.6760583E2,1.9139606E2,3.552129E2,3.908081E1,0E0,0E0,0E0,0E0,0E0,0E0,0E0,0E0],"parents":[2147483647,0,0,1,1,2,2,3,3,4,4,5,5,6,6],"right_children":[2,4,6,8,10,12,14,-1,-1,-1,-1,-1,-1,-1,-1],"split_conditions":[1E0,1E0,1E0,2.0857143E1,2.1142857E1,2.0928572E1,1.1E1,-1.44122485E-2,-5.2854647E-3,1.6655149E-2,4.8709497E-2,2.8700733E-3,1.6351065E-2,6.0858037E-3,6.0097158E-2],"split_indices":[1,0,0,12,10,10,4,0,0,0,0,0,0,0,0],"split_type":[0,0,0,0,0,0,0,0,0,0,0,0,0,0,0],"sum_hessian":[1.402E3,1.005E3,3.97E2,9.73E2,3.2E1,3.86E2,1.1E1,2.2E2,7.53E2,1.7E1,1.5E1,1.04E2,2.82E2,1E0,1E1],"tree_param":{"num_deleted":"0","num_feature":"14","num_nodes":"15","size_leaf_vector":"1"}},{"base_weights":[-5.2417547E-2,-9.702859E-1,2.2893353E0,-2.0252554E0,-6.324367E-1,1.783927E0,4.551141E0,1.6215127E-2,-1.4136179E-2,-5.6772544E-3,-6.087396E-5,2.2685125E-3,1.4051385E-2,-2.2949157E-2,2.933632E-2],"categories":[],"categories_nodes":[],"categories_segments":[],"categories_sizes":[],"default_left":[0,0,0,0,0,0,0,0,0,0,0,0,0,0,0],"id":22,"left_children":[1,3,5,7,9,11,13,-1,-1,-1,-1,-1,-1,-1,-1],"loss_changes":[3.0084607E3,3.553114E2,4.3741357E2,2.947461E2,1.3429135E2,2.1942236E2,1.2625903E2,0E0,0E0,0E0,0E0,0E0,0E0,0E0,0E0],"parents":[2147483647,0,0,1,1,2,2,3,3,4,4,5,5,6,6],"right_children":[2,4,6,8,10,12,14,-1,-1,-1,-1,-1,-1,-1,-1],"split_conditions":[1E0,2.0928572E1,2.3178572E1,1.3E1,2.2857143E1,2.0428572E1,1.5E1,1.6215127E-2,-1.4136179E-2,-5.6772544E-3,-6.087396E-5,2.2685125E-3,1.4051385E-2,-2.2949157E-2,2.933632E-2],"split_indices":[1,12,12,7,12,8,7,0,0,0,0,0,0,0,0],"split_type":[0,0,0,0,0,0,0,0,0,0,0,0,0,0,0],"sum_hessian":[1.398E3,1.005E3,3.93E2,2.42E2,7.63E2,3.23E2,7E1,1.2E1,2.3E2,5.23E2,2.4E2,8.3E1,2.4E2,1E0,6.9E1],"tree_param":{"num_deleted":"0","num_feature":"14","num_nodes":"15","size_leaf_vector":"1"}},{"base_weights":[-4.470913E-2,-8.7786555E-1,2.1458118E0,-1.0848241E0,5.7364902E0,1.9826097E0,8.015255E0,-1.478686E-2,-4.5416993E-3,4.337163E-2,1.8306227E-3,4.3628276E-3,1.51700545E-2,1.3986596E-2,6.2180173E-2],"categories":[],"categories_nodes":[],"categories_segments":[],"categories_sizes":[],"default_left":[0,0,0,0,0,0,0,0,0,0,0,0,0,0,0],"id":23,"left_children":[1,3,5,7,9,11,13,-1,-1,-1,-1,-1,-1,-1,-1],"loss_changes":[2.5707622E3,1.4007603E3,3.4795972E2,4.4978638E2,2.0577979E2,2.2150085E2,8.427478E1,0E0,0E0,0E0,0E0,0E0,0E0,0E0,0E0],"parents":[2147483647,0,0,1,1,2,2,3,3,4,4,5,5,6,6],"right_children":[2,4,6,8,10,12,14,-1,-1,-1,-1,-1,-1,-1,-1],"split_conditions":[5E0,1E0,1E0,2.0785715E1,5.1777916E0,2.0928572E1,2.1E1,-1.478686E-2,-4.5416993E-3,4.337163E-2,1.8306227E-3,4.3628276E-3,1.51700545E-2,1.3986596E-2,6.2180173E-2],"split_indices":[2,0,0,12,9,10,5,0,0,0,0,0,0,0,0],"split_type":[0,0,0,0,0,0,0,0,0,0,0,0,0,0,0],"sum_hessian":[1.407E3,1.02E3,3.87E2,9.9E2,3E1,3.78E2,9E0,2.09E2,7.81E2,2.4E1,6E0,1.02E2,2.76E2,3E0,6E0],"tree_param":{"num_deleted":"0","num_feature":"14","num_nodes":"15","size_leaf_vector":"1"}},{"base_weights":[4.656E-3,-8.9807594E-1,2.251981E0,-1.1166676E0,5.5463567E0,1.968754E0,8.932036E0,-1.5962861E-2,-4.448481E-3,4.2484935E-2,3.0818277E-3,-1.7824238E-3,1.4093243E-2,6.017822E-3,5.7915248E-2],"categories":[],"categories_nodes":[],"categories_segments":[],"categories_sizes":[],"default_left":[0,0,0,0,0,0,0,0,0,0,0,0,0,0,0],"id":24,"left_children":[1,3,5,7,9,11,13,-1,-1,-1,-1,-1,-1,-1,-1],"loss_changes":[2.8596096E3,1.4189905E3,7.3827026E2,5.619706E2,2.0957928E2,2.7035388E2,3.5956543E1,0E0,0E0,0E0,0E0,0E0,0E0,0E0,0E0],"parents":[2147483647,0,0,1,1,2,2,3,3,4,4,5,5,6,6],"right_children":[2,4,6,8,10,12,14,-1,-1,-1,-1,-1,-1,-1,-1],"split_conditions":[1E0,1E0,1E0,2.0785715E1,5.2190127E0,2.0071428E1,1.1E1,-1.5962861E-2,-4.448481E-3,4.2484935E-2,3.0818277E-3,-1.7824238E-3,1.4093243E-2,6.017822E-3,5.7915248E-2],"split_indices":[1,0,0,12,9,12,4,0,0,0,0,0,0,0,0],"split_type":[0,0,0,0,0,0,0,0,0,0,0,0,0,0,0],"sum_hessian":[1.407E3,1.004E3,4.03E2,9.72E2,3.2E1,3.88E2,1.5E1,2.07E2,7.65E2,2.5E1,7E0,4.6E1,3.42E2,1E0,1.4E1],"tree_param":{"num_deleted":"0","num_feature":"14","num_nodes":"15","size_leaf_vector":"1"}},{"base_weights":[2.5255956E-2,-8.165457E-1,2.129303E0,-2.0078208E0,-4.8503527E-1,6.332573E-1,2.6431062E0,1.7035965E-2,-1.3509456E-2,-3.8321842E-3,1.1501921E-2,1.2426006E-2,-3.5266518E-3,6.5204054E-2,1.5814662E-2],"categories":[],"categories_nodes":[],"categories_segments":[],"categories_sizes":[],"default_left":[0,0,0,0,0,0,0,0,0,0,0,0,0,0,0],"id":25,"left_children":[1,3,5,7,9,11,13,-1,-1,-1,-1,-1,-1,-1,-1],"loss_changes":[2.528539E3,3.996153E2,3.0952832E2,1.8695471E2,2.4981856E2,1.7715259E2,1.7991724E2,0E0,0E0,0E0,0E0,0E0,0E0,0E0,0E0],"parents":[2147483647,0,0,1,1,2,2,3,3,4,4,5,5,6,6],"right_children":[2,4,6,8,10,12,14,-1,-1,-1,-1,-1,-1,-1,-1],"split_conditions":[5E0,2.0821428E1,2.0571428E1,1.2E1,3.1E1,6E0,1.3E1,1.7035965E-2,-1.3509456E-2,-3.8321842E-3,1.1501921E-2,1.2426006E-2,-3.5266518E-3,6.5204054E-2,1.5814662E-2],"split_indices":[2,12,8,7,4,3,5,0,0,0,0,0,0,0,0],"split_type":[0,0,0,0,0,0,0,0,0,0,0,0,0,0,0],"sum_hessian":[1.425E3,1.018E3,4.07E2,2.2E2,7.98E2,1.05E2,3.02E2,7E0,2.13E2,7.56E2,4.2E1,4.9E1,5.6E1,2E0,3E2],"tree_param":{"num_deleted":"0","num_feature":"14","num_nodes":"15","size_leaf_vector":"1"}},{"base_weights":[7.2532356E-2,-8.6565435E-1,2.3823342E0,-1.0715331E0,5.1347704E0,2.1199067E0,8.549384E0,-8.698337E-3,2.8092394E-4,3.8716774E-2,-0E0,3.963893E-3,1.6237605E-2,2.0589607E-2,6.159388E-2],"categories":[],"categories_nodes":[],"categories_segments":[],"categories_sizes":[],"default_left":[0,0,0,0,0,0,0,0,0,0,0,0,0,0,0],"id":26,"left_children":[1,3,5,7,9,11,13,-1,-1,-1,-1,-1,-1,-1,-1],"loss_changes":[3.0306543E3,1.230739E3,6.273491E2,3.5796436E2,1.84393E2,2.8408826E2,7.266455E1,0E0,0E0,0E0,0E0,0E0,0E0,0E0,0E0],"parents":[2147483647,0,0,1,1,2,2,3,3,4,4,5,5,6,6],"right_children":[2,4,6,8,10,12,14,-1,-1,-1,-1,-1,-1,-1,-1],"split_conditions":[1E0,1E0,1E0,2.2857143E1,5.1777916E0,2.0857143E1,2.1071428E1,-8.698337E-3,2.8092394E-4,3.8716774E-2,-0E0,3.963893E-3,1.6237605E-2,2.0589607E-2,6.159388E-2],"split_indices":[1,0,0,12,9,10,10,0,0,0,0,0,0,0,0],"split_type":[0,0,0,0,0,0,0,0,0,0,0,0,0,0,0],"sum_hessian":[1.396E3,9.93E2,4.03E2,9.61E2,3.2E1,3.88E2,1.5E1,7.41E2,2.2E2,2.6E1,6E0,9.9E1,2.89E2,4E0,1.1E1],"tree_param":{"num_deleted":"0","num_feature":"14","num_nodes":"15","size_leaf_vector":"1"}},{"base_weights":[-4.227608E-2,-1.0039276E0,2.324878E0,-1.2272184E0,5.41497E0,2.0390508E0,8.751661E0,-1.5260411E-2,-5.558097E-3,6.054973E-3,4.0276043E-2,3.1051938E-3,1.5595368E-2,5.947588E-3,5.6576718E-2],"categories":[],"categories_nodes":[],"categories_segments":[],"categories_sizes":[],"default_left":[0,0,0,0,0,0,0,0,0,0,0,0,0,0,0],"id":27,"left_children":[1,3,5,7,9,11,13,-1,-1,-1,-1,-1,-1,-1,-1],"loss_changes":[3.2317202E3,1.4515068E3,7.268716E2,3.9393262E2,1.518114E2,2.8597217E2,3.38208E1,0E0,0E0,0E0,0E0,0E0,0E0,0E0,0E0],"parents":[2147483647,0,0,1,1,2,2,3,3,4,4,5,5,6,6],"right_children":[2,4,6,8,10,12,14,-1,-1,-1,-1,-1,-1,-1,-1],"split_conditions":[1E0,1E0,1E0,2.0785715E1,1.8E1,2.0428572E1,1.1E1,-1.5260411E-2,-5.558097E-3,6.054973E-3,4.0276043E-2,3.1051938E-3,1.5595368E-2,5.947588E-3,5.6576718E-2],"split_indices":[1,0,0,12,6,8,4,0,0,0,0,0,0,0,0],"split_type":[0,0,0,0,0,0,0,0,0,0,0,0,0,0,0],"sum_hessian":[1.418E3,1.009E3,4.09E2,9.76E2,3.3E1,3.93E2,1.6E1,2.04E2,7.72E2,7E0,2.6E1,9.4E1,2.99E2,1E0,1.5E1],"tree_param":{"num_deleted":"0","num_feature":"14","num_nodes":"15","size_leaf_vector":"1"}},{"base_weights":[4.328674E-2,-8.715091E-1,2.400274E0,-1.0812411E0,5.2730546E0,2.15589E0,8.700873E0,-1.3948815E-2,-4.7493563E-3,4.0376503E-2,2.9507445E-3,4.394852E-3,1.6497813E-2,1.7329663E-2,6.1826076E-2],"categories":[],"categories_nodes":[],"categories_segments":[],"categories_sizes":[],"default_left":[0,0,0,0,0,0,0,0,0,0,0,0,0,0,0],"id":28,"left_children":[1,3,5,7,9,11,13,-1,-1,-1,-1,-1,-1,-1,-1],"loss_changes":[2.9917996E3,1.2903301E3,5.7014624E2,3.5212927E2,1.8864087E2,2.7037622E2,6.75708E1,0E0,0E0,0E0,0E0,0E0,0E0,0E0,0E0],"parents":[2147483647,0,0,1,1,2,2,3,3,4,4,5,5,6,6],"right_children":[2,4,6,8,10,12,14,-1,-1,-1,-1,-1,-1,-1,-1],"split_conditions":[1E0,1E0,1E0,2.0785715E1,5.1777916E0,2.0857143E1,2E1,-1.3948815E-2,-4.7493563E-3,4.0376503E-2,2.9507445E-3,4.394852E-3,1.6497813E-2,1.7329663E-2,6.1826076E-2],"split_indices":[1,0,0,12,9,10,6,0,0,0,0,0,0,0,0],"split_type":[0,0,0,0,0,0,0,0,0,0,0,0,0,0,0],"sum_hessian":[1.385E3,9.98E2,3.87E2,9.66E2,3.2E1,3.74E2,1.3E1,2.03E2,7.63E2,2.5E1,7E0,9.8E1,2.76E2,3E0,1E1],"tree_param":{"num_deleted":"0","num_feature":"14","num_nodes":"15","size_leaf_vector":"1"}},{"base_weights":[4.2013027E-2,-8.5669386E-1,2.2636595E0,-1.079957E0,5.478212E0,2.0412595E0,8.240467E0,-7.858996E-3,8.957442E-4,4.1696846E-2,2.9348184E-3,2.9733735E-3,1.5642807E-2,3.1701446E-2,6.5015525E-2],"categories":[],"categories_nodes":[],"categories_segments":[],"categories_sizes":[],"default_left":[0,0,0,0,0,0,0,0,0,0,0,0,0,0,0],"id":29,"left_children":[1,3,5,7,9,11,13,-1,-1,-1,-1,-1,-1,-1,-1],"loss_changes":[2.8003555E3,1.4145056E3,5.121489E2,2.235216E2,2.0449683E2,2.9154138E2,3.1763E1,0E0,0E0,0E0,0E0,0E0,0E0,0E0,0E0],"parents":[2147483647,0,0,1,1,2,2,3,3,4,4,5,5,6,6],"right_children":[2,4,6,8,10,12,14,-1,-1,-1,-1,-1,-1,-1,-1],"split_conditions":[1E0,1E0,1E0,2.3714285E1,5.5291433E0,2.0785715E1,5.3375096E0,-7.858996E-3,8.957442E-4,4.1696846E-2,2.9348184E-3,2.9733735E-3,1.5642807E-2,3.1701446E-2,6.5015525E-2],"split_indices":[1,0,0,10,9,10,11,0,0,0,0,0,0,0,0],"split_type":[0,0,0,0,0,0,0,0,0,0,0,0,0,0,0],"sum_hessian":[1.4E3,9.97E2,4.03E2,9.64E2,3.3E1,3.9E2,1.3E1,8.36E2,1.28E2,2.6E1,7E0,9.3E1,2.97E2,7E0,6E0],"tree_param":{"num_deleted":"0","num_feature":"14","num_nodes":"15","size_leaf_vector":"1"}},{"base_weights":[-1.8440181E-2,-9.1956633E-1,2.2167132E0,-1.1421057E0,5.364041E0,1.9252893E0,8.608464E0,-1.5453917E-2,-4.8877005E-3,4.0810898E-2,2.9189743E-3,5.147734E-3,1.6994871E-2,5.7802894E-3,5.565528E-2],"categories":[],"categories_nodes":[],"categories_segments":[],"categories_sizes":[],"default_left":[0,0,0,0,0,0,0,0,0,0,0,0,0,0,0],"id":30,"left_children":[1,3,5,7,9,11,13,-1,-1,-1,-1,-1,-1,-1,-1],"loss_changes":[2.8049465E3,1.3918901E3,7.2031165E2,4.5413477E2,1.951427E2,3.3858728E2,3.2879272E1,0E0,0E0,0E0,0E0,0E0,0E0,0E0,0E0],"parents":[2147483647,0,0,1,1,2,2,3,3,4,4,5,5,6,6],"right_children":[2,4,6,8,10,12,14,-1,-1,-1,-1,-1,-1,-1,-1],"split_conditions":[5E0,1E0,1E0,2.075E1,5.5291433E0,2.1642857E1,1.6571428E1,-1.5453917E-2,-4.8877005E-3,4.0810898E-2,2.9189743E-3,5.147734E-3,1.6994871E-2,5.7802894E-3,5.565528E-2],"split_indices":[2,0,0,12,9,12,8,0,0,0,0,0,0,0,0],"split_type":[0,0,0,0,0,0,0,0,0,0,0,0,0,0,0],"sum_hessian":[1.391E3,9.92E2,3.99E2,9.59E2,3.3E1,3.83E2,1.6E1,1.97E2,7.62E2,2.6E1,7E0,1.65E2,2.18E2,1E0,1.5E1],"tree_param":{"num_deleted":"0","num_feature":"14","num_nodes":"15","size_leaf_vector":"1"}},{"base_weights":[-7.3740208E-3,-8.315256E-1,2.0664437E0,-1.0484246E0,5.6266212E0,1.7732384E0,8.559123E0,-1.0995311E-2,-2.7311752E-3,5.6229066E-3,4.23317E-2,8.792001E-3,2.2274263E-2,5.7626977E-3,5.5332694E-2],"categories":[],"categories_nodes":[],"categories_segments":[],"categories_sizes":[],"default_left":[0,0,0,0,0,0,0,0,0,0,0,0,0,0,0],"id":31,"left_children":[1,3,5,7,9,11,13,-1,-1,-1,-1,-1,-1,-1,-1],"loss_changes":[2.4227964E3,1.4246118E3,7.440093E2,4.3124402E2,1.7576917E2,2.4089905E2,3.2347046E1,0E0,0E0,0E0,0E0,0E0,0E0,0E0,0E0],"parents":[2147483647,0,0,1,1,2,2,3,3,4,4,5,5,6,6],"right_children":[2,4,6,8,10,12,14,-1,-1,-1,-1,-1,-1,-1,-1],"split_conditions":[5E0,1E0,1E0,2.175E1,1.8E1,2.3392857E1,1.1E1,-1.0995311E-2,-2.7311752E-3,5.6229066E-3,4.23317E-2,8.792001E-3,2.2274263E-2,5.7626977E-3,5.5332694E-2],"split_indices":[2,0,0,12,6,12,4,0,0,0,0,0,0,0,0],"split_type":[0,0,0,0,0,0,0,0,0,0,0,0,0,0,0],"sum_hessian":[1.416E3,1.014E3,4.02E2,9.82E2,3.2E1,3.86E2,1.6E1,4.46E2,5.36E2,7E0,2.5E1,3.25E2,6.1E1,1E0,1.5E1],"tree_param":{"num_deleted":"0","num_feature":"14","num_nodes":"15","size_leaf_vector":"1"}},{"base_weights":[-2.4663083E-2,-8.5748935E-1,2.1113787E0,-1.0779028E0,5.3125024E0,1.8796962E0,7.7885127E0,-1.4165921E-2,-4.6622003E-3,4.01874E-2,2.759652E-3,9.020986E-3,2.5193129E-2,1.9401714E-2,5.6492932E-2],"categories":[],"categories_nodes":[],"categories_segments":[],"categories_sizes":[],"default_left":[0,0,0,0,0,0,0,0,0,0,0,0,0,0,0],"id":32,"left_children":[1,3,5,7,9,11,13,-1,-1,-1,-1,-1,-1,-1,-1],"loss_changes":[2.505793E3,1.3818918E3,4.973822E2,3.8144666E2,1.9195984E2,3.429336E2,5.4518616E1,0E0,0E0,0E0,0E0,0E0,0E0,0E0,0E0],"parents":[2147483647,0,0,1,1,2,2,3,3,4,4,5,5,6,6],"right_children":[2,4,6,8,10,12,14,-1,-1,-1,-1,-1,-1,-1,-1],"split_conditions":[5E0,1E0,1E0,2.075E1,5.5291433E0,2.3392857E1,2.1071428E1,-1.4165921E-2,-4.6622003E-3,4.01874E-2,2.759652E-3,9.020986E-3,2.5193129E-2,1.9401714E-2,5.6492932E-2],"split_indices":[2,0,0,12,9,12,10,0,0,0,0,0,0,0,0],"split_type":[0,0,0,0,0,0,0,0,0,0,0,0,0,0,0],"sum_hessian":[1.407E3,1.013E3,3.94E2,9.79E2,3.4E1,3.8E2,1.4E1,2.06E2,7.73E2,2.7E1,7E0,3.2E2,6E1,4E0,1E1],"tree_param":{"num_deleted":"0","num_feature":"14","num_nodes":"15","size_leaf_vector":"1"}},{"base_weights":[5.4612383E-2,-8.226409E-1,2.2503796E0,-1.0410827E0,5.4387093E0,1.9732388E0,9.733427E0,-1.439056E-2,-4.641604E-3,4.1445177E-2,2.7447552E-3,9.372788E-3,2.7382327E-2,6.314563E-2,9.284064E-3],"categories":[],"categories_nodes":[],"categories_segments":[],"categories_sizes":[],"default_left":[0,0,0,0,0,0,0,0,0,0,0,0,0,0,0],"id":33,"left_children":[1,3,5,7,9,11,13,-1,-1,-1,-1,-1,-1,-1,-1],"loss_changes":[2.7190312E3,1.3814021E3,8.0741785E2,3.6078467E2,2.0421631E2,4.2820337E2,2.8475952E1,0E0,0E0,0E0,0E0,0E0,0E0,0E0,0E0],"parents":[2147483647,0,0,1,1,2,2,3,3,4,4,5,5,6,6],"right_children":[2,4,6,8,10,12,14,-1,-1,-1,-1,-1,-1,-1,-1],"split_conditions":[1E0,1E0,1E0,2.0642857E1,5.5291433E0,2.3285715E1,3.1E1,-1.439056E-2,-4.641604E-3,4.1445177E-2,2.7447552E-3,9.372788E-3,2.7382327E-2,6.314563E-2,9.284064E-3],"split_indices":[1,0,0,12,9,12,7,0,0,0,0,0,0,0,0],"split_type":[0,0,0,0,0,0,0,0,0,0,0,0,0,0,0],"sum_hessian":[1.409E3,1.007E3,4.02E2,9.74E2,3.3E1,3.89E2,1.3E1,1.79E2,7.95E2,2.6E1,7E0,3.29E2,6E1,1.2E1,1E0],"tree_param":{"num_deleted":"0","num_feature":"14","num_nodes":"15","size_leaf_vector":"1"}},{"base_weights":[1.1878748E-2,-8.144907E-1,2.0959125E0,-1.0113086E0,5.22236E0,1.857683E0,8.492154E0,-1.3978122E-2,-4.2078863E-3,2.566099E-3,3.8952265E-2,1.4132821E-3,1.4845152E-2,5.493981E-3,5.5455867E-2],"categories":[],"categories_nodes":[],"categories_segments":[],"categories_sizes":[],"default_left":[0,0,0,0,0,0,0,0,0,0,0,0,0,0,0],"id":34,"left_children":[1,3,5,7,9,11,13,-1,-1,-1,-1,-1,-1,-1,-1],"loss_changes":[2.4379294E3,1.2060599E3,5.887334E2,4.0231842E2,1.5626746E2,3.3859033E2,3.3421265E1,0E0,0E0,0E0,0E0,0E0,0E0,0E0,0E0],"parents":[2147483647,0,0,1,1,2,2,3,3,4,4,5,5,6,6],"right_children":[2,4,6,8,10,12,14,-1,-1,-1,-1,-1,-1,-1,-1],"split_conditions":[1E0,1E0,1E0,2.0785715E1,1.8E1,2.0785715E1,1.1E1,-1.3978122E-2,-4.2078863E-3,2.566099E-3,3.8952265E-2,1.4132821E-3,1.4845152E-2,5.493981E-3,5.5455867E-2],"split_indices":[1,0,0,12,6,10,4,0,0,0,0,0,0,0,0],"split_type":[0,0,0,0,0,0,0,0,0,0,0,0,0,0,0],"sum_hessian":[1.413E3,1.012E3,4.01E2,9.81E2,3.1E1,3.88E2,1.3E1,2.05E2,7.76E2,6E0,2.5E1,9.7E1,2.91E2,1E0,1.2E1],"tree_param":{"num_deleted":"0","num_feature":"14","num_nodes":"15","size_leaf_vector":"1"}},{"base_weights":[-5.3978212E-2,-9.2989105E-1,2.1351192E0,-2.0163178E0,-6.219807E-1,1.0200697E0,2.9141457E0,7.307379E-3,-1.3759562E-2,-5.45857E-3,-3.453888E-6,4.408419E-3,2.1116057E-2,1.366677E-2,2.2627637E-2],"categories":[],"categories_nodes":[],"categories_segments":[],"categories_sizes":[],"default_left":[0,0,0,0,0,0,0,0,0,0,0,0,0,0,0],"id":35,"left_children":[1,3,5,7,9,11,13,-1,-1,-1,-1,-1,-1,-1,-1],"loss_changes":[2.7585562E3,3.4068182E2,3.5110535E2,1.5093304E2,1.2855817E2,1.2053339E2,1.1335205E2,0E0,0E0,0E0,0E0,0E0,0E0,0E0,0E0],"parents":[2147483647,0,0,1,1,2,2,3,3,4,4,5,5,6,6],"right_children":[2,4,6,8,10,12,14,-1,-1,-1,-1,-1,-1,-1,-1],"split_conditions":[1E0,2.0857143E1,2.1642857E1,1.3E1,2.2857143E1,5.780319E0,4.8107023E0,7.307379E-3,-1.3759562E-2,-5.45857E-3,-3.453888E-6,4.408419E-3,2.1116057E-2,1.366677E-2,2.2627637E-2],"split_indices":[1,12,12,7,12,11,9,0,0,0,0,0,0,0,0],"split_type":[0,0,0,0,0,0,0,0,0,0,0,0,0,0,0],"sum_hessian":[1.437E3,1.027E3,4.1E2,2.25E2,8.02E2,1.7E2,2.4E2,1.3E1,2.12E2,5.65E2,2.37E2,1.52E2,1.8E1,1.25E2,1.15E2],"tree_param":{"num_deleted":"0","num_feature":"14","num_nodes":"15","size_leaf_vector":"1"}},{"base_weights":[-2.8620247E-2,-8.461327E-1,2.0011137E0,-1.0210236E0,4.8070083E0,1.7959049E0,7.925858E0,-1.3065221E-2,-4.1237795E-3,3.3288642E-3,3.60611E-2,2.6934622E-3,1.4850104E-2,5.4638525E-3,5.18956E-2],"categories":[],"categories_nodes":[],"categories_segments":[],"categories_sizes":[],"default_left":[0,0,0,0,0,0,0,0,0,0,0,0,0,0,0],"id":36,"left_children":[1,3,5,7,9,11,13,-1,-1,-1,-1,-1,-1,-1,-1],"loss_changes":[2.3240408E3,9.9006335E2,4.6697498E2,3.7155908E2,1.21976746E2,3.1571545E2,2.683313E1,0E0,0E0,0E0,0E0,0E0,0E0,0E0,0E0],"parents":[2147483647,0,0,1,1,2,2,3,3,4,4,5,5,6,6],"right_children":[2,4,6,8,10,12,14,-1,-1,-1,-1,-1,-1,-1,-1],"split_conditions":[5E0,1E0,1E0,2.0928572E1,1.8E1,2.1071428E1,1.1E1,-1.3065221E-2,-4.1237795E-3,3.3288642E-3,3.60611E-2,2.6934622E-3,1.4850104E-2,5.4638525E-3,5.18956E-2],"split_indices":[2,0,0,12,6,10,4,0,0,0,0,0,0,0,0],"split_type":[0,0,0,0,0,0,0,0,0,0,0,0,0,0,0],"sum_hessian":[1.399E3,9.98E2,4.01E2,9.69E2,2.9E1,3.89E2,1.2E1,2.37E2,7.32E2,6E0,2.3E1,1.2E2,2.69E2,1E0,1.1E1],"tree_param":{"num_deleted":"0","num_feature":"14","num_nodes":"15","size_leaf_vector":"1"}},{"base_weights":[4.21228E-2,-7.919359E-1,2.1039622E0,-9.934073E-1,5.071736E0,1.8367711E0,8.371237E0,-1.3489916E-2,-4.2041484E-3,3.892432E-2,2.527212E-3,1.9830992E-3,1.4589542E-2,5.4472242E-3,5.428631E-2],"categories":[],"categories_nodes":[],"categories_segments":[],"categories_sizes":[],"default_left":[0,0,0,0,0,0,0,0,0,0,0,0,0,0,0],"id":37,"left_children":[1,3,5,7,9,11,13,-1,-1,-1,-1,-1,-1,-1,-1],"loss_changes":[2.3999988E3,1.1753906E3,6.4987195E2,3.5463397E2,1.7887329E2,3.0114575E2,3.1779663E1,0E0,0E0,0E0,0E0,0E0,0E0,0E0,0E0],"parents":[2147483647,0,0,1,1,2,2,3,3,4,4,5,5,6,6],"right_children":[2,4,6,8,10,12,14,-1,-1,-1,-1,-1,-1,-1,-1],"split_conditions":[1E0,1E0,1E0,2.075E1,5.5291433E0,2.0571428E1,1.1E1,-1.3489916E-2,-4.2041484E-3,3.892432E-2,2.527212E-3,1.9830992E-3,1.4589542E-2,5.4472242E-3,5.428631E-2],"split_indices":[1,0,0,12,9,8,4,0,0,0,0,0,0,0,0],"split_type":[0,0,0,0,0,0,0,0,0,0,0,0,0,0,0],"sum_hessian":[1.393E3,9.92E2,4.01E2,9.6E2,3.2E1,3.86E2,1.5E1,2E2,7.6E2,2.5E1,7E0,9.9E1,2.87E2,1E0,1.4E1],"tree_param":{"num_deleted":"0","num_feature":"14","num_nodes":"15","size_leaf_vector":"1"}},{"base_weights":[1.28916595E-2,-8.4424454E-1,2.1257107E0,-1.053013E0,5.2775736E0,1.9008045E0,8.698893E0,-1.3000555E-2,-4.37771E-3,4.0546972E-2,2.5135712E-3,8.846974E-3,2.6133303E-2,5.6532532E-2,8.72237E-3],"categories":[],"categories_nodes":[],"categories_segments":[],"categories_sizes":[],"default_left":[0,0,0,0,0,0,0,0,0,0,0,0,0,0,0],"id":38,"left_children":[1,3,5,7,9,11,13,-1,-1,-1,-1,-1,-1,-1,-1],"loss_changes":[2.5472764E3,1.280775E3,5.7541626E2,3.4698694E2,1.9591943E2,4.215011E2,1.9345032E1,0E0,0E0,0E0,0E0,0E0,0E0,0E0,0E0],"parents":[2147483647,0,0,1,1,2,2,3,3,4,4,5,5,6,6],"right_children":[2,4,6,8,10,12,14,-1,-1,-1,-1,-1,-1,-1,-1],"split_conditions":[1E0,1E0,1E0,2.0928572E1,5.5291433E0,2.3214285E1,3.1E1,-1.3000555E-2,-4.37771E-3,4.0546972E-2,2.5135712E-3,8.846974E-3,2.6133303E-2,5.6532532E-2,8.72237E-3],"split_indices":[1,0,0,12,9,12,7,0,0,0,0,0,0,0,0],"split_type":[0,0,0,0,0,0,0,0,0,0,0,0,0,0,0],"sum_hessian":[1.404E3,9.99E2,4.05E2,9.67E2,3.2E1,3.93E2,1.2E1,2.39E2,7.28E2,2.5E1,7E0,3.28E2,6.5E1,1.1E1,1E0],"tree_param":{"num_deleted":"0","num_feature":"14","num_nodes":"15","size_leaf_vector":"1"}},{"base_weights":[6.683964E-2,-7.9881495E-1,2.1803155E0,-1.030425E0,5.398379E0,1.955483E0,7.7239714E0,-1.364037E-2,-4.2381077E-3,5.0689206E-3,4.0190477E-2,9.607881E-3,2.2093035E-2,2.5139874E-2,5.613818E-2],"categories":[],"categories_nodes":[],"categories_segments":[],"categories_sizes":[],"default_left":[0,0,0,0,0,0,0,0,0,0,0,0,0,0,0],"id":39,"left_children":[1,3,5,7,9,11,13,-1,-1,-1,-1,-1,-1,-1,-1],"loss_changes":[2.5056875E3,1.3963472E3,4.7341467E2,3.7647656E2,1.6369733E2,2.4092908E2,2.5998657E1,0E0,0E0,0E0,0E0,0E0,0E0,0E0,0E0],"parents":[2147483647,0,0,1,1,2,2,3,3,4,4,5,5,6,6],"right_children":[2,4,6,8,10,12,14,-1,-1,-1,-1,-1,-1,-1,-1],"split_conditions":[1E0,1E0,1E0,2.0857143E1,1.8E1,2.3107143E1,2.1E1,-1.364037E-2,-4.2381077E-3,5.0689206E-3,4.0190477E-2,9.607881E-3,2.2093035E-2,2.5139874E-2,5.613818E-2],"split_indices":[1,0,0,12,6,12,4,0,0,0,0,0,0,0,0],"split_type":[0,0,0,0,0,0,0,0,0,0,0,0,0,0,0],"sum_hessian":[1.367E3,9.7E2,3.97E2,9.36E2,3.4E1,3.83E2,1.4E1,2.12E2,7.24E2,7E0,2.7E1,3.08E2,7.5E1,5E0,9E0],"tree_param":{"num_deleted":"0","num_feature":"14","num_nodes":"15","size_leaf_vector":"1"}},{"base_weights":[1.2473086E-2,-8.293985E-1,2.1694555E0,-1.0289998E0,5.218489E0,1.9108912E0,8.046935E0,-1.4528238E-2,-4.5070136E-3,4.0439673E-2,2.3643177E-3,3.35084E-3,1.48051055E-2,5.182123E-3,5.2178964E-2],"categories":[],"categories_nodes":[],"categories_segments":[],"categories_sizes":[],"default_left":[0,0,0,0,0,0,0,0,0,0,0,0,0,0,0],"id":40,"left_children":[1,3,5,7,9,11,13,-1,-1,-1,-1,-1,-1,-1,-1],"loss_changes":[2.528826E3,1.2109348E3,5.7107996E2,3.809635E2,1.950061E2,2.4296399E2,2.9159912E1,0E0,0E0,0E0,0E0,0E0,0E0,0E0,0E0],"parents":[2147483647,0,0,1,1,2,2,3,3,4,4,5,5,6,6],"right_children":[2,4,6,8,10,12,14,-1,-1,-1,-1,-1,-1,-1,-1],"split_conditions":[1E0,1E0,1E0,2.0642857E1,5.5291433E0,2.0928572E1,1.6571428E1,-1.4528238E-2,-4.5070136E-3,4.0439673E-2,2.3643177E-3,3.35084E-3,1.48051055E-2,5.182123E-3,5.2178964E-2],"split_indices":[1,0,0,12,9,10,8,0,0,0,0,0,0,0,0],"split_type":[0,0,0,0,0,0,0,0,0,0,0,0,0,0,0],"sum_hessian":[1.39E3,1E3,3.9E2,9.69E2,3.1E1,3.75E2,1.5E1,1.79E2,7.9E2,2.4E1,7E0,9.8E1,2.77E2,1E0,1.4E1],"tree_param":{"num_deleted":"0","num_feature":"14","num_nodes":"15","size_leaf_vector":"1"}},{"base_weights":[7.906839E-3,-8.398485E-1,2.163611E0,-1.0401793E0,5.010335E0,1.8875464E0,8.469041E0,-1.3621558E-2,-4.3113464E-3,3.8495768E-2,2.3515518E-3,2.8468852E-3,1.4650973E-2,5.4537352E-2,8.366222E-3],"categories":[],"categories_nodes":[],"categories_segments":[],"categories_sizes":[],"default_left":[0,0,0,0,0,0,0,0,0,0,0,0,0,0,0],"id":41,"left_children":[1,3,5,7,9,11,13,-1,-1,-1,-1,-1,-1,-1,-1],"loss_changes":[2.5376687E3,1.1698396E3,6.583179E2,3.8082153E2,1.7664801E2,2.5354297E2,1.8203003E1,0E0,0E0,0E0,0E0,0E0,0E0,0E0,0E0],"parents":[2147483647,0,0,1,1,2,2,3,3,4,4,5,5,6,6],"right_children":[2,4,6,8,10,12,14,-1,-1,-1,-1,-1,-1,-1,-1],"split_conditions":[1E0,1E0,1E0,2.0857143E1,5.5291433E0,2.0571428E1,3.1E1,-1.3621558E-2,-4.3113464E-3,3.8495768E-2,2.3515518E-3,2.8468852E-3,1.4650973E-2,5.4537352E-2,8.366222E-3],"split_indices":[1,0,0,12,9,8,7,0,0,0,0,0,0,0,0],"split_type":[0,0,0,0,0,0,0,0,0,0,0,0,0,0,0],"sum_hessian":[1.386E3,9.95E2,3.91E2,9.63E2,3.2E1,3.76E2,1.5E1,2.19E2,7.44E2,2.5E1,7E0,9.5E1,2.81E2,1.4E1,1E0],"tree_param":{"num_deleted":"0","num_feature":"14","num_nodes":"15","size_leaf_vector":"1"}},{"base_weights":[-4.9270624E-3,-7.9256004E-1,1.9830573E0,-9.8063606E-1,4.916903E0,1.7391187E0,8.012064E0,-1.3837039E-2,-3.8081005E-3,1.5599346E-2,4.590442E-2,2.8115774E-3,1.3679949E-2,5.000401E-3,5.2138757E-2],"categories":[],"categories_nodes":[],"categories_segments":[],"categories_sizes":[],"default_left":[0,0,0,0,0,0,0,0,0,0,0,0,0,0,0],"id":42,"left_children":[1,3,5,7,9,11,13,-1,-1,-1,-1,-1,-1,-1,-1],"loss_changes":[2.191377E3,1.0792075E3,5.623894E2,4.4216376E2,1.649411E2,2.2769531E2,2.9797546E1,0E0,0E0,0E0,0E0,0E0,0E0,0E0,0E0],"parents":[2147483647,0,0,1,1,2,2,3,3,4,4,5,5,6,6],"right_children":[2,4,6,8,10,12,14,-1,-1,-1,-1,-1,-1,-1,-1],"split_conditions":[1E0,1E0,1E0,2.0857143E1,2.2142857E1,2.0571428E1,1.1E1,-1.3837039E-2,-3.8081005E-3,1.5599346E-2,4.590442E-2,2.8115774E-3,1.3679949E-2,5.000401E-3,5.2138757E-2],"split_indices":[1,0,0,12,12,8,4,0,0,0,0,0,0,0,0],"split_type":[0,0,0,0,0,0,0,0,0,0,0,0,0,0,0],"sum_hessian":[1.398E3,1.002E3,3.96E2,9.71E2,3.1E1,3.82E2,1.4E1,2.18E2,7.53E2,1.7E1,1.4E1,1.03E2,2.79E2,1E0,1.3E1],"tree_param":{"num_deleted":"0","num_feature":"14","num_nodes":"15","size_leaf_vector":"1"}},{"base_weights":[-1.1493035E-5,-7.794717E-1,1.9799949E0,-9.6300626E-1,5.229953E0,1.766774E0,7.6308856E0,-1.3058453E-2,-3.947078E-3,4.057908E-2,-0E0,8.613695E-3,2.1821655E-2,2.8453194E-2,6.1190188E-2],"categories":[],"categories_nodes":[],"categories_segments":[],"categories_sizes":[],"default_left":[0,0,0,0,0,0,0,0,0,0,0,0,0,0,0],"id":43,"left_children":[1,3,5,7,9,11,13,-1,-1,-1,-1,-1,-1,-1,-1],"loss_changes":[2.175343E3,1.1183284E3,4.587798E2,3.6337866E2,2.0918512E2,2.4588269E2,3.8202515E1,0E0,0E0,0E0,0E0,0E0,0E0,0E0,0E0],"parents":[2147483647,0,0,1,1,2,2,3,3,4,4,5,5,6,6],"right_children":[2,4,6,8,10,12,14,-1,-1,-1,-1,-1,-1,-1,-1],"split_conditions":[1E0,1E0,1E0,2.0857143E1,5.5291433E0,2.3214285E1,5.3375096E0,-1.3058453E-2,-3.947078E-3,4.057908E-2,-0E0,8.613695E-3,2.1821655E-2,2.8453194E-2,6.1190188E-2],"split_indices":[1,0,0,12,9,12,11,0,0,0,0,0,0,0,0],"split_type":[0,0,0,0,0,0,0,0,0,0,0,0,0,0,0],"sum_hessian":[1.408E3,1.011E3,3.97E2,9.82E2,2.9E1,3.84E2,1.3E1,2.16E2,7.66E2,2.3E1,6E0,3.18E2,6.6E1,7E0,6E0],"tree_param":{"num_deleted":"0","num_feature":"14","num_nodes":"15","size_leaf_vector":"1"}},{"base_weights":[4.373168E-2,-6.837104E-1,1.9050152E0,-8.958757E-1,4.9797797E0,1.659881E0,7.8557396E0,-1.2346373E-2,-3.477723E-3,3.7518047E-2,2.2546554E-3,8.035163E-3,2.1690499E-2,1.7218657E-2,5.805673E-2],"categories":[],"categories_nodes":[],"categories_segments":[],"categories_sizes":[],"default_left":[0,0,0,0,0,0,0,0,0,0,0,0,0,0,0],"id":44,"left_children":[1,3,5,7,9,11,13,-1,-1,-1,-1,-1,-1,-1,-1],"loss_changes":[1.8788983E3,1.1996877E3,5.4851953E2,3.500122E2,1.7182397E2,2.4316528E2,7.9704346E1,0E0,0E0,0E0,0E0,0E0,0E0,0E0,0E0],"parents":[2147483647,0,0,1,1,2,2,3,3,4,4,5,5,6,6],"right_children":[2,4,6,8,10,12,14,-1,-1,-1,-1,-1,-1,-1,-1],"split_conditions":[1E0,1E0,1E0,2.0857143E1,5.5291433E0,2.3285715E1,2.1071428E1,-1.2346373E-2,-3.477723E-3,3.7518047E-2,2.2546554E-3,8.035163E-3,2.1690499E-2,1.7218657E-2,5.805673E-2],"split_indices":[1,0,0,12,9,12,10,0,0,0,0,0,0,0,0],"split_type":[0,0,0,0,0,0,0,0,0,0,0,0,0,0,0],"sum_hessian":[1.385E3,9.96E2,3.89E2,9.61E2,3.5E1,3.75E2,1.4E1,2.23E2,7.38E2,2.8E1,7E0,3.15E2,6E1,4E0,1E1],"tree_param":{"num_deleted":"0","num_feature":"14","num_nodes":"15","size_leaf_vector":"1"}},{"base_weights":[-5.6939475E-2,-8.326348E-1,1.9370162E0,-1.9594302E0,-5.063579E-1,5.418234E-1,2.418423E0,-4.8387786E-3,-1.6762348E-2,-3.922483E-3,1.0327161E-2,1.4297491E-2,-1.561793E-3,1.3202744E-2,2.7052065E-2],"categories":[],"categories_nodes":[],"categories_segments":[],"categories_sizes":[],"default_left":[0,0,0,0,0,0,0,0,0,0,0,0,0,0,0],"id":45,"left_children":[1,3,5,7,9,11,13,-1,-1,-1,-1,-1,-1,-1,-1],"loss_changes":[2.1601206E3,3.6704462E2,2.5913025E2,1.9302808E2,2.1553899E2,1.4510437E2,1.4817297E2,0E0,0E0,0E0,0E0,0E0,0E0,0E0,0E0],"parents":[2147483647,0,0,1,1,2,2,3,3,4,4,5,5,6,6],"right_children":[2,4,6,8,10,12,14,-1,-1,-1,-1,-1,-1,-1,-1],"split_conditions":[1E0,2.0857143E1,2.0571428E1,4.3149796E0,3.1E1,1.7E1,3.1E1,-4.8387786E-3,-1.6762348E-2,-3.922483E-3,1.0327161E-2,1.4297491E-2,-1.561793E-3,1.3202744E-2,2.7052065E-2],"split_indices":[1,12,8,9,4,4,6,0,0,0,0,0,0,0,0],"split_type":[0,0,0,0,0,0,0,0,0,0,0,0,0,0,0],"sum_hessian":[1.395E3,1.005E3,3.9E2,2.24E2,7.81E2,1.01E2,2.89E2,8.8E1,1.36E2,7.39E2,4.2E1,3.1E1,7E1,2.54E2,3.5E1],"tree_param":{"num_deleted":"0","num_feature":"14","num_nodes":"15","size_leaf_vector":"1"}},{"base_weights":[2.832354E-2,-7.552135E-1,1.9810004E0,-9.5554715E-1,5.31245E0,4.1655928E-1,2.5811257E0,-1.3143123E-2,-3.998204E-3,3.939246E-2,3.4789897E-3,1.2162006E-2,-5.4255202E-3,-4.5000976E-3,1.7464964E-2],"categories":[],"categories_nodes":[],"categories_segments":[],"categories_sizes":[],"default_left":[0,0,0,0,0,0,0,0,0,0,0,0,0,0,0],"id":46,"left_children":[1,3,5,7,9,11,13,-1,-1,-1,-1,-1,-1,-1,-1],"loss_changes":[2.1475505E3,1.2189084E3,3.7416113E2,3.4740576E2,1.502575E2,2.2838878E2,2.3128198E2,0E0,0E0,0E0,0E0,0E0,0E0,0E0,0E0],"parents":[2147483647,0,0,1,1,2,2,3,3,4,4,5,5,6,6],"right_children":[2,4,6,8,10,12,14,-1,-1,-1,-1,-1,-1,-1,-1],"split_conditions":[1E0,1E0,2.0571428E1,2.0785715E1,5.5291433E0,6E0,2.0285715E1,-1.3143123E-2,-3.998204E-3,3.939246E-2,3.4789897E-3,1.2162006E-2,-5.4255202E-3,-4.5000976E-3,1.7464964E-2],"split_indices":[1,0,8,12,9,3,12,0,0,0,0,0,0,0,0],"split_type":[0,0,0,0,0,0,0,0,0,0,0,0,0,0,0],"sum_hessian":[1.401E3,1E3,4.01E2,9.69E2,3.1E1,1.12E2,2.89E2,2.02E2,7.67E2,2.5E1,6E0,5.1E1,6.1E1,1.9E1,2.7E2],"tree_param":{"num_deleted":"0","num_feature":"14","num_nodes":"15","size_leaf_vector":"1"}},{"base_weights":[-6.890566E-2,-8.5272413E-1,1.9167159E0,-9.921404E-1,4.5830483E0,1.6395031E0,7.908736E0,-1.2568424E-2,-4.176191E-3,4.7125034E-3,3.119826E-2,3.1140092E-4,1.3401644E-2,4.8192074E-3,5.117094E-2],"categories":[],"categories_nodes":[],"categories_segments":[],"categories_sizes":[],"default_left":[0,0,0,0,0,0,0,0,0,0,0,0,0,0,0],"id":47,"left_children":[1,3,5,7,9,11,13,-1,-1,-1,-1,-1,-1,-1,-1],"loss_changes":[2.1674392E3,7.5920526E2,6.341355E2,3.180783E2,3.5037354E1,3.1261774E2,2.9176514E1,0E0,0E0,0E0,0E0,0E0,0E0,0E0,0E0],"parents":[2147483647,0,0,1,1,2,2,3,3,4,4,5,5,6,6],"right_children":[2,4,6,8,10,12,14,-1,-1,-1,-1,-1,-1,-1,-1],"split_conditions":[1E0,1E0,1E0,2.0928572E1,2.8784916E0,2.0571428E1,1.1E1,-1.2568424E-2,-4.176191E-3,4.7125034E-3,3.119826E-2,3.1140092E-4,1.3401644E-2,4.8192074E-3,5.117094E-2],"split_indices":[1,0,0,12,9,8,4,0,0,0,0,0,0,0,0],"split_type":[0,0,0,0,0,0,0,0,0,0,0,0,0,0,0],"sum_hessian":[1.391E3,9.98E2,3.93E2,9.74E2,2.4E1,3.77E2,1.6E1,2.27E2,7.47E2,3E0,2.1E1,9.4E1,2.83E2,1E0,1.5E1],"tree_param":{"num_deleted":"0","num_feature":"14","num_nodes":"15","size_leaf_vector":"1"}},{"base_weights":[7.849912E-2,-6.8484646E-1,1.9644656E0,-8.785728E-1,5.2758307E0,1.7504228E0,8.635303E0,-1.2311557E-2,-3.1789585E-3,4.03309E-2,5.8913643E-5,4.399031E-3,1.5331109E-2,4.804541E-3,5.706383E-2],"categories":[],"categories_nodes":[],"categories_segments":[],"categories_sizes":[],"default_left":[0,0,0,0,0,0,0,0,0,0,0,0,0,0,0],"id":48,"left_children":[1,3,5,7,9,11,13,-1,-1,-1,-1,-1,-1,-1,-1],"loss_changes":[1.9934056E3,1.1390664E3,5.4654114E2,3.8403534E2,1.9666492E2,2.880481E2,3.958966E1,0E0,0E0,0E0,0E0,0E0,0E0,0E0,0E0],"parents":[2147483647,0,0,1,1,2,2,3,3,4,4,5,5,6,6],"right_children":[2,4,6,8,10,12,14,-1,-1,-1,-1,-1,-1,-1,-1],"split_conditions":[1E0,1E0,1E0,2.0928572E1,5.5291433E0,2.1642857E1,1.6571428E1,-1.2311557E-2,-3.1789585E-3,4.03309E-2,5.8913643E-5,4.399031E-3,1.5331109E-2,4.804541E-3,5.706383E-2],"split_indices":[1,0,0,12,9,12,8,0,0,0,0,0,0,0,0],"split_type":[0,0,0,0,0,0,0,0,0,0,0,0,0,0,0],"sum_hessian":[1.382E3,9.84E2,3.98E2,9.54E2,3E1,3.87E2,1.1E1,2.35E2,7.19E2,2.4E1,6E0,1.6E2,2.27E2,1E0,1E1],"tree_param":{"num_deleted":"0","num_feature":"14","num_nodes":"15","size_leaf_vector":"1"}},{"base_weights":[-1.5218723E-1,-9.138357E-1,1.7899114E0,-1.0942104E0,4.4218483E0,1.5548602E0,8.498094E0,-1.4308237E-2,-5.0190026E-3,3.3950955E-2,2.0849823E-3,2.9498625E-3,1.40484525E-2,4.789921E-3,5.585019E-2],"categories":[],"categories_nodes":[],"categories_segments":[],"categories_sizes":[],"default_left":[0,0,0,0,0,0,0,0,0,0,0,0,0,0,0],"id":49,"left_children":[1,3,5,7,9,11,13,-1,-1,-1,-1,-1,-1,-1,-1],"loss_changes":[2.0749456E3,9.727505E2,6.018727E2,3.32839E2,1.3652368E2,2.9119946E2,3.750659E1,0E0,0E0,0E0,0E0,0E0,0E0,0E0,0E0],"parents":[2147483647,0,0,1,1,2,2,3,3,4,4,5,5,6,6],"right_children":[2,4,6,8,10,12,14,-1,-1,-1,-1,-1,-1,-1,-1],"split_conditions":[1E0,1E0,1E0,2.0642857E1,5.5291433E0,2.1642857E1,1.1E1,-1.4308237E-2,-5.0190026E-3,3.3950955E-2,2.0849823E-3,2.9498625E-3,1.40484525E-2,4.789921E-3,5.585019E-2],"split_indices":[1,0,0,12,9,12,4,0,0,0,0,0,0,0,0],"split_type":[0,0,0,0,0,0,0,0,0,0,0,0,0,0,0],"sum_hessian":[1.401E3,1.007E3,3.94E2,9.75E2,3.2E1,3.82E2,1.2E1,1.83E2,7.92E2,2.5E1,7E0,1.53E2,2.29E2,1E0,1.1E1],"tree_param":{"num_deleted":"0","num_feature":"14","num_nodes":"15","size_leaf_vector":"1"}},{"base_weights":[-3.6813086E-3,-7.638964E-1,1.9935716E0,-9.277975E-1,5.061231E0,1.724406E0,8.521278E0,-6.8181464E-3,5.3998345E-4,3.864894E-2,3.284427E-3,3.6852353E-4,1.3878663E-2,5.5163536E-2,7.4505033E-3],"categories":[],"categories_nodes":[],"categories_segments":[],"categories_sizes":[],"default_left":[0,0,0,0,0,0,0,0,0,0,0,0,0,0,0],"id":50,"left_children":[1,3,5,7,9,11,13,-1,-1,-1,-1,-1,-1,-1,-1],"loss_changes":[2.1431196E3,9.785985E2,6.608677E2,1.7521039E2,1.4102325E2,3.1993896E2,2.3466064E1,0E0,0E0,0E0,0E0,0E0,0E0,0E0,0E0],"parents":[2147483647,0,0,1,1,2,2,3,3,4,4,5,5,6,6],"right_children":[2,4,6,8,10,12,14,-1,-1,-1,-1,-1,-1,-1,-1],"split_conditions":[1E0,1E0,1E0,2.3714285E1,5.5291433E0,2.0785715E1,3.1E1,-6.8181464E-3,5.3998345E-4,3.864894E-2,3.284427E-3,3.6852353E-4,1.3878663E-2,5.5163536E-2,7.4505033E-3],"split_indices":[1,0,0,10,9,10,7,0,0,0,0,0,0,0,0],"split_type":[0,0,0,0,0,0,0,0,0,0,0,0,0,0,0],"sum_hessian":[1.41E3,1.022E3,3.88E2,9.95E2,2.7E1,3.74E2,1.4E1,8.51E2,1.44E2,2.1E1,6E0,8.9E1,2.85E2,1.3E1,1E0],"tree_param":{"num_deleted":"0","num_feature":"14","num_nodes":"15","size_leaf_vector":"1"}},{"base_weights":[4.000358E-3,-7.5434196E-1,1.9082165E0,-9.18898E-1,4.5728197E0,1.6986942E0,7.9211874E0,-1.22472085E-2,-3.8876105E-3,1.9983089E-2,4.0432043E-2,6.3868304E-4,1.3815269E-2,4.607485E-3,5.2009135E-2],"categories":[],"categories_nodes":[],"categories_segments":[],"categories_sizes":[],"default_left":[0,0,0,0,0,0,0,0,0,0,0,0,0,0,0],"id":51,"left_children":[1,3,5,7,9,11,13,-1,-1,-1,-1,-1,-1,-1,-1],"loss_changes":[2.0226066E3,8.792222E2,4.8178284E2,2.964958E2,5.0134583E1,3.2584766E2,3.1038574E1,0E0,0E0,0E0,0E0,0E0,0E0,0E0,0E0],"parents":[2147483647,0,0,1,1,2,2,3,3,4,4,5,5,6,6],"right_children":[2,4,6,8,10,12,14,-1,-1,-1,-1,-1,-1,-1,-1],"split_conditions":[1E0,1E0,1E0,2.0785715E1,2.2142857E1,2.0571428E1,1.1E1,-1.22472085E-2,-3.8876105E-3,1.9983089E-2,4.0432043E-2,6.3868304E-4,1.3815269E-2,4.607485E-3,5.2009135E-2],"split_indices":[1,0,0,12,12,8,4,0,0,0,0,0,0,0,0],"split_type":[0,0,0,0,0,0,0,0,0,0,0,0,0,0,0],"sum_hessian":[1.398E3,1E3,3.98E2,9.71E2,2.9E1,3.86E2,1.2E1,2.08E2,7.63E2,1.9E1,1E1,9.7E1,2.89E2,1E0,1.1E1],"tree_param":{"num_deleted":"0","num_feature":"14","num_nodes":"15","size_leaf_vector":"1"}},{"base_weights":[4.4226315E-2,-6.704138E-1,1.8191223E0,-8.51042E-1,4.792204E0,6.0587424E-1,2.231103E0,-1.2526194E-2,-2.9928652E-3,1.8529601E-2,4.627978E-2,1.5413859E-2,-4.9816654E-3,1.2947595E-2,3.74047E-2],"categories":[],"categories_nodes":[],"categories_segments":[],"categories_sizes":[],"default_left":[0,0,0,0,0,0,0,0,0,0,0,0,0,0,0],"id":52,"left_children":[1,3,5,7,9,11,13,-1,-1,-1,-1,-1,-1,-1,-1],"loss_changes":[1.7804592E3,9.8809863E2,1.9798682E2,4.1460663E2,1.2374249E2,2.7926633E2,1.4275354E2,0E0,0E0,0E0,0E0,0E0,0E0,0E0,0E0],"parents":[2147483647,0,0,1,1,2,2,3,3,4,4,5,5,6,6],"right_children":[2,4,6,8,10,12,14,-1,-1,-1,-1,-1,-1,-1,-1],"split_conditions":[1E0,1E0,2.0571428E1,2.0928572E1,2.2142857E1,6E0,1E0,-1.2526194E-2,-2.9928652E-3,1.8529601E-2,4.627978E-2,1.5413859E-2,-4.9816654E-3,1.2947595E-2,3.74047E-2],"split_indices":[1,0,8,12,12,3,0,0,0,0,0,0,0,0,0],"split_type":[0,0,0,0,0,0,0,0,0,0,0,0,0,0,0],"sum_hessian":[1.401E3,9.99E2,4.02E2,9.68E2,3.1E1,1.03E2,2.99E2,2.3E2,7.38E2,2E1,1.1E1,4.4E1,5.9E1,2.9E2,9E0],"tree_param":{"num_deleted":"0","num_feature":"14","num_nodes":"15","size_leaf_vector":"1"}},{"base_weights":[2.145884E-2,-7.617496E-1,2.0019746E0,-9.6975857E-1,5.1377616E0,1.7854605E0,7.695303E0,-7.820808E-3,6.878712E-5,3.560287E-3,3.885505E-2,2.7268692E-3,1.3683188E-2,2.8271139E-2,5.797321E-2],"categories":[],"categories_nodes":[],"categories_segments":[],"categories_sizes":[],"default_left":[0,0,0,0,0,0,0,0,0,0,0,0,0,0,0],"id":53,"left_children":[1,3,5,7,9,11,13,-1,-1,-1,-1,-1,-1,-1,-1],"loss_changes":[2.1617493E3,1.226873E3,4.6581897E2,2.7763965E2,1.6718646E2,2.1432422E2,1.8648193E1,0E0,0E0,0E0,0E0,0E0,0E0,0E0,0E0],"parents":[2147483647,0,0,1,1,2,2,3,3,4,4,5,5,6,6],"right_children":[2,4,6,8,10,12,14,-1,-1,-1,-1,-1,-1,-1,-1],"split_conditions":[5E0,1E0,1E0,2.2857143E1,1.8E1,2.0785715E1,5.3375096E0,-7.820808E-3,6.878712E-5,3.560287E-3,3.885505E-2,2.7268692E-3,1.3683188E-2,2.8271139E-2,5.797321E-2],"split_indices":[2,0,0,12,6,10,11,0,0,0,0,0,0,0,0],"split_type":[0,0,0,0,0,0,0,0,0,0,0,0,0,0,0],"sum_hessian":[1.391E3,9.97E2,3.94E2,9.64E2,3.3E1,3.81E2,1.3E1,7.43E2,2.21E2,7E0,2.6E1,9.2E1,2.89E2,6E0,7E0],"tree_param":{"num_deleted":"0","num_feature":"14","num_nodes":"15","size_leaf_vector":"1"}},{"base_weights":[1.1570197E-1,-7.031005E-1,2.1610491E0,-8.95314E-1,4.9350142E0,1.9378977E0,7.7076163E0,-1.1783957E-2,-3.6397213E-3,3.541066E-3,3.7536386E-2,1.3003228E-3,1.419175E-2,4.522597E-3,5.0187103E-2],"categories":[],"categories_nodes":[],"categories_segments":[],"categories_sizes":[],"default_left":[0,0,0,0,0,0,0,0,0,0,0,0,0,0,0],"id":54,"left_children":[1,3,5,7,9,11,13,-1,-1,-1,-1,-1,-1,-1,-1],"loss_changes":[2.3490005E3,1.0864855E3,4.7387512E2,2.973369E2,1.5340271E2,2.3332068E2,2.8517456E1,0E0,0E0,0E0,0E0,0E0,0E0,0E0,0E0],"parents":[2147483647,0,0,1,1,2,2,3,3,4,4,5,5,6,6],"right_children":[2,4,6,8,10,12,14,-1,-1,-1,-1,-1,-1,-1,-1],"split_conditions":[1E0,1E0,1E0,2.0857143E1,1.8E1,2.0464285E1,1.1E1,-1.1783957E-2,-3.6397213E-3,3.541066E-3,3.7536386E-2,1.3003228E-3,1.419175E-2,4.522597E-3,5.0187103E-2],"split_indices":[1,0,0,12,6,12,4,0,0,0,0,0,0,0,0],"split_type":[0,0,0,0,0,0,0,0,0,0,0,0,0,0,0],"sum_hessian":[1.4E3,1E3,4E2,9.68E2,3.2E1,3.86E2,1.4E1,2.25E2,7.43E2,7E0,2.5E1,6.6E1,3.2E2,1E0,1.3E1],"tree_param":{"num_deleted":"0","num_feature":"14","num_nodes":"15","size_leaf_vector":"1"}},{"base_weights":[-6.253271E-2,-2.6783392E-1,5.637987E0,-9.86337E-1,2.5036126E-1,3.1385381E0,7.5970745E0,-1.2756089E-2,-3.5320607E-3,6.739109E-4,1.6039446E-2,2.9871488E-2,-3.2973692E-3,-1.3951752E-4,4.914843E-2],"categories":[],"categories_nodes":[],"categories_segments":[],"categories_sizes":[],"default_left":[0,0,0,0,0,0,0,0,0,0,0,0,0,0,0],"id":55,"left_children":[1,3,5,7,9,11,13,-1,-1,-1,-1,-1,-1,-1,-1],"loss_changes":[1.617429E3,4.9860318E2,2.0269543E2,2.4732068E2,2.5500992E2,1.4800755E2,7.226477E1,0E0,0E0,0E0,0E0,0E0,0E0,0E0,0E0],"parents":[2147483647,0,0,1,1,2,2,3,3,4,4,5,5,6,6],"right_children":[2,4,6,8,10,12,14,-1,-1,-1,-1,-1,-1,-1,-1],"split_conditions":[1E0,2.1E1,2.1142857E1,2.075E1,3.1E1,2.1392857E1,3.76193E0,-1.2756089E-2,-3.5320607E-3,6.739109E-4,1.6039446E-2,2.9871488E-2,-3.2973692E-3,-1.3951752E-4,4.914843E-2],"split_indices":[0,5,10,12,4,12,13,0,0,0,0,0,0,0,0],"split_type":[0,0,0,0,0,0,0,0,0,0,0,0,0,0,0],"sum_hessian":[1.383E3,1.336E3,4.7E1,5.6E2,7.76E2,2.2E1,2.5E1,1.55E2,4.05E2,7.33E2,4.3E1,1.5E1,7E0,1E0,2.4E1],"tree_param":{"num_deleted":"0","num_feature":"14","num_nodes":"15","size_leaf_vector":"1"}},{"base_weights":[2.5258033E-2,-7.483849E-1,1.9571224E0,-9.328771E-1,5.353175E0,1.723458E0,7.3373046E0,-1.3508468E-2,-3.7099924E-3,3.7964594E-2,7.645958E-3,7.999536E-3,2.1807084E-2,2.5924202E-2,5.713351E-2],"categories":[],"categories_nodes":[],"categories_segments":[],"categories_sizes":[],"default_left":[0,0,0,0,0,0,0,0,0,0,0,0,0,0,0],"id":56,"left_children":[1,3,5,7,9,11,13,-1,-1,-1,-1,-1,-1,-1,-1],"loss_changes":[2.0694468E3,1.1141831E3,4.7818274E2,3.967079E2,7.9319275E1,2.8773376E2,4.5489746E1,0E0,0E0,0E0,0E0,0E0,0E0,0E0,0E0],"parents":[2147483647,0,0,1,1,2,2,3,3,4,4,5,5,6,6],"right_children":[2,4,6,8,10,12,14,-1,-1,-1,-1,-1,-1,-1,-1],"split_conditions":[1E0,1E0,1E0,2.0785715E1,5.5291433E0,2.3178572E1,5.3375096E0,-1.3508468E-2,-3.7099924E-3,3.7964594E-2,7.645958E-3,7.999536E-3,2.1807084E-2,2.5924202E-2,5.713351E-2],"split_indices":[1,0,0,12,9,12,11,0,0,0,0,0,0,0,0],"split_type":[0,0,0,0,0,0,0,0,0,0,0,0,0,0,0],"sum_hessian":[1.382E3,9.87E2,3.95E2,9.59E2,2.8E1,3.8E2,1.5E1,2.01E2,7.58E2,2.3E1,5E0,3.08E2,7.2E1,7E0,8E0],"tree_param":{"num_deleted":"0","num_feature":"14","num_nodes":"15","size_leaf_vector":"1"}},{"base_weights":[2.2945026E-2,-7.196163E-1,1.8348943E0,-9.008361E-1,4.6020317E0,1.6287317E0,7.103764E0,-7.3638265E-3,6.1347964E-4,3.3919122E-2,2.9208031E-3,1.5678229E-3,1.394189E-2,4.3390524E-3,4.620526E-2],"categories":[],"categories_nodes":[],"categories_segments":[],"categories_sizes":[],"default_left":[0,0,0,0,0,0,0,0,0,0,0,0,0,0,0],"id":57,"left_children":[1,3,5,7,9,11,13,-1,-1,-1,-1,-1,-1,-1,-1],"loss_changes":[1.9020515E3,9.67956E2,4.2814185E2,2.7976666E2,1.11958496E2,3.3687524E2,2.2613342E1,0E0,0E0,0E0,0E0,0E0,0E0,0E0,0E0],"parents":[2147483647,0,0,1,1,2,2,3,3,4,4,5,5,6,6],"right_children":[2,4,6,8,10,12,14,-1,-1,-1,-1,-1,-1,-1,-1],"split_conditions":[1E0,1E0,1E0,2.2857143E1,5.5291433E0,2.1142857E1,1.1E1,-7.3638265E-3,6.1347964E-4,3.3919122E-2,2.9208031E-3,1.5678229E-3,1.394189E-2,4.3390524E-3,4.620526E-2],"split_indices":[1,0,0,12,9,10,4,0,0,0,0,0,0,0,0],"split_type":[0,0,0,0,0,0,0,0,0,0,0,0,0,0,0],"sum_hessian":[1.411E3,1.001E3,4.1E2,9.69E2,3.2E1,3.96E2,1.4E1,7.53E2,2.16E2,2.6E1,6E0,1.24E2,2.72E2,1E0,1.3E1],"tree_param":{"num_deleted":"0","num_feature":"14","num_nodes":"15","size_leaf_vector":"1"}},{"base_weights":[5.1256135E-2,-7.732109E-1,2.061569E0,-8.930173E-1,4.427872E0,1.8583308E0,7.4760337E0,-1.21660605E-2,-3.5979536E-3,3.8192917E-2,-4.734347E-4,-5.16403E-3,1.3042321E-2,4.3258485E-3,4.8858758E-2],"categories":[],"categories_nodes":[],"categories_segments":[],"categories_sizes":[],"default_left":[0,0,0,0,0,0,0,0,0,0,0,0,0,0,0],"id":58,"left_children":[1,3,5,7,9,11,13,-1,-1,-1,-1,-1,-1,-1,-1],"loss_changes":[2.28494E3,6.103407E2,4.2012134E2,3.1662146E2,1.7718512E2,2.6009363E2,2.6927368E1,0E0,0E0,0E0,0E0,0E0,0E0,0E0,0E0],"parents":[2147483647,0,0,1,1,2,2,3,3,4,4,5,5,6,6],"right_children":[2,4,6,8,10,12,14,-1,-1,-1,-1,-1,-1,-1,-1],"split_conditions":[1E0,1E0,1E0,2.0857143E1,5.1777916E0,1.9821428E1,1.1E1,-1.21660605E-2,-3.5979536E-3,3.8192917E-2,-4.734347E-4,-5.16403E-3,1.3042321E-2,4.3258485E-3,4.8858758E-2],"split_indices":[1,0,0,12,9,12,4,0,0,0,0,0,0,0,0],"split_type":[0,0,0,0,0,0,0,0,0,0,0,0,0,0,0],"sum_hessian":[1.376E3,9.76E2,4E2,9.55E2,2.1E1,3.87E2,1.3E1,2.14E2,7.41E2,1.5E1,6E0,3.2E1,3.55E2,1E0,1.2E1],"tree_param":{"num_deleted":"0","num_feature":"14","num_nodes":"15","size_leaf_vector":"1"}},{"base_weights":[1.6936589E-2,-7.6784605E-1,1.9688402E0,-9.448255E-1,4.760108E0,1.772775E0,7.6225853E0,-1.14827715E-2,-3.8111736E-3,1.619386E-2,4.0612508E-2,8.4178625E-3,2.3381962E-2,4.967491E-2,6.5588835E-3],"categories":[],"categories_nodes":[],"categories_segments":[],"categories_sizes":[],"default_left":[0,0,0,0,0,0,0,0,0,0,0,0,0,0,0],"id":59,"left_children":[1,3,5,7,9,11,13,-1,-1,-1,-1,-1,-1,-1,-1],"loss_changes":[2.1470442E3,9.7927734E2,4.2481836E2,2.8727374E2,9.509906E1,3.1424646E2,1.8301392E1,0E0,0E0,0E0,0E0,0E0,0E0,0E0,0E0],"parents":[2147483647,0,0,1,1,2,2,3,3,4,4,5,5,6,6],"right_children":[2,4,6,8,10,12,14,-1,-1,-1,-1,-1,-1,-1,-1],"split_conditions":[1E0,1E0,1E0,2.1035715E1,2.1142857E1,2.3285715E1,3.1E1,-1.14827715E-2,-3.8111736E-3,1.619386E-2,4.0612508E-2,8.4178625E-3,2.3381962E-2,4.967491E-2,6.5588835E-3],"split_indices":[1,0,0,12,10,12,7,0,0,0,0,0,0,0,0],"split_type":[0,0,0,0,0,0,0,0,0,0,0,0,0,0,0],"sum_hessian":[1.399E3,9.98E2,4.01E2,9.68E2,3E1,3.89E2,1.2E1,2.56E2,7.12E2,1.5E1,1.5E1,3.24E2,6.5E1,1.1E1,1E0],"tree_param":{"num_deleted":"0","num_feature":"14","num_nodes":"15","size_leaf_vector":"1"}},{"base_weights":[-6.1445102E-2,-7.5855887E-1,1.6753334E0,-9.3739814E-1,4.403131E0,1.4314774E0,7.4831524E0,-1.2271209E-2,-4.0392787E-3,3.37929E-2,1.3104235E-3,2.850159E-3,1.3167369E-2,4.161527E-3,4.8591264E-2],"categories":[],"categories_nodes":[],"categories_segments":[],"categories_sizes":[],"default_left":[0,0,0,0,0,0,0,0,0,0,0,0,0,0,0],"id":60,"left_children":[1,3,5,7,9,11,13,-1,-1,-1,-1,-1,-1,-1,-1],"loss_changes":[1.7211447E3,9.387498E2,5.5888684E2,2.891978E2,1.4452203E2,2.612154E2,2.7491516E1,0E0,0E0,0E0,0E0,0E0,0E0,0E0,0E0],"parents":[2147483647,0,0,1,1,2,2,3,3,4,4,5,5,6,6],"right_children":[2,4,6,8,10,12,14,-1,-1,-1,-1,-1,-1,-1,-1],"split_conditions":[1E0,1E0,1E0,2.0785715E1,5.5291433E0,2.1642857E1,1.1E1,-1.2271209E-2,-4.0392787E-3,3.37929E-2,1.3104235E-3,2.850159E-3,1.3167369E-2,4.161527E-3,4.8591264E-2],"split_indices":[1,0,0,12,9,12,4,0,0,0,0,0,0,0,0],"split_type":[0,0,0,0,0,0,0,0,0,0,0,0,0,0,0],"sum_hessian":[1.42E3,1.014E3,4.06E2,9.81E2,3.3E1,3.91E2,1.5E1,2.09E2,7.72E2,2.6E1,7E0,1.64E2,2.27E2,1E0,1.4E1],"tree_param":{"num_deleted":"0","num_feature":"14","num_nodes":"15","size_leaf_vector":"1"}},{"base_weights":[-4.3710086E-2,-7.2467345E-1,1.6619741E0,-8.902924E-1,4.521844E0,1.5969217E-1,2.1531496E0,-7.46297E-3,6.5577496E-4,3.31191E-2,5.1110075E-3,-1.4533807E-3,2.6526783E-2,1.2370415E-2,3.7576903E-2],"categories":[],"categories_nodes":[],"categories_segments":[],"categories_sizes":[],"default_left":[0,0,0,0,0,0,0,0,0,0,0,0,0,0,0],"id":61,"left_children":[1,3,5,7,9,11,13,-1,-1,-1,-1,-1,-1,-1,-1],"loss_changes":[1.6453046E3,8.81781E2,2.9609314E2,3.0846124E2,8.5354065E1,1.6813585E2,1.6809863E2,0E0,0E0,0E0,0E0,0E0,0E0,0E0,0E0],"parents":[2147483647,0,0,1,1,2,2,3,3,4,4,5,5,6,6],"right_children":[2,4,6,8,10,12,14,-1,-1,-1,-1,-1,-1,-1,-1],"split_conditions":[5E0,1E0,2.0785715E1,2.2857143E1,5.5291433E0,6.0460687E0,1E0,-7.46297E-3,6.5577496E-4,3.31191E-2,5.1110075E-3,-1.4533807E-3,2.6526783E-2,1.2370415E-2,3.7576903E-2],"split_indices":[2,0,10,12,9,11,0,0,0,0,0,0,0,0,0],"split_type":[0,0,0,0,0,0,0,0,0,0,0,0,0,0,0],"sum_hessian":[1.415E3,1.012E3,4.03E2,9.82E2,3E1,1E2,3.03E2,7.47E2,2.35E2,2.4E1,6E0,9.2E1,8E0,2.93E2,1E1],"tree_param":{"num_deleted":"0","num_feature":"14","num_nodes":"15","size_leaf_vector":"1"}},{"base_weights":[2.7921584E-2,-6.7043346E-1,1.8081857E0,-7.861699E-1,2.0533168E0,8.499414E-1,2.4334514E0,-1.1203779E-2,-3.4504228E-3,2.1558555E-2,1.1030454E-3,1.3738358E-2,9.3560846E-4,-1.9131964E-3,1.6089814E-2],"categories":[],"categories_nodes":[],"categories_segments":[],"categories_sizes":[],"default_left":[0,0,0,0,0,0,0,0,0,0,0,0,0,0,0],"id":62,"left_children":[1,3,5,7,9,11,13,-1,-1,-1,-1,-1,-1,-1,-1],"loss_changes":[1.7426885E3,3.1789114E2,2.3215686E2,2.2364197E2,1.0641618E2,1.4894177E2,1.0893591E2,0E0,0E0,0E0,0E0,0E0,0E0,0E0,0E0],"parents":[2147483647,0,0,1,1,2,2,3,3,4,4,5,5,6,6],"right_children":[2,4,6,8,10,12,14,-1,-1,-1,-1,-1,-1,-1,-1],"split_conditions":[1E0,3.1E1,2.1642857E1,2.0571428E1,3.3E1,5E0,3.4105525E0,-1.1203779E-2,-3.4504228E-3,2.1558555E-2,1.1030454E-3,1.3738358E-2,9.3560846E-4,-1.9131964E-3,1.6089814E-2],"split_indices":[1,4,12,12,4,3,11,0,0,0,0,0,0,0,0],"split_type":[0,0,0,0,0,0,0,0,0,0,0,0,0,0,0],"sum_hessian":[1.399E3,1.005E3,3.94E2,9.65E2,4E1,1.57E2,2.37E2,1.75E2,7.9E2,2.2E1,1.8E1,5.2E1,1.05E2,1.3E1,2.24E2],"tree_param":{"num_deleted":"0","num_feature":"14","num_nodes":"15","size_leaf_vector":"1"}},{"base_weights":[2.0557903E-3,-2.0962429E-1,5.7194476E0,-8.80039E-1,1.5047663E0,1.5544527E0,6.456462E0,-7.593151E-3,1.484308E-3,-2.81152E-3,1.0659096E-2,-9.832918E-3,2.1741455E-2,1.5628738E-2,4.697244E-2],"categories":[],"categories_nodes":[],"categories_segments":[],"categories_sizes":[],"default_left":[0,0,0,0,0,0,0,0,0,0,0,0,0,0,0],"id":63,"left_children":[1,3,5,7,9,11,13,-1,-1,-1,-1,-1,-1,-1,-1],"loss_changes":[1.6960251E3,1.5502874E3,1.3736536E2,3.760445E2,1.6160052E2,6.2636795E1,1.5869519E2,0E0,0E0,0E0,0E0,0E0,0E0,0E0,0E0],"parents":[2147483647,0,0,1,1,2,2,3,3,4,4,5,5,6,6],"right_children":[2,4,6,8,10,12,14,-1,-1,-1,-1,-1,-1,-1,-1],"split_conditions":[1E0,1E0,1.8E1,2.2857143E1,1.9785715E1,2.0857143E1,2E0,-7.593151E-3,1.484308E-3,-2.81152E-3,1.0659096E-2,-9.832918E-3,2.1741455E-2,1.5628738E-2,4.697244E-2],"split_indices":[0,1,6,12,12,8,2,0,0,0,0,0,0,0,0],"split_type":[0,0,0,0,0,0,0,0,0,0,0,0,0,0,0],"sum_hessian":[1.396E3,1.347E3,4.9E1,9.69E2,3.78E2,8E0,4.1E1,7.41E2,2.28E2,3.7E1,3.41E2,3E0,5E0,1E1,3.1E1],"tree_param":{"num_deleted":"0","num_feature":"14","num_nodes":"15","size_leaf_vector":"1"}},{"base_weights":[-1.20966695E-2,-7.584653E-1,1.8491489E0,-9.3217367E-1,4.5031133E0,1.6363991E0,7.5422497E0,-1.2115704E-2,-3.9269496E-3,1.2770328E-2,4.1897655E-2,7.538152E-3,2.198546E-2,4.007502E-3,4.9350284E-2],"categories":[],"categories_nodes":[],"categories_segments":[],"categories_sizes":[],"default_left":[0,0,0,0,0,0,0,0,0,0,0,0,0,0,0],"id":64,"left_children":[1,3,5,7,9,11,13,-1,-1,-1,-1,-1,-1,-1,-1],"loss_changes":[1.9469452E3,9.166806E2,4.6626917E2,2.9300964E2,1.5582587E2,3.035338E2,2.921643E1,0E0,0E0,0E0,0E0,0E0,0E0,0E0,0E0],"parents":[2147483647,0,0,1,1,2,2,3,3,4,4,5,5,6,6],"right_children":[2,4,6,8,10,12,14,-1,-1,-1,-1,-1,-1,-1,-1],"split_conditions":[5E0,1E0,1E0,2.0857143E1,2.1142857E1,2.3178572E1,1.1E1,-1.2115704E-2,-3.9269496E-3,1.2770328E-2,4.1897655E-2,7.538152E-3,2.198546E-2,4.007502E-3,4.9350284E-2],"split_indices":[2,0,0,12,10,12,4,0,0,0,0,0,0,0,0],"split_type":[0,0,0,0,0,0,0,0,0,0,0,0,0,0,0],"sum_hessian":[1.4E3,1E3,4E2,9.69E2,3.1E1,3.87E2,1.3E1,2.17E2,7.52E2,1.6E1,1.5E1,3.19E2,6.8E1,1E0,1.2E1],"tree_param":{"num_deleted":"0","num_feature":"14","num_nodes":"15","size_leaf_vector":"1"}},{"base_weights":[-6.001077E-2,-7.972279E-1,1.7291715E0,-9.627343E-1,4.0354066E0,1.5298429E0,6.811622E0,-9.67053E-3,-3.5513544E-3,-8.335367E-3,3.1421185E-2,5.0403164E-3,1.6391713E-2,3.9953077E-3,4.4315845E-2],"categories":[],"categories_nodes":[],"categories_segments":[],"categories_sizes":[],"default_left":[0,0,0,0,0,0,0,0,0,0,0,0,0,0,0],"id":65,"left_children":[1,3,5,7,9,11,13,-1,-1,-1,-1,-1,-1,-1,-1],"loss_changes":[1.8540162E3,7.9845264E2,3.9853076E2,2.2208795E2,1.9379608E2,3.1173834E2,2.1069214E1,0E0,0E0,0E0,0E0,0E0,0E0,0E0,0E0],"parents":[2147483647,0,0,1,1,2,2,3,3,4,4,5,5,6,6],"right_children":[2,4,6,8,10,12,14,-1,-1,-1,-1,-1,-1,-1,-1],"split_conditions":[1E0,1E0,1E0,2.15E1,1.8E1,2.2571428E1,1.1E1,-9.67053E-3,-3.5513544E-3,-8.335367E-3,3.1421185E-2,5.0403164E-3,1.6391713E-2,3.9953077E-3,4.4315845E-2],"split_indices":[1,0,0,10,6,8,4,0,0,0,0,0,0,0,0],"split_type":[0,0,0,0,0,0,0,0,0,0,0,0,0,0,0],"sum_hessian":[1.404E3,9.95E2,4.09E2,9.63E2,3.2E1,3.95E2,1.4E1,3.78E2,5.85E2,5E0,2.7E1,2.42E2,1.53E2,1E0,1.3E1],"tree_param":{"num_deleted":"0","num_feature":"14","num_nodes":"15","size_leaf_vector":"1"}},{"base_weights":[4.9726337E-2,-6.498813E-1,1.7977389E0,-8.217703E-1,4.6604037E0,1.6151471E0,6.7649865E0,-1.0847136E-2,-3.4754924E-3,1.3773495E-2,4.4708103E-2,7.5292485E-3,2.1178411E-2,1.2343069E-2,5.198481E-2],"categories":[],"categories_nodes":[],"categories_segments":[],"categories_sizes":[],"default_left":[0,0,0,0,0,0,0,0,0,0,0,0,0,0,0],"id":66,"left_children":[1,3,5,7,9,11,13,-1,-1,-1,-1,-1,-1,-1,-1],"loss_changes":[1.7496472E3,9.331581E2,3.535669E2,2.3719238E2,1.7600183E2,2.7795007E2,8.394269E1,0E0,0E0,0E0,0E0,0E0,0E0,0E0,0E0],"parents":[2147483647,0,0,1,1,2,2,3,3,4,4,5,5,6,6],"right_children":[2,4,6,8,10,12,14,-1,-1,-1,-1,-1,-1,-1,-1],"split_conditions":[1E0,1E0,1E0,2.0857143E1,2.1142857E1,2.3178572E1,2.2E1,-1.0847136E-2,-3.4754924E-3,1.3773495E-2,4.4708103E-2,7.5292485E-3,2.1178411E-2,1.2343069E-2,5.198481E-2],"split_indices":[1,0,0,12,10,12,6,0,0,0,0,0,0,0,0],"split_type":[0,0,0,0,0,0,0,0,0,0,0,0,0,0,0],"sum_hessian":[1.428E3,1.02E3,4.08E2,9.89E2,3.1E1,3.95E2,1.3E1,2.15E2,7.74E2,1.7E1,1.4E1,3.25E2,7E1,4E0,9E0],"tree_param":{"num_deleted":"0","num_feature":"14","num_nodes":"15","size_leaf_vector":"1"}},{"base_weights":[2.599441E-2,-6.809681E-1,1.8047467E0,-8.266734E-1,4.0675726E0,1.5739973E0,7.19746E0,-1.2177859E-2,-3.150324E-3,1.50678875E-2,3.5327513E-2,2.8817655E-4,1.3090681E-2,2.8034767E-2,5.6914587E-2],"categories":[],"categories_nodes":[],"categories_segments":[],"categories_sizes":[],"default_left":[0,0,0,0,0,0,0,0,0,0,0,0,0,0,0],"id":67,"left_children":[1,3,5,7,9,11,13,-1,-1,-1,-1,-1,-1,-1,-1],"loss_changes":[1.7727126E3,6.9857544E2,4.8091406E2,3.519508E2,5.998233E1,3.1588214E2,3.215393E1,0E0,0E0,0E0,0E0,0E0,0E0,0E0,0E0],"parents":[2147483647,0,0,1,1,2,2,3,3,4,4,5,5,6,6],"right_children":[2,4,6,8,10,12,14,-1,-1,-1,-1,-1,-1,-1,-1],"split_conditions":[1E0,1E0,1E0,2.0821428E1,2.1142857E1,2.0857143E1,5.3375096E0,-1.2177859E-2,-3.150324E-3,1.50678875E-2,3.5327513E-2,2.8817655E-4,1.3090681E-2,2.8034767E-2,5.6914587E-2],"split_indices":[1,0,0,12,10,10,11,0,0,0,0,0,0,0,0],"split_type":[0,0,0,0,0,0,0,0,0,0,0,0,0,0,0],"sum_hessian":[1.407E3,1.007E3,4E2,9.78E2,2.9E1,3.85E2,1.5E1,2.12E2,7.66E2,1.6E1,1.3E1,1.01E2,2.84E2,8E0,7E0],"tree_param":{"num_deleted":"0","num_feature":"14","num_nodes":"15","size_leaf_vector":"1"}},{"base_weights":[2.5477668E-2,-6.1475027E-1,1.6544747E0,-7.7829957E-1,4.515117E0,7.5477207E-1,2.2865896E0,-1.1671944E-2,-2.9071693E-3,1.716236E-2,4.1203294E-2,1.8065592E-2,4.893557E-4,1.3183971E-2,4.2953573E-2],"categories":[],"categories_nodes":[],"categories_segments":[],"categories_sizes":[],"default_left":[0,0,0,0,0,0,0,0,0,0,0,0,0,0,0],"id":68,"left_children":[1,3,5,7,9,11,13,-1,-1,-1,-1,-1,-1,-1,-1],"loss_changes":[1.4598638E3,8.4329663E2,2.2066211E2,3.3019855E2,8.9677185E1,2.385578E2,1.4876892E2,0E0,0E0,0E0,0E0,0E0,0E0,0E0,0E0],"parents":[2147483647,0,0,1,1,2,2,3,3,4,4,5,5,6,6],"right_children":[2,4,6,8,10,12,14,-1,-1,-1,-1,-1,-1,-1,-1],"split_conditions":[1E0,1E0,2.15E1,2.0821428E1,2.1571428E1,3E0,1E0,-1.1671944E-2,-2.9071693E-3,1.716236E-2,4.1203294E-2,1.8065592E-2,4.893557E-4,1.3183971E-2,4.2953573E-2],"split_indices":[1,0,10,12,10,3,0,0,0,0,0,0,0,0,0],"split_type":[0,0,0,0,0,0,0,0,0,0,0,0,0,0,0],"sum_hessian":[1.397E3,1.003E3,3.94E2,9.73E2,3E1,1.64E2,2.3E2,2.11E2,7.62E2,1.8E1,1.2E1,3.8E1,1.26E2,2.24E2,6E0],"tree_param":{"num_deleted":"0","num_feature":"14","num_nodes":"15","size_leaf_vector":"1"}},{"base_weights":[-2.5801467E-2,-2.2695912E-1,5.5800858E0,-8.392623E-1,1.3341596E0,3.1831083E0,7.38162E0,-6.874941E-3,1.531516E-4,-6.0256827E-4,1.1303052E-2,2.7152872E-2,-5.247956E-4,-1.3571688E-3,4.7777716E-2],"categories":[],"categories_nodes":[],"categories_segments":[],"categories_sizes":[],"default_left":[0,0,0,0,0,0,0,0,0,0,0,0,0,0,0],"id":69,"left_children":[1,3,5,7,9,11,13,-1,-1,-1,-1,-1,-1,-1,-1],"loss_changes":[1.5964916E3,1.3103882E3,1.7971338E2,2.3076392E2,2.721383E2,9.374884E1,7.472119E1,0E0,0E0,0E0,0E0,0E0,0E0,0E0,0E0],"parents":[2147483647,0,0,1,1,2,2,3,3,4,4,5,5,6,6],"right_children":[2,4,6,8,10,12,14,-1,-1,-1,-1,-1,-1,-1,-1],"split_conditions":[1E0,1E0,2.1142857E1,2.2857143E1,2.0857143E1,2.1392857E1,3.76193E0,-6.874941E-3,1.531516E-4,-6.0256827E-4,1.1303052E-2,2.7152872E-2,-5.247956E-4,-1.3571688E-3,4.7777716E-2],"split_indices":[0,1,10,12,10,12,13,0,0,0,0,0,0,0,0],"split_type":[0,0,0,0,0,0,0,0,0,0,0,0,0,0,0],"sum_hessian":[1.417E3,1.369E3,4.8E1,9.84E2,3.85E2,2.2E1,2.6E1,7.5E2,2.34E2,9.8E1,2.87E2,1.6E1,6E0,1E0,2.5E1],"tree_param":{"num_deleted":"0","num_feature":"14","num_nodes":"15","size_leaf_vector":"1"}},{"base_weights":[1.4190404E-2,-7.042385E-1,1.8656174E0,-8.862096E-1,4.7216115E0,1.6273535E0,7.010462E0,-1.2054988E-2,-3.5485537E-3,3.413115E-2,8.5617154E-4,-3.6029883E-3,1.145683E-2,3.776168E-3,4.538996E-2],"categories":[],"categories_nodes":[],"categories_segments":[],"categories_sizes":[],"default_left":[0,0,0,0,0,0,0,0,0,0,0,0,0,0,0],"id":70,"left_children":[1,3,5,7,9,11,13,-1,-1,-1,-1,-1,-1,-1,-1],"loss_changes":[1.8790524E3,1.0057156E3,4.6614026E2,3.241574E2,1.1417432E2,1.8748694E2,2.38891E1,0E0,0E0,0E0,0E0,0E0,0E0,0E0,0E0],"parents":[2147483647,0,0,1,1,2,2,3,3,4,4,5,5,6,6],"right_children":[2,4,6,8,10,12,14,-1,-1,-1,-1,-1,-1,-1,-1],"split_conditions":[1E0,1E0,1E0,2.0857143E1,5.2190127E0,1.9785715E1,1.1E1,-1.2054988E-2,-3.5485537E-3,3.413115E-2,8.5617154E-4,-3.6029883E-3,1.145683E-2,3.776168E-3,4.538996E-2],"split_indices":[1,0,0,12,9,12,4,0,0,0,0,0,0,0,0],"split_type":[0,0,0,0,0,0,0,0,0,0,0,0,0,0,0],"sum_hessian":[1.41E3,1.016E3,3.94E2,9.84E2,3.2E1,3.78E2,1.6E1,2.23E2,7.61E2,2.7E1,5E0,3.4E1,3.44E2,1E0,1.5E1],"tree_param":{"num_deleted":"0","num_feature":"14","num_nodes":"15","size_leaf_vector":"1"}},{"base_weights":[-1.5973547E-3,-6.3462055E-1,1.6217067E0,-8.032416E-1,4.350158E0,1.4096457E0,6.8071623E0,-6.843833E-3,8.927741E-4,3.3859078E-2,5.564383E-4,6.3194707E-4,1.1660145E-2,3.7646764E-3,4.4319704E-2],"categories":[],"categories_nodes":[],"categories_segments":[],"categories_sizes":[],"default_left":[0,0,0,0,0,0,0,0,0,0,0,0,0,0,0],"id":71,"left_children":[1,3,5,7,9,11,13,-1,-1,-1,-1,-1,-1,-1,-1],"loss_changes":[1.4400385E3,8.4917554E2,4.1627344E2,2.796353E2,1.5222986E2,2.3231989E2,2.2012451E1,0E0,0E0,0E0,0E0,0E0,0E0,0E0,0E0],"parents":[2147483647,0,0,1,1,2,2,3,3,4,4,5,5,6,6],"right_children":[2,4,6,8,10,12,14,-1,-1,-1,-1,-1,-1,-1,-1],"split_conditions":[1E0,1E0,1E0,2.2857143E1,5.5291433E0,2.0571428E1,1.1E1,-6.843833E-3,8.927741E-4,3.3859078E-2,5.564383E-4,6.3194707E-4,1.1660145E-2,3.7646764E-3,4.4319704E-2],"split_indices":[1,0,0,12,9,8,4,0,0,0,0,0,0,0,0],"split_type":[0,0,0,0,0,0,0,0,0,0,0,0,0,0,0],"sum_hessian":[1.4E3,1.008E3,3.92E2,9.76E2,3.2E1,3.78E2,1.4E1,7.41E2,2.35E2,2.5E1,7E0,1.01E2,2.77E2,1E0,1.3E1],"tree_param":{"num_deleted":"0","num_feature":"14","num_nodes":"15","size_leaf_vector":"1"}},{"base_weights":[-5.695244E-3,-6.322347E-1,1.5931691E0,-7.991984E-1,4.5784736E0,1.4193641E0,6.104721E0,-1.09506305E-2,-3.1901852E-3,3.4526672E-2,1.6505376E-3,-0E0,1.163939E-2,2.1557152E-2,5.020089E-2],"categories":[],"categories_nodes":[],"categories_segments":[],"categories_sizes":[],"default_left":[0,0,0,0,0,0,0,0,0,0,0,0,0,0,0],"id":72,"left_children":[1,3,5,7,9,11,13,-1,-1,-1,-1,-1,-1,-1,-1],"loss_changes":[1.3918143E3,8.7020386E2,2.9216998E2,2.6414435E2,1.27153564E2,2.4757562E2,3.5955383E1,0E0,0E0,0E0,0E0,0E0,0E0,0E0,0E0],"parents":[2147483647,0,0,1,1,2,2,3,3,4,4,5,5,6,6],"right_children":[2,4,6,8,10,12,14,-1,-1,-1,-1,-1,-1,-1,-1],"split_conditions":[5E0,1E0,1E0,2.0857143E1,5.2190127E0,2.0785715E1,2.15E1,-1.09506305E-2,-3.1901852E-3,3.4526672E-2,1.6505376E-3,-0E0,1.163939E-2,2.1557152E-2,5.020089E-2],"split_indices":[2,0,0,12,9,10,10,0,0,0,0,0,0,0,0],"split_type":[0,0,0,0,0,0,0,0,0,0,0,0,0,0,0],"sum_hessian":[1.388E3,9.98E2,3.9E2,9.68E2,3E1,3.77E2,1.3E1,2.18E2,7.5E2,2.4E1,6E0,9.2E1,2.85E2,7E0,6E0],"tree_param":{"num_deleted":"0","num_feature":"14","num_nodes":"15","size_leaf_vector":"1"}},{"base_weights":[-1.4389207E-2,-6.817024E-1,1.6528529E0,-8.5475E-1,4.3778462E0,1.4463103E0,6.7794704E0,-1.1901117E-2,-3.3493575E-3,3.3130832E-2,-0E0,-1.5750934E-3,1.0964959E-2,4.5343996E-3,4.70534E-2],"categories":[],"categories_nodes":[],"categories_segments":[],"categories_sizes":[],"default_left":[0,0,0,0,0,0,0,0,0,0,0,0,0,0,0],"id":73,"left_children":[1,3,5,7,9,11,13,-1,-1,-1,-1,-1,-1,-1,-1],"loss_changes":[1.5536533E3,8.7513885E2,4.0637952E2,3.2068152E2,1.3968805E2,2.1316895E2,6.219287E1,0E0,0E0,0E0,0E0,0E0,0E0,0E0,0E0],"parents":[2147483647,0,0,1,1,2,2,3,3,4,4,5,5,6,6],"right_children":[2,4,6,8,10,12,14,-1,-1,-1,-1,-1,-1,-1,-1],"split_conditions":[1E0,1E0,1E0,2.0857143E1,5.5291433E0,2.0464285E1,1.9E1,-1.1901117E-2,-3.3493575E-3,3.3130832E-2,-0E0,-1.5750934E-3,1.0964959E-2,4.5343996E-3,4.70534E-2],"split_indices":[1,0,0,12,9,12,4,0,0,0,0,0,0,0,0],"split_type":[0,0,0,0,0,0,0,0,0,0,0,0,0,0,0],"sum_hessian":[1.395E3,9.97E2,3.98E2,9.65E2,3.2E1,3.84E2,1.4E1,2.18E2,7.47E2,2.6E1,6E0,6.1E1,3.23E2,2E0,1.2E1],"tree_param":{"num_deleted":"0","num_feature":"14","num_nodes":"15","size_leaf_vector":"1"}},{"base_weights":[1.2610014E-2,-7.1383953E-1,1.7954257E0,-8.7871313E-1,4.0827427E0,1.5875583E0,6.6897626E0,-6.9723646E-3,-4.5587655E-4,1.9202774E-3,3.1335507E-2,4.676111E-3,1.3580518E-2,2.2705799E-2,5.287479E-2],"categories":[],"categories_nodes":[],"categories_segments":[],"categories_sizes":[],"default_left":[0,0,0,0,0,0,0,0,0,0,0,0,0,0,0],"id":74,"left_children":[1,3,5,7,9,11,13,-1,-1,-1,-1,-1,-1,-1,-1],"loss_changes":[1.8114528E3,7.8670984E2,3.9504468E2,1.8974872E2,1.158819E2,1.923753E2,4.814392E1,0E0,0E0,0E0,0E0,0E0,0E0,0E0,0E0],"parents":[2147483647,0,0,1,1,2,2,3,3,4,4,5,5,6,6],"right_children":[2,4,6,8,10,12,14,-1,-1,-1,-1,-1,-1,-1,-1],"split_conditions":[5E0,1E0,1E0,2.2857143E1,1.8E1,2.1642857E1,5.3375096E0,-6.9723646E-3,-4.5587655E-4,1.9202774E-3,3.1335507E-2,4.676111E-3,1.3580518E-2,2.2705799E-2,5.287479E-2],"split_indices":[2,0,0,12,6,12,11,0,0,0,0,0,0,0,0],"split_type":[0,0,0,0,0,0,0,0,0,0,0,0,0,0,0],"sum_hessian":[1.396E3,9.92E2,4.04E2,9.6E2,3.2E1,3.89E2,1.5E1,7.34E2,2.26E2,7E0,2.5E1,1.65E2,2.24E2,7E0,8E0],"tree_param":{"num_deleted":"0","num_feature":"14","num_nodes":"15","size_leaf_vector":"1"}},{"base_weights":[-7.227928E-2,-7.835169E-1,1.641684E0,-8.827387E-1,1.4018703E0,9.836369E-1,2.432413E0,-6.727803E-3,-8.9091033E-4,-1.4559778E-2,1.2258043E-2,2.678821E-3,1.2481457E-2,9.476123E-3,2.0572597E-2],"categories":[],"categories_nodes":[],"categories_segments":[],"categories_sizes":[],"default_left":[0,0,0,0,0,0,0,0,0,0,0,0,0,0,0],"id":75,"left_children":[1,3,5,7,9,11,13,-1,-1,-1,-1,-1,-1,-1,-1],"loss_changes":[1.7049645E3,2.153656E2,2.0839246E2,1.4098853E2,9.7589005E1,1.25750885E2,1.3953564E2,0E0,0E0,0E0,0E0,0E0,0E0,0E0,0E0],"parents":[2147483647,0,0,1,1,2,2,3,3,4,4,5,5,6,6],"right_children":[2,4,6,8,10,12,14,-1,-1,-1,-1,-1,-1,-1,-1],"split_conditions":[1E0,3.1E1,2.2035715E1,2.2857143E1,2E0,5.170181E0,4.8107023E0,-6.727803E-3,-8.9091033E-4,-1.4559778E-2,1.2258043E-2,2.678821E-3,1.2481457E-2,9.476123E-3,2.0572597E-2],"split_indices":[1,4,12,12,3,11,9,0,0,0,0,0,0,0,0],"split_type":[0,0,0,0,0,0,0,0,0,0,0,0,0,0,0],"sum_hessian":[1.397E3,9.88E2,4.09E2,9.46E2,4.2E1,2.25E2,1.84E2,7.41E2,2.05E2,5E0,3.7E1,1.48E2,7.7E1,9.3E1,9.1E1],"tree_param":{"num_deleted":"0","num_feature":"14","num_nodes":"15","size_leaf_vector":"1"}},{"base_weights":[5.9009783E-2,-6.185335E-1,1.6682707E0,-8.000093E-1,4.9337254E0,1.4620564E0,6.6334915E0,-6.7178197E-3,9.993621E-4,2.1910548E-2,4.5985658E-2,6.6519324E-3,1.9798893E-2,4.392284E-3,4.569138E-2],"categories":[],"categories_nodes":[],"categories_segments":[],"categories_sizes":[],"default_left":[0,0,0,0,0,0,0,0,0,0,0,0,0,0,0],"id":76,"left_children":[1,3,5,7,9,11,13,-1,-1,-1,-1,-1,-1,-1,-1],"loss_changes":[1.5196316E3,9.88569E2,4.0696704E2,2.6029785E2,7.274518E1,2.613919E2,5.9013794E1,0E0,0E0,0E0,0E0,0E0,0E0,0E0,0E0],"parents":[2147483647,0,0,1,1,2,2,3,3,4,4,5,5,6,6],"right_children":[2,4,6,8,10,12,14,-1,-1,-1,-1,-1,-1,-1,-1],"split_conditions":[5E0,1E0,1E0,2.2857143E1,3E0,2.3178572E1,1.9E1,-6.7178197E-3,9.993621E-4,2.1910548E-2,4.5985658E-2,6.6519324E-3,1.9798893E-2,4.392284E-3,4.569138E-2],"split_indices":[2,0,0,12,2,12,4,0,0,0,0,0,0,0,0],"split_type":[0,0,0,0,0,0,0,0,0,0,0,0,0,0,0],"sum_hessian":[1.391E3,9.79E2,4.12E2,9.49E2,3E1,3.97E2,1.5E1,7.33E2,2.16E2,2.1E1,9E0,3.26E2,7.1E1,2E0,1.3E1],"tree_param":{"num_deleted":"0","num_feature":"14","num_nodes":"15","size_leaf_vector":"1"}},{"base_weights":[-7.6443483E-3,-6.557846E-1,1.6401199E0,-8.3549947E-1,4.2203903E0,1.4458826E0,6.7953644E0,-8.530474E-3,-2.4778526E-3,3.222649E-2,2.7258808E-4,6.557565E-3,2.082443E-2,2.2386843E-2,5.7790536E-2],"categories":[],"categories_nodes":[],"categories_segments":[],"categories_sizes":[],"default_left":[0,0,0,0,0,0,0,0,0,0,0,0,0,0,0],"id":77,"left_children":[1,3,5,7,9,11,13,-1,-1,-1,-1,-1,-1,-1,-1],"loss_changes":[1.5062926E3,8.8893713E2,3.8239197E2,2.286886E2,1.4347168E2,2.7888202E2,6.872125E1,0E0,0E0,0E0,0E0,0E0,0E0,0E0,0E0],"parents":[2147483647,0,0,1,1,2,2,3,3,4,4,5,5,6,6],"right_children":[2,4,6,8,10,12,14,-1,-1,-1,-1,-1,-1,-1,-1],"split_conditions":[5E0,1E0,1E0,2.1714285E1,5.5291433E0,2.3285715E1,5.3375096E0,-8.530474E-3,-2.4778526E-3,3.222649E-2,2.7258808E-4,6.557565E-3,2.082443E-2,2.2386843E-2,5.7790536E-2],"split_indices":[2,0,0,12,9,12,11,0,0,0,0,0,0,0,0],"split_type":[0,0,0,0,0,0,0,0,0,0,0,0,0,0,0],"sum_hessian":[1.409E3,1.012E3,3.97E2,9.77E2,3.5E1,3.84E2,1.3E1,4.34E2,5.43E2,2.8E1,7E0,3.21E2,6.3E1,7E0,6E0],"tree_param":{"num_deleted":"0","num_feature":"14","num_nodes":"15","size_leaf_vector":"1"}},{"base_weights":[8.560007E-2,-5.156716E-1,1.5940647E0,-6.631839E-1,4.2467747E0,3.7187524E-4,2.0492074E0,-4.6412116E-3,7.0893234E-3,3.2164805E-2,1.8193972E-3,-6.0896287E-3,1.1369098E-2,1.1679541E-2,4.1494917E-2],"categories":[],"categories_nodes":[],"categories_segments":[],"categories_sizes":[],"default_left":[0,0,0,0,0,0,0,0,0,0,0,0,0,0,0],"id":78,"left_children":[1,3,5,7,9,11,13,-1,-1,-1,-1,-1,-1,-1,-1],"loss_changes":[1.2696514E3,7.0285706E2,2.879524E2,1.5116779E2,1.06505005E2,1.6485327E2,2.1754456E2,0E0,0E0,0E0,0E0,0E0,0E0,0E0,0E0],"parents":[2147483647,0,0,1,1,2,2,3,3,4,4,5,5,6,6],"right_children":[2,4,6,8,10,12,14,-1,-1,-1,-1,-1,-1,-1,-1],"split_conditions":[1E0,1E0,2.0785715E1,3.1E1,5.5291433E0,2.3E1,1E0,-4.6412116E-3,7.0893234E-3,3.2164805E-2,1.8193972E-3,-6.0896287E-3,1.1369098E-2,1.1679541E-2,4.1494917E-2],"split_indices":[1,0,10,4,9,5,0,0,0,0,0,0,0,0,0],"split_type":[0,0,0,0,0,0,0,0,0,0,0,0,0,0,0],"sum_hessian":[1.397E3,9.99E2,3.98E2,9.7E2,2.9E1,8.9E1,3.09E2,9.27E2,4.3E1,2.3E1,6E0,5.8E1,3.1E1,3E2,9E0],"tree_param":{"num_deleted":"0","num_feature":"14","num_nodes":"15","size_leaf_vector":"1"}},{"base_weights":[-9.670107E-2,-6.8097436E-1,1.4036263E0,-8.681492E-1,4.652391E-1,-2.780552E-2,1.8516215E0,-2.7755294E-3,-7.8850435E-3,3.5784397E-2,1.881062E-3,-6.4526023E-3,8.14509E-3,9.465447E-3,1.8715099E-2],"categories":[],"categories_nodes":[],"categories_segments":[],"categories_sizes":[],"default_left":[0,0,0,0,0,0,0,0,0,0,0,0,0,0,0],"id":79,"left_children":[1,3,5,7,9,11,13,-1,-1,-1,-1,-1,-1,-1,-1],"loss_changes":[1.2391344E3,2.1912354E2,2.5534827E2,1.4700476E2,1.16550026E2,1.3050195E2,1.0630774E2,0E0,0E0,0E0,0E0,0E0,0E0,0E0,0E0],"parents":[2147483647,0,0,1,1,2,2,3,3,4,4,5,5,6,6],"right_children":[2,4,6,8,10,12,14,-1,-1,-1,-1,-1,-1,-1,-1],"split_conditions":[1E0,2.3714285E1,2.0785715E1,4.582576E0,2.2253945E0,2.2E1,2.3392857E1,-2.7755294E-3,-7.8850435E-3,3.5784397E-2,1.881062E-3,-6.4526023E-3,8.14509E-3,9.465447E-3,1.8715099E-2],"split_indices":[1,10,10,9,9,4,12,0,0,0,0,0,0,0,0],"split_type":[0,0,0,0,0,0,0,0,0,0,0,0,0,0,0],"sum_hessian":[1.412E3,1.017E3,3.95E2,8.75E2,1.42E2,9.4E1,3.01E2,4.31E2,4.44E2,3E0,1.39E2,5.4E1,4E1,2.38E2,6.3E1],"tree_param":{"num_deleted":"0","num_feature":"14","num_nodes":"15","size_leaf_vector":"1"}},{"base_weights":[7.0083685E-2,-5.90342E-1,1.6867187E0,-7.6758415E-1,4.877068E0,1.4775385E0,6.6069674E0,-5.4456997E-3,1.0289079E-2,3.6348008E-2,-6.4469676E-4,3.7307673E-4,1.0967911E-2,2.605937E-2,5.183417E-2],"categories":[],"categories_nodes":[],"categories_segments":[],"categories_sizes":[],"default_left":[0,0,0,0,0,0,0,0,0,0,0,0,0,0,0],"id":80,"left_children":[1,3,5,7,9,11,13,-1,-1,-1,-1,-1,-1,-1,-1],"loss_changes":[1.4869938E3,9.583524E2,3.9984314E2,2.596629E2,1.5766449E2,1.597995E2,2.2097717E1,0E0,0E0,0E0,0E0,0E0,0E0,0E0,0E0],"parents":[2147483647,0,0,1,1,2,2,3,3,4,4,5,5,6,6],"right_children":[2,4,6,8,10,12,14,-1,-1,-1,-1,-1,-1,-1,-1],"split_conditions":[1E0,1E0,1E0,3.1E1,5.5291433E0,2.0285715E1,5.3375096E0,-5.4456997E-3,1.0289079E-2,3.6348008E-2,-6.4469676E-4,3.7307673E-4,1.0967911E-2,2.605937E-2,5.183417E-2],"split_indices":[1,0,0,4,9,10,11,0,0,0,0,0,0,0,0],"split_type":[0,0,0,0,0,0,0,0,0,0,0,0,0,0,0],"sum_hessian":[1.39E3,9.87E2,4.03E2,9.57E2,3E1,3.88E2,1.5E1,9.16E2,4.1E1,2.5E1,5E0,6.7E1,3.21E2,8E0,7E0],"tree_param":{"num_deleted":"0","num_feature":"14","num_nodes":"15","size_leaf_vector":"1"}},{"base_weights":[5.526289E-2,-1.2815356E-1,5.337819E0,-7.3633397E-1,1.3922465E0,2.8137128E0,6.405915E0,-1.1385738E-2,-2.7489157E-3,6.759639E-3,1.7343117E-2,-1.0845354E-2,2.5151877E-2,1.9533655E-2,4.434388E-2],"categories":[],"categories_nodes":[],"categories_segments":[],"categories_sizes":[],"default_left":[0,0,0,0,0,0,0,0,0,0,0,0,0,0,0],"id":81,"left_children":[1,3,5,7,9,11,13,-1,-1,-1,-1,-1,-1,-1,-1],"loss_changes":[1.3580981E3,1.2498584E3,1.01422E2,3.088545E2,1.5765723E2,1.0017713E2,4.7313477E1,0E0,0E0,0E0,0E0,0E0,0E0,0E0,0E0],"parents":[2147483647,0,0,1,1,2,2,3,3,4,4,5,5,6,6],"right_children":[2,4,6,8,10,12,14,-1,-1,-1,-1,-1,-1,-1,-1],"split_conditions":[1E0,1E0,2.0857143E1,2.0785715E1,2.3178572E1,1.8E1,2E0,-1.1385738E-2,-2.7489157E-3,6.759639E-3,1.7343117E-2,-1.0845354E-2,2.5151877E-2,1.9533655E-2,4.434388E-2],"split_indices":[0,1,8,12,12,6,2,0,0,0,0,0,0,0,0],"split_type":[0,0,0,0,0,0,0,0,0,0,0,0,0,0,0],"sum_hessian":[1.396E3,1.35E3,4.6E1,9.65E2,3.85E2,1.5E1,3.1E1,2.01E2,7.64E2,3.19E2,6.6E1,3E0,1.2E1,7E0,2.4E1],"tree_param":{"num_deleted":"0","num_feature":"14","num_nodes":"15","size_leaf_vector":"1"}},{"base_weights":[4.210913E-2,-5.7890767E-1,1.6178931E0,-7.420229E-1,4.2906632E0,1.4104396E0,7.196434E0,-6.444054E-3,1.1874626E-3,1.2950196E-2,3.9927006E-2,5.076336E-3,1.3450573E-2,4.6954237E-2,4.5756856E-3],"categories":[],"categories_nodes":[],"categories_segments":[],"categories_sizes":[],"default_left":[0,0,0,0,0,0,0,0,0,0,0,0,0,0,0],"id":82,"left_children":[1,3,5,7,9,11,13,-1,-1,-1,-1,-1,-1,-1,-1],"loss_changes":[1.3913578E3,8.101397E2,4.4849097E2,2.7534924E2,1.363465E2,1.7083057E2,2.2677368E1,0E0,0E0,0E0,0E0,0E0,0E0,0E0,0E0],"parents":[2147483647,0,0,1,1,2,2,3,3,4,4,5,5,6,6],"right_children":[2,4,6,8,10,12,14,-1,-1,-1,-1,-1,-1,-1,-1],"split_conditions":[1E0,1E0,1E0,2.2857143E1,2.1142857E1,4.928054E0,3.1E1,-6.444054E-3,1.1874626E-3,1.2950196E-2,3.9927006E-2,5.076336E-3,1.3450573E-2,4.6954237E-2,4.5756856E-3],"split_indices":[1,0,0,12,10,9,7,0,0,0,0,0,0,0,0],"split_type":[0,0,0,0,0,0,0,0,0,0,0,0,0,0,0],"sum_hessian":[1.419E3,1.018E3,4.01E2,9.86E2,3.2E1,3.88E2,1.3E1,7.48E2,2.38E2,1.7E1,1.5E1,2.2E2,1.68E2,1.2E1,1E0],"tree_param":{"num_deleted":"0","num_feature":"14","num_nodes":"15","size_leaf_vector":"1"}},{"base_weights":[-3.9329105E-3,-6.602768E-1,1.6270233E0,-8.261202E-1,3.9821873E0,1.4552633E0,6.6598134E0,-1.1328309E-2,-3.365713E-3,1.0153383E-2,3.7531476E-2,6.895915E-3,1.8399738E-2,4.3772306E-2,3.2545496E-3],"categories":[],"categories_nodes":[],"categories_segments":[],"categories_sizes":[],"default_left":[0,0,0,0,0,0,0,0,0,0,0,0,0,0,0],"id":83,"left_children":[1,3,5,7,9,11,13,-1,-1,-1,-1,-1,-1,-1,-1],"loss_changes":[1.5226548E3,7.8261255E2,3.3677197E2,2.7540887E2,1.544627E2,1.9892621E2,2.2944092E1,0E0,0E0,0E0,0E0,0E0,0E0,0E0,0E0],"parents":[2147483647,0,0,1,1,2,2,3,3,4,4,5,5,6,6],"right_children":[2,4,6,8,10,12,14,-1,-1,-1,-1,-1,-1,-1,-1],"split_conditions":[1E0,1E0,1E0,2.0785715E1,2.1142857E1,2.3178572E1,1.1E1,-1.1328309E-2,-3.365713E-3,1.0153383E-2,3.7531476E-2,6.895915E-3,1.8399738E-2,4.3772306E-2,3.2545496E-3],"split_indices":[1,0,0,12,10,12,3,0,0,0,0,0,0,0,0],"split_type":[0,0,0,0,0,0,0,0,0,0,0,0,0,0,0],"sum_hessian":[1.421E3,1.014E3,4.07E2,9.8E2,3.4E1,3.95E2,1.2E1,2.14E2,7.66E2,1.7E1,1.7E1,3.24E2,7.1E1,1.1E1,1E0],"tree_param":{"num_deleted":"0","num_feature":"14","num_nodes":"15","size_leaf_vector":"1"}},{"base_weights":[-1.556184E-2,-1.8525504E-1,5.147495E0,-7.5881106E-1,1.2697818E0,2.9104574E0,7.024258E0,-5.8927983E-3,2.5038875E-3,2.803668E-4,1.0452014E-2,2.9174365E-2,7.679816E-3,-2.5005993E-3,4.593802E-2],"categories":[],"categories_nodes":[],"categories_segments":[],"categories_sizes":[],"default_left":[0,0,0,0,0,0,0,0,0,0,0,0,0,0,0],"id":84,"left_children":[1,3,5,7,9,11,13,-1,-1,-1,-1,-1,-1,-1,-1],"loss_changes":[1.2126104E3,1.122286E3,1.5646692E2,2.164289E2,1.9268616E2,5.5823486E1,7.477185E1,0E0,0E0,0E0,0E0,0E0,0E0,0E0,0E0],"parents":[2147483647,0,0,1,1,2,2,3,3,4,4,5,5,6,6],"right_children":[2,4,6,8,10,12,14,-1,-1,-1,-1,-1,-1,-1,-1],"split_conditions":[1E0,1E0,2.1357143E1,2.3714285E1,2.0785715E1,2.0142857E1,3.76193E0,-5.8927983E-3,2.5038875E-3,2.803668E-4,1.0452014E-2,2.9174365E-2,7.679816E-3,-2.5005993E-3,4.593802E-2],"split_indices":[0,1,10,10,10,10,13,0,0,0,0,0,0,0,0],"split_type":[0,0,0,0,0,0,0,0,0,0,0,0,0,0,0],"sum_hessian":[1.386E3,1.343E3,4.3E1,9.64E2,3.79E2,2.1E1,2.2E1,8.28E2,1.36E2,9.7E1,2.82E2,9E0,1.2E1,1E0,2.1E1],"tree_param":{"num_deleted":"0","num_feature":"14","num_nodes":"15","size_leaf_vector":"1"}},{"base_weights":[9.83654E-3,-5.952815E-1,1.5588893E0,-7.6744133E-1,4.0845385E0,1.3693359E0,5.7984967E0,-1.0610465E-2,-3.4002243E-3,3.1180363E-2,-1.9988876E-3,-5.683321E-3,9.992034E-3,1.6997192E-2,4.5046464E-2],"categories":[],"categories_nodes":[],"categories_segments":[],"categories_sizes":[],"default_left":[0,0,0,0,0,0,0,0,0,0,0,0,0,0,0],"id":85,"left_children":[1,3,5,7,9,11,13,-1,-1,-1,-1,-1,-1,-1,-1],"loss_changes":[1.2877544E3,7.9606824E2,2.9678772E2,1.9433575E2,1.5137073E2,2.0831476E2,4.4127014E1,0E0,0E0,0E0,0E0,0E0,0E0,0E0,0E0],"parents":[2147483647,0,0,1,1,2,2,3,3,4,4,5,5,6,6],"right_children":[2,4,6,8,10,12,14,-1,-1,-1,-1,-1,-1,-1,-1],"split_conditions":[1E0,1E0,1E0,2.0642857E1,5.5291433E0,1.9821428E1,2.2E1,-1.0610465E-2,-3.4002243E-3,3.1180363E-2,-1.9988876E-3,-5.683321E-3,9.992034E-3,1.6997192E-2,4.5046464E-2],"split_indices":[1,0,0,12,9,12,4,0,0,0,0,0,0,0,0],"split_type":[0,0,0,0,0,0,0,0,0,0,0,0,0,0,0],"sum_hessian":[1.371E3,9.86E2,3.85E2,9.52E2,3.4E1,3.7E2,1.5E1,1.77E2,7.75E2,2.8E1,6E0,3.5E1,3.35E2,6E0,9E0],"tree_param":{"num_deleted":"0","num_feature":"14","num_nodes":"15","size_leaf_vector":"1"}},{"base_weights":[3.3504117E-2,-6.068541E-1,1.6281953E0,-7.695357E-1,4.41242E0,1.4435091E0,6.331945E0,-1.0754532E-2,-3.1543928E-3,3.307234E-2,1.472213E-3,1.3177384E-3,1.2007103E-2,1.1454523E-2,4.782238E-2],"categories":[],"categories_nodes":[],"categories_segments":[],"categories_sizes":[],"default_left":[0,0,0,0,0,0,0,0,0,0,0,0,0,0,0],"id":86,"left_children":[1,3,5,7,9,11,13,-1,-1,-1,-1,-1,-1,-1,-1],"loss_changes":[1.4610613E3,8.337732E2,3.4107654E2,2.4632513E2,1.1830359E2,2.3889178E2,7.165735E1,0E0,0E0,0E0,0E0,0E0,0E0,0E0,0E0],"parents":[2147483647,0,0,1,1,2,2,3,3,4,4,5,5,6,6],"right_children":[2,4,6,8,10,12,14,-1,-1,-1,-1,-1,-1,-1,-1],"split_conditions":[1E0,1E0,1E0,2.0785715E1,5.5291433E0,2.1071428E1,2.1071428E1,-1.0754532E-2,-3.1543928E-3,3.307234E-2,1.472213E-3,1.3177384E-3,1.2007103E-2,1.1454523E-2,4.782238E-2],"split_indices":[1,0,0,12,9,10,10,0,0,0,0,0,0,0,0],"split_type":[0,0,0,0,0,0,0,0,0,0,0,0,0,0,0],"sum_hessian":[1.428E3,1.019E3,4.09E2,9.88E2,3.1E1,3.95E2,1.4E1,2.08E2,7.8E2,2.5E1,6E0,1.14E2,2.81E2,4E0,1E1],"tree_param":{"num_deleted":"0",