{"learner":{"attributes":{"best_iteration":"414","best_score":"2.8917925698416576"},"feature_names":["anio","mes","dia","dow","fin_de_semana","feriado","evento_Ano_Nuevo","evento_Viernes_Santo","evento_Sabado_Santo","evento_Dia_del_Trabajador","evento_Dia_del_Pollo_a_la_Brasa","evento_San_Pedro_y_San_Pablo","evento_Fiestas_Patrias_1","evento_Fiestas_Patrias_2","evento_Santa_Rosa_de_Lima","evento_Combate_de_Angamos","evento_Dia_de_Todos_los_Santos","evento_Inmaculada_Concepcion","evento_Navidad","evento_Dia_del_Padre","evento_Dia_del_Ceviche","temp_invierno","temp_otono","temp_primavera","temp_verano","clima_Lluvioso","clima_Nublado","clima_Soleado","lag_1","lag_7","lag_14","lag_28","rolling_mean_7","rolling_std_7","rolling_mean_14","rolling_std_14","rolling_mean_28","rolling_std_28","dow_sin","dow_cos","mes_sin","mes_cos"],"feature_types":["int","int","int","int","int","int","int","int","int","int","int","int","int","int","int","int","int","int","int","int","int","i","i","i","i","i","i","i","float","float","float","float","float","float","float","float","float","float","float","float","float","float"],"gradient_booster":{"model":{"cats":{"enc":[],"feature_segments":[],"sorted_idx":[]},"gbtree_model_param":{"num_parallel_tree":"1","num_trees":"465"},"iteration_indptr":[0,1,2,3,4,5,6,7,8,9,10,11,12,13,14,15,16,17,18,19,20,21,22,23,24,25,26,27,28,29,30,31,32,33,34,35,36,37,38,39,40,41,42,43,44,45,46,47,48,49,50,51,52,53,54,55,56,57,58,59,60,61,62,63,64,65,66,67,68,69,70,71,72,73,74,75,76,77,78,79,80,81,82,83,84,85,86,87,88,89,90,91,92,93,94,95,96,97,98,99,100,101,102,103,104,105,106,107,108,109,110,111,112,113,114,115,116,117,118,119,120,121,122,123,124,125,126,127,128,129,130,131,132,133,134,135,136,137,138,139,140,141,142,143,144,145,146,147,148,149,150,151,152,153,154,155,156,157,158,159,160,161,162,163,164,165,166,167,168,169,170,171,172,173,174,175,176,177,178,179,180,181,182,183,184,185,186,187,188,189,190,191,192,193,194,195,196,197,198,199,200,201,202,203,204,205,206,207,208,209,210,211,212,213,214,215,216,217,218,219,220,221,222,223,224,225,226,227,228,229,230,231,232,233,234,235,236,237,238,239,240,241,242,243,244,245,246,247,248,249,250,251,252,253,254,255,256,257,258,259,260,261,262,263,264,265,266,267,268,269,270,271,272,273,274,275,276,277,278,279,280,281,282,283,284,285,286,287,288,289,290,291,292,293,294,295,296,297,298,299,300,301,302,303,304,305,306,307,308,309,310,311,312,313,314,315,316,317,318,319,320,321,322,323,324,325,326,327,328,329,330,331,332,333,334,335,336,337,338,339,340,341,342,343,344,345,346,347,348,349,350,351,352,353,354,355,356,357,358,359,360,361,362,363,364,365,366,367,368,369,370,371,372,373,374,375,376,377,378,379,380,381,382,383,384,385,386,387,388,389,390,391,392,393,394,395,396,397,398,399,400,401,402,403,404,405,406,407,408,409,410,411,412,413,414,415,416,417,418,419,420,421,422,423,424,425,426,427,428,429,430,431,432,433,434,435,436,437,438,439,440,441,442,443,444,445,446,447,448,449,450,451,452,453,454,455,456,457,458,459,460,461,462,463,464,465],"tree_info":[0,0,0,0,0,0,0,0,0,0,0,0,0,0,0,0,0,0,0,0,0,0,0,0,0,0,0,0,0,0,0,0,0,0,0,0,0,0,0,0,0,0,0,0,0,0,0,0,0,0,0,0,0,0,0,0,0,0,0,0,0,0,0,0,0,0,0,0,0,0,0,0,0,0,0,0,0,0,0,0,0,0,0,0,0,0,0,0,0,0,0,0,0,0,0,0,0,0,0,0,0,0,0,0,0,0,0,0,0,0,0,0,0,0,0,0,0,0,0,0,0,0,0,0,0,0,0,0,0,0,0,0,0,0,0,0,0,0,0,0,0,0,0,0,0,0,0,0,0,0,0,0,0,0,0,0,0,0,0,0,0,0,0,0,0,0,0,0,0,0,0,0,0,0,0,0,0,0,0,0,0,0,0,0,0,0,0,0,0,0,0,0,0,0,0,0,0,0,0,0,0,0,0,0,0,0,0,0,0,0,0,0,0,0,0,0,0,0,0,0,0,0,0,0,0,0,0,0,0,0,0,0,0,0,0,0,0,0,0,0,0,0,0,0,0,0,0,0,0,0,0,0,0,0,0,0,0,0,0,0,0,0,0,0,0,0,0,0,0,0,0,0,0,0,0,0,0,0,0,0,0,0,0,0,0,0,0,0,0,0,0,0,0,0,0,0,0,0,0,0,0,0,0,0,0,0,0,0,0,0,0,0,0,0,0,0,0,0,0,0,0,0,0,0,0,0,0,0,0,0,0,0,0,0,0,0,0,0,0,0,0,0,0,0,0,0,0,0,0,0,0,0,0,0,0,0,0,0,0,0,0,0,0,0,0,0,0,0,0,0,0,0,0,0,0,0,0,0,0,0,0,0,0,0,0,0,0,0,0,0,0,0,0,0,0,0,0,0,0,0,0,0,0,0,0,0,0,0,0,0,0,0,0,0,0,0,0,0,0,0,0,0,0,0,0,0,0,0,0,0,0,0,0,0,0,0,0,0,0,0,0,0,0,0,0,0,0,0,0,0,0,0,0,0,0,0,0,0,0,0,0,0,0,0,0],"trees":[{"base_weights":[-8.21752E-4,-2.909837E-2,7.096563E-2,-4.9110312E-2,2.8553471E-2,4.7103733E-2,1.3509516E-1,-5.4578524E-2,1.19303115E-1,-3.9073385E-2,5.1387023E-2,4.176764E-2,1.9689816E-1,1.1062504E-1,2.1164757E-1,-7.407857E-2,-2.8725633E-2,9.347401E-2,2.5403962E-1,-6.0976345E-2,3.5716053E-2,6.312791E-2,-6.837725E-2,7.49026E-2,1.1958976E-2,2.7451828E-1,1.17343836E-1,1.5958104E-1,8.252595E-2,3.235943E-1,1.5491778E-1,-9.915162E-4,-5.6189444E-4,-3.1172985E-4,2.718478E-3,1.7456939E-3,8.1428274E-4,3.4967056E-3,5.673153E-4,-1.8459467E-4,-1.0549411E-3,1.2716723E-3,-1.0411533E-4,7.684791E-4,-1.6573345E-4,-1.2455466E-3,1.3654354E-3,-1.1846864E-4,8.796114E-4,5.128892E-4,-2.4208875E-4,3.8858189E-3,1.551137E-3,7.7290967E-4,1.551137E-3,6.516574E-4,1.9084023E-3,4.0025045E-3,7.439704E-4,4.080376E-3,2.8686996E-3,1.318421E-3,4.384192E-3],"categories":[],"categories_nodes":[],"categories_segments":[],"categories_sizes":[],"default_left":[0,0,0,0,0,0,0,0,0,0,0,0,0,0,0,0,0,0,0,0,0,0,0,0,0,0,0,0,0,0,0,0,0,0,0,0,0,0,0,0,0,0,0,0,0,0,0,0,0,0,0,0,0,0,0,0,0,0,0,0,0,0,0],"id":0,"left_children":[1,3,5,7,9,11,13,15,17,19,21,23,25,27,29,31,33,35,37,39,41,43,45,47,49,51,53,55,57,59,61,-1,-1,-1,-1,-1,-1,-1,-1,-1,-1,-1,-1,-1,-1,-1,-1,-1,-1,-1,-1,-1,-1,-1,-1,-1,-1,-1,-1,-1,-1,-1,-1],"loss_changes":[5.811326E1,2.369723E1,1.2373413E1,1.4047462E1,8.17507E0,4.705882E0,4.0852737E0,7.4428406E0,1.6459813E0,2.1916263E0,5.568844E0,5.625165E0,1.2188182E0,2.276081E0,3.3169441E0,3.770012E0,4.6805115E0,3.8062E-1,1.4254766E0,1.955497E0,1.2811646E0,3.9428186E0,4.0898333E0,3.0566454E0,4.2682996E0,1.3261824E0,1.4200997E-1,1.7754517E0,2.7063289E0,4.3307304E-1,2.2567015E0,0E0,0E0,0E0,0E0,0E0,0E0,0E0,0E0,0E0,0E0,0E0,0E0,0E0,0E0,0E0,0E0,0E0,0E0,0E0,0E0,0E0,0E0,0E0,0E0,0E0,0E0,0E0,0E0,0E0,0E0,0E0,0E0],"parents":[2147483647,0,0,1,1,2,2,3,3,4,4,5,5,6,6,7,7,8,8,9,9,10,10,11,11,12,12,13,13,14,14,15,15,16,16,17,17,18,18,19,19,20,20,21,21,22,22,23,23,24,24,25,25,26,26,27,27,28,28,29,29,30,30],"right_children":[2,4,6,8,10,12,14,16,18,20,22,24,26,28,30,32,34,36,38,40,42,44,46,48,50,52,54,56,58,60,62,-1,-1,-1,-1,-1,-1,-1,-1,-1,-1,-1,-1,-1,-1,-1,-1,-1,-1,-1,-1,-1,-1,-1,-1,-1,-1,-1,-1,-1,-1,-1,-1],"split_conditions":[5E0,1E0,1E0,1E0,2.022E3,1E0,2.024E3,3.708991E0,1.3428572E1,3.7004218E0,4.716699E0,5E-1,6E0,1.2E1,3.6472178E0,2.023E3,1E0,9E0,2.023E3,1.2E1,3.7759683E0,1.6142857E1,2.9E1,1.0714286E1,6E0,1E0,2.023E3,1.2E1,1E1,8E0,1E0,-9.915162E-4,-5.6189444E-4,-3.1172985E-4,2.718478E-3,1.7456939E-3,8.1428274E-4,3.4967056E-3,5.673153E-4,-1.8459467E-4,-1.0549411E-3,1.2716723E-3,-1.0411533E-4,7.684791E-4,-1.6573345E-4,-1.2455466E-3,1.3654354E-3,-1.1846864E-4,8.796114E-4,5.128892E-4,-2.4208875E-4,3.8858189E-3,1.551137E-3,7.7290967E-4,1.551137E-3,6.516574E-4,1.9084023E-3,4.0025045E-3,7.439704E-4,4.080376E-3,2.8686996E-3,1.318421E-3,4.384192E-3],"split_indices":[3,21,21,5,0,5,0,37,32,37,35,41,3,2,35,0,19,31,0,29,37,32,2,32,3,22,0,30,31,2,12,0,0,0,0,0,0,0,0,0,0,0,0,0,0,0,0,0,0,0,0,0,0,0,0,0,0,0,0,0,0,0,0],"split_type":[0,0,0,0,0,0,0,0,0,0,0,0,0,0,0,0,0,0,0,0,0,0,0,0,0,0,0,0,0,0,0,0,0,0,0,0,0,0,0,0,0,0,0,0,0,0,0,0,0,0,0,0,0,0,0,0,0,0,0,0,0,0,0],"sum_hessian":[2.8626553E4,2.0537535E4,8.089017E3,1.5245655E4,5.2918804E3,5.8966665E3,2.1923503E3,1.4766866E4,4.7878918E2,1.3355698E3,3.9563105E3,5.6950713E3,2.0159544E2,1.6631624E3,5.2918805E2,8.416609E3,6.3502563E3,4.031909E2,7.559829E1,1.0331766E3,3.0239316E2,3.6035186E3,3.5279202E2,2.696339E3,2.9987322E3,1.0079772E2,1.0079772E2,6.047863E2,1.0583761E3,1.7639601E2,3.5279202E2,3.502721E3,4.913889E3,6.2998574E3,5.039886E1,5.039886E1,3.5279202E2,5.039886E1,2.519943E1,5.2918805E2,5.0398862E2,1.0079772E2,2.0159544E2,3.0743306E3,5.2918805E2,2.7719373E2,7.559829E1,3.5279202E2,2.343547E3,1.4363676E3,1.5623647E3,5.039886E1,5.039886E1,5.039886E1,5.039886E1,1.5119658E2,4.5358975E2,2.519943E1,1.0331766E3,5.039886E1,1.25997154E2,3.275926E2,2.519943E1],"tree_param":{"num_deleted":"0","num_feature":"42","num_nodes":"63","size_leaf_vector":"1"}},{"base_weights":[1.8708756E-3,-2.3451844E-2,6.26882E-2,4.172938E-2,-4.4507567E-2,3.756583E-2,1.1852337E-1,7.915205E-3,1.1845118E-1,-4.872439E-2,1.1880477E-1,2.8262997E-2,1.3356186E-1,1.1050243E-1,3.1174073E-1,-6.61295E-2,3.1149834E-2,1.8336034E-1,3.5880126E-2,-6.331289E-2,-1.8313421E-2,7.269999E-2,2.4346624E-1,5.5538636E-2,2.760393E-3,1.6771981E-1,-5.9662726E-2,1.4164986E-1,8.051146E-2,4.625078E-3,1.5445505E-1,-2.9769333E-4,-1.950493E-3,-6.414634E-4,4.0390555E-4,1.1582321E-3,2.866176E-3,8.8349904E-4,-4.8091728E-4,-1.01163E-3,-5.2419596E-4,-4.6757972E-4,2.3059487E-4,1.3648005E-3,3.5689492E-4,1.7457578E-3,4.3527964E-3,-9.722567E-5,7.393931E-4,-3.0072927E-4,3.620381E-4,6.806918E-4,2.5561105E-3,-1.7590959E-3,1.706731E-3,2.193421E-3,1.1832595E-3,6.4123614E-4,1.5455293E-3,2.470431E-3,5.6030264E-4],"categories":[],"categories_nodes":[],"categories_segments":[],"categories_sizes":[],"default_left":[0,0,0,0,0,0,0,0,0,0,0,0,0,0,0,0,0,0,0,0,0,0,0,0,0,0,0,0,0,0,0,0,0,0,0,0,0,0,0,0,0,0,0,0,0,0,0,0,0,0,0,0,0,0,0,0,0,0,0,0,0],"id":1,"left_children":[1,3,5,7,9,11,13,15,17,19,21,23,25,27,29,31,33,35,37,39,41,43,45,47,49,51,53,55,57,-1,59,-1,-1,-1,-1,-1,-1,-1,-1,-1,-1,-1,-1,-1,-1,-1,-1,-1,-1,-1,-1,-1,-1,-1,-1,-1,-1,-1,-1,-1,-1],"loss_changes":[4.3468346E1,2.735149E1,1.1634357E1,1.2623128E1,1.0378838E1,5.1079836E0,3.9552155E0,5.8145776E0,7.971344E0,6.513508E0,2.1630626E0,3.630599E0,3.3459368E0,2.2989902E0,2.348731E0,3.7783356E0,2.267778E0,5.7769356E0,2.896224E0,4.0862007E0,5.6050787E0,6.5233266E-1,1.2720528E0,3.0293498E0,2.9642262E0,3.7466822E0,2.0827863E0,2.170164E0,1.5217962E0,0E0,4.5502758E-1,0E0,0E0,0E0,0E0,0E0,0E0,0E0,0E0,0E0,0E0,0E0,0E0,0E0,0E0,0E0,0E0,0E0,0E0,0E0,0E0,0E0,0E0,0E0,0E0,0E0,0E0,0E0,0E0,0E0,0E0],"parents":[2147483647,0,0,1,1,2,2,3,3,4,4,5,5,6,6,7,7,8,8,9,9,10,10,11,11,12,12,13,13,14,14,15,15,16,16,17,17,18,18,19,19,20,20,21,21,22,22,23,23,24,24,25,25,26,26,27,27,28,28,30,30],"right_children":[2,4,6,8,10,12,14,16,18,20,22,24,26,28,30,32,34,36,38,40,42,44,46,48,50,52,54,56,58,-1,60,-1,-1,-1,-1,-1,-1,-1,-1,-1,-1,-1,-1,-1,-1,-1,-1,-1,-1,-1,-1,-1,-1,-1,-1,-1,-1,-1,-1,-1,-1],"split_conditions":[5E0,-5E-1,1.3142858E1,1.4178572E1,1E0,1E0,1E0,3.4526272E0,1.4928572E1,3.936306E0,1.25E1,2.023E3,4.358747E0,1.6E1,2.9E1,1.7E1,1.1142858E1,8E0,3.7306275E0,2.022E3,1E0,1.1142858E1,6E0,1.0714286E1,3.4216475E0,1.2142858E1,6E0,3.6462274E0,1.4785714E1,4.625078E-3,2.024E3,-2.9769333E-4,-1.950493E-3,-6.414634E-4,4.0390555E-4,1.1582321E-3,2.866176E-3,8.8349904E-4,-4.8091728E-4,-1.01163E-3,-5.2419596E-4,-4.6757972E-4,2.3059487E-4,1.3648005E-3,3.5689492E-4,1.7457578E-3,4.3527964E-3,-9.722567E-5,7.393931E-4,-3.0072927E-4,3.620381E-4,6.806918E-4,2.5561105E-3,-1.7590959E-3,1.706731E-3,2.193421E-3,1.1832595E-3,6.4123614E-4,1.5455293E-3,2.470431E-3,5.6030264E-4],"split_indices":[3,41,36,36,5,40,5,37,36,35,34,0,37,29,2,2,32,1,35,0,22,32,1,36,37,32,3,37,36,0,0,0,0,0,0,0,0,0,0,0,0,0,0,0,0,0,0,0,0,0,0,0,0,0,0,0,0,0,0,0,0],"split_type":[0,0,0,0,0,0,0,0,0,0,0,0,0,0,0,0,0,0,0,0,0,0,0,0,0,0,0,0,0,0,0,0,0,0,0,0,0,0,0,0,0,0,0,0,0,0,0,0,0,0,0,0,0,0,0,0,0,0,0,0,0],"sum_hessian":[2.822314E4,1.9926775E4,8.296366E3,4.865107E3,1.5061668E4,5.7230293E3,2.5733364E3,3.3775828E3,1.4875242E3,1.4683239E4,3.7842862E2,5.218597E3,5.044321E2,2.4722778E3,1.01058556E2,8.0627594E2,2.571307E3,8.3214984E2,6.5537427E2,9.922311E3,4.7609287E3,2.774133E2,1.0101531E2,2.5210725E3,2.6975247E3,4.287673E2,7.566482E1,1.2109304E3,1.2613474E3,5.0607697E1,5.045086E1,6.298623E2,1.7641362E2,2.2676993E2,2.3445369E3,5.0437607E2,3.277738E2,4.0331247E2,2.520618E2,2.215609E3,7.7067017E3,2.8211865E3,1.9397423E3,1.0087983E2,1.7653348E2,7.5727615E1,2.5287699E1,5.545911E2,1.9664816E3,1.3612289E3,1.3362958E3,2.0177284E2,2.2699445E2,5.044321E1,2.5221605E1,2.776548E2,9.3327563E2,1.0342905E3,2.2705695E2,2.5218184E1,2.5232677E1],"tree_param":{"num_deleted":"0","num_feature":"42","num_nodes":"61","size_leaf_vector":"1"}},{"base_weights":[-3.625376E-4,-2.6818741E-2,6.665554E-2,2.5603486E-2,-4.5206215E-2,1.0228487E-1,1.2116147E-2,2.2757929E-2,5.923316E-3,-4.895631E-2,8.958607E-2,7.3265806E-2,1.32159E-1,1.6549413E-1,2.9647686E-3,-7.656429E-3,8.0906354E-2,-6.922236E-2,-2.2750635E-2,1.5578403E-1,2.2935413E-2,8.031394E-2,-8.970907E-2,1.24127135E-1,3.0928403E-1,9.793996E-2,3.2891717E-3,-2.1096457E-2,4.1981254E-2,-6.4259797E-4,1.11998444E-4,1.3367954E-3,1.2597773E-4,-7.7056314E-4,-3.0598635E-4,-2.5140616E-4,2.696289E-3,1.1396632E-3,4.3138554E-3,-8.202151E-5,1.1466607E-3,5.8012323E-5,9.816426E-4,-1.1716064E-5,-1.7640615E-3,2.8306355E-3,1.1661227E-3,4.5816754E-3,1.5348821E-3,5.813019E-4,1.5539551E-3,-1.3439258E-3,-5.0996972E-5,-1.8504006E-4,9.481983E-4],"categories":[],"categories_nodes":[],"categories_segments":[],"categories_sizes":[],"default_left":[0,0,0,0,0,0,0,0,0,0,0,0,0,0,0,0,0,0,0,0,0,0,0,0,0,0,0,0,0,0,0,0,0,0,0,0,0,0,0,0,0,0,0,0,0,0,0,0,0,0,0,0,0,0,0],"id":2,"left_children":[1,3,5,7,9,11,13,15,-1,17,19,21,23,25,27,29,31,33,35,37,39,41,43,45,47,49,-1,51,53,-1,-1,-1,-1,-1,-1,-1,-1,-1,-1,-1,-1,-1,-1,-1,-1,-1,-1,-1,-1,-1,-1,-1,-1,-1,-1],"loss_changes":[4.9955227E1,1.9472626E1,1.5494595E1,8.446812E0,7.564028E0,4.171673E0,4.423912E0,9.234222E0,0E0,7.726307E0,1.784075E0,2.820157E0,3.3409157E0,1.9269943E0,2.7943993E0,3.6605008E0,6.4621687E0,2.480278E0,4.4420457E0,2.2915754E0,5.809494E-1,3.122304E0,7.8264916E-1,2.683014E0,2.304183E0,2.8142202E-1,0E0,3.3363535E0,3.6304913E0,0E0,0E0,0E0,0E0,0E0,0E0,0E0,0E0,0E0,0E0,0E0,0E0,0E0,0E0,0E0,0E0,0E0,0E0,0E0,0E0,0E0,0E0,0E0,0E0,0E0,0E0],"parents":[2147483647,0,0,1,1,2,2,3,3,4,4,5,5,6,6,7,7,9,9,10,10,11,11,12,12,13,13,14,14,15,15,16,16,17,17,18,18,19,19,20,20,21,21,22,22,23,23,24,24,25,25,27,27,28,28],"right_children":[2,4,6,8,10,12,14,16,-1,18,20,22,24,26,28,30,32,34,36,38,40,42,44,46,48,50,-1,52,54,-1,-1,-1,-1,-1,-1,-1,-1,-1,-1,-1,-1,-1,-1,-1,-1,-1,-1,-1,-1,-1,-1,-1,-1,-1,-1],"split_conditions":[5E0,-5E-1,5E-1,1E0,1E0,1.3035714E1,1.976047E0,1.4178572E1,5.923316E-3,3.708991E0,3.2783003E0,1.4428572E1,1E0,1.5E1,1E0,3.4526272E0,1.4928572E1,1.2857142E1,1E0,1.4E1,1.5E1,1.0714286E1,1.2E1,1.1E1,2.9E1,6E0,3.2891717E-3,1.0535714E1,3.4129682E0,-6.4259797E-4,1.11998444E-4,1.3367954E-3,1.2597773E-4,-7.7056314E-4,-3.0598635E-4,-2.5140616E-4,2.696289E-3,1.1396632E-3,4.3138554E-3,-8.202151E-5,1.1466607E-3,5.8012323E-5,9.816426E-4,-1.1716064E-5,-1.7640615E-3,2.8306355E-3,1.1661227E-3,4.5816754E-3,1.5348821E-3,5.813019E-4,1.5539551E-3,-1.3439258E-3,-5.0996972E-5,-1.8504006E-4,9.481983E-4],"split_indices":[3,41,41,20,5,36,33,36,0,37,35,32,5,2,26,37,36,32,19,28,29,32,2,32,2,2,0,36,35,0,0,0,0,0,0,0,0,0,0,0,0,0,0,0,0,0,0,0,0,0,0,0,0,0,0],"split_type":[0,0,0,0,0,0,0,0,0,0,0,0,0,0,0,0,0,0,0,0,0,0,0,0,0,0,0,0,0,0,0,0,0,0,0,0,0,0,0,0,0,0,0,0,0,0,0,0,0,0,0,0,0,0,0],"sum_hessian":[2.8172832E4,2.0199451E4,7.9733804E3,5.2451807E3,1.4954271E4,4.8222437E3,3.151137E3,5.2200107E3,2.516966E1,1.4550105E4,4.041658E2,2.4478794E3,2.3743643E3,1.76466E2,2.974671E3,3.4279172E3,1.7920936E3,8.203962E3,6.3461436E3,2.0210059E2,2.0206522E2,2.346891E3,1.00988235E2,2.2729944E3,1.0136968E2,1.2598634E2,5.047966E1,1.8402559E3,1.1344152E3,8.5598535E2,2.5719321E3,1.0104741E3,7.816195E2,6.819737E3,1.3842255E3,6.2955957E3,5.0547707E1,1.7670258E2,2.5398012E1,1.5153719E2,5.052804E1,4.538223E2,1.8930688E3,5.0465244E1,5.052299E1,1.009646E2,2.1720298E3,5.08423E1,5.052738E1,7.5609695E1,5.0376644E1,2.267699E2,1.613486E3,5.292374E2,6.051777E2],"tree_param":{"num_deleted":"0","num_feature":"42","num_nodes":"55","size_leaf_vector":"1"}},{"base_weights":[-2.8070025E-4,-2.5920473E-2,6.324678E-2,-4.6284184E-2,3.271675E-2,3.5299845E-2,1.2553445E-1,-5.156638E-2,1.0831091E-1,-5.068315E-2,6.063333E-2,3.077903E-2,2.0096119E-1,2.0040768E-1,1.0716904E-1,-9.438745E-2,-4.1177604E-2,5.719958E-2,1.7018357E-1,-1.7735218E-1,-3.735728E-2,5.7128195E-2,5.8614505E-3,6.494774E-2,3.7123489E-3,1.5118836E-1,4.3416875E-3,2.2499947E-1,-2.1336235E-2,1.0298277E-1,4.2627295E-3,-4.4821695E-4,-1.1978527E-3,-8.391499E-6,-6.212037E-4,8.3544484E-4,-6.053526E-4,1.1900604E-3,3.4250775E-3,-3.2462648E-3,-1.3774358E-3,-1.2951078E-4,-9.6409064E-4,2.2960307E-4,1.0172214E-3,7.298257E-4,-8.3971885E-4,-3.6931335E-4,3.4043737E-4,1.9389234E-3,-2.0628968E-4,5.6144595E-4,2.5850593E-3,-9.6925534E-4,5.5015663E-4,1.589335E-3,7.9324923E-4],"categories":[],"categories_nodes":[],"categories_segments":[],"categories_sizes":[],"default_left":[0,0,0,0,0,0,0,0,0,0,0,0,0,0,0,0,0,0,0,0,0,0,0,0,0,0,0,0,0,0,0,0,0,0,0,0,0,0,0,0,0,0,0,0,0,0,0,0,0,0,0,0,0,0,0,0,0],"id":3,"left_children":[1,3,5,7,9,11,13,15,17,19,21,23,25,27,29,31,33,35,37,39,41,43,-1,45,47,49,-1,51,53,55,-1,-1,-1,-1,-1,-1,-1,-1,-1,-1,-1,-1,-1,-1,-1,-1,-1,-1,-1,-1,-1,-1,-1,-1,-1,-1,-1],"loss_changes":[4.7207077E1,2.4657242E1,1.4502525E1,1.2521156E1,1.239639E1,4.3031673E0,3.5271568E0,6.5892296E0,1.592629E0,2.2476435E0,7.3133907E0,5.1810327E0,1.7064958E0,2.770462E0,2.727354E0,3.636322E0,1.0077436E1,8.7038285E-1,1.9762602E0,6.95277E-1,1.742108E0,6.0363703E0,0E0,2.9690695E0,3.8563206E0,9.384327E-1,0E0,2.5689697E0,3.02817E-1,2.6995583E0,0E0,0E0,0E0,0E0,0E0,0E0,0E0,0E0,0E0,0E0,0E0,0E0,0E0,0E0,0E0,0E0,0E0,0E0,0E0,0E0,0E0,0E0,0E0,0E0,0E0,0E0,0E0],"parents":[2147483647,0,0,1,1,2,2,3,3,4,4,5,5,6,6,7,7,8,8,9,9,10,10,11,11,12,12,13,13,14,14,15,15,16,16,17,17,18,18,19,19,20,20,21,21,23,23,24,24,25,25,27,27,28,28,29,29],"right_children":[2,4,6,8,10,12,14,16,18,20,22,24,26,28,30,32,34,36,38,40,42,44,-1,46,48,50,-1,52,54,56,-1,-1,-1,-1,-1,-1,-1,-1,-1,-1,-1,-1,-1,-1,-1,-1,-1,-1,-1,-1,-1,-1,-1,-1,-1,-1,-1],"split_conditions":[5E0,1E0,1.3142858E1,1E0,2.022E3,1E0,2.7688746E0,1.1214286E1,1E0,9E0,1E0,5E-1,1.1E1,4.157609E0,1E0,9E0,1.1E1,1.4E1,1.3142858E1,8E0,1.2464286E1,1.4178572E1,5.8614505E-3,1.4571428E1,1.3E1,6E0,4.3416875E-3,1.2142858E1,2.023E3,1.3E1,4.2627295E-3,-4.4821695E-4,-1.1978527E-3,-8.391499E-6,-6.212037E-4,8.3544484E-4,-6.053526E-4,1.1900604E-3,3.4250775E-3,-3.2462648E-3,-1.3774358E-3,-1.2951078E-4,-9.6409064E-4,2.2960307E-4,1.0172214E-3,7.298257E-4,-8.3971885E-4,-3.6931335E-4,3.4043737E-4,1.9389234E-3,-2.0628968E-4,5.6144595E-4,2.5850593E-3,-9.6925534E-4,5.5015663E-4,1.589335E-3,7.9324923E-4],"split_indices":[3,21,36,5,0,5,33,36,26,31,20,41,1,37,12,30,31,28,32,2,36,36,0,32,31,1,0,32,0,28,0,0,0,0,0,0,0,0,0,0,0,0,0,0,0,0,0,0,0,0,0,0,0,0,0,0,0],"split_type":[0,0,0,0,0,0,0,0,0,0,0,0,0,0,0,0,0,0,0,0,0,0,0,0,0,0,0,0,0,0,0,0,0,0,0,0,0,0,0,0,0,0,0,0,0,0,0,0,0,0,0,0,0,0,0,0,0],"sum_hessian":[2.8980188E4,2.0647445E4,8.332743E3,1.5325404E4,5.3220415E3,5.7530557E3,2.5796875E3,1.4819711E4,5.0569287E2,1.3344872E3,3.9875542E3,5.6013823E3,1.5167311E2,5.0617383E2,2.0735137E3,2.8918464E3,1.1927864E4,2.7798303E2,2.2770982E2,1.2585584E2,1.2086313E3,3.9622349E3,2.5319191E1,2.4752507E3,3.1261318E3,1.26354034E2,2.5319075E1,4.556291E2,5.0544735E1,2.0479695E3,2.5544256E1,9.807006E2,1.9111459E3,4.076685E3,7.8511797E3,2.273913E2,5.0591755E1,1.7687221E2,5.083762E1,2.51492E1,1.0070664E2,8.5604565E2,3.525857E2,2.2442246E3,1.7180103E3,2.3490212E3,1.2622948E2,1.3358678E3,1.7902639E3,1.0109829E2,2.5255741E1,7.58849E1,3.7974417E2,2.5263805E1,2.528093E1,6.069103E2,1.4410592E3],"tree_param":{"num_deleted":"0","num_feature":"42","num_nodes":"57","size_leaf_vector":"1"}},{"base_weights":[1.6299075E-3,-2.4066746E-2,6.6310376E-2,-4.746226E-2,4.00395E-2,9.71191E-2,1.703873E-2,-7.2126426E-2,-1.6943816E-2,3.738525E-2,5.8005624E-3,-7.7042906E-3,1.03935555E-1,7.8413084E-2,2.1370908E-3,-7.6305486E-2,7.4336894E-2,-1.871473E-2,4.2450065E-3,-5.7393266E-3,6.860292E-2,2.3222832E-1,-5.640774E-2,2.9937515E-1,1.00616336E-1,2.1527702E-1,3.236179E-2,2.7265804E-2,-4.8119288E-2,1.6509481E-4,-7.932129E-4,1.3466506E-3,-1.7744855E-5,-1.0055266E-3,-1.1235193E-4,-4.530504E-4,5.922412E-4,8.2636985E-4,-9.145716E-4,2.846849E-3,1.7087051E-3,-1.1272408E-3,2.8358446E-4,4.62019E-3,2.0984702E-3,7.859285E-4,1.2597246E-3,1.1685594E-3,4.0567173E-3,2.1296407E-3,9.30121E-5,-1.5813412E-4,7.2945055E-4,1.4572354E-3,-7.506176E-4],"categories":[],"categories_nodes":[],"categories_segments":[],"categories_sizes":[],"default_left":[0,0,0,0,0,0,0,0,0,0,0,0,0,0,0,0,0,0,0,0,0,0,0,0,0,0,0,0,0,0,0,0,0,0,0,0,0,0,0,0,0,0,0,0,0,0,0,0,0,0,0,0,0,0,0],"id":4,"left_children":[1,3,5,7,9,11,13,15,17,19,-1,21,23,25,27,29,31,33,-1,35,37,39,41,43,45,47,49,51,53,-1,-1,-1,-1,-1,-1,-1,-1,-1,-1,-1,-1,-1,-1,-1,-1,-1,-1,-1,-1,-1,-1,-1,-1,-1,-1],"loss_changes":[4.712165E1,3.0433113E1,1.2234901E1,1.118832E1,7.754999E0,3.5444984E0,2.8372731E0,5.037594E0,5.203192E0,7.270281E0,0E0,3.5625596E0,2.9907684E0,3.8130267E0,3.1551914E0,2.2387924E0,1.0497622E0,4.0510283E0,0E0,5.833531E0,7.0442514E0,1.169498E-1,1.2123764E0,1.0280576E0,2.5479965E0,2.8086276E0,1.8916277E0,3.278654E0,4.360489E0,0E0,0E0,0E0,0E0,0E0,0E0,0E0,0E0,0E0,0E0,0E0,0E0,0E0,0E0,0E0,0E0,0E0,0E0,0E0,0E0,0E0,0E0,0E0,0E0,0E0,0E0],"parents":[2147483647,0,0,1,1,2,2,3,3,4,4,5,5,6,6,7,7,8,8,9,9,11,11,12,12,13,13,14,14,15,15,16,16,17,17,19,19,20,20,21,21,22,22,23,23,24,24,25,25,26,26,27,27,28,28],"right_children":[2,4,6,8,10,12,14,16,18,20,-1,22,24,26,28,30,32,34,-1,36,38,40,42,44,46,48,50,52,54,-1,-1,-1,-1,-1,-1,-1,-1,-1,-1,-1,-1,-1,-1,-1,-1,-1,-1,-1,-1,-1,-1,-1,-1,-1,-1],"split_conditions":[5E0,1E0,5E-1,3.6853778E0,1E0,1.0428572E1,2.5071328E0,1E0,1E0,1.3571428E1,5.8005624E-3,3E0,2.345208E0,1.1E1,1E0,2.169975E0,1.1142858E1,3.1796052E0,4.2450065E-3,3.708991E0,4.8334913E0,6E0,3.047247E0,9E0,1E0,1.1285714E1,9E0,1.3E1,2E0,1.6509481E-4,-7.932129E-4,1.3466506E-3,-1.7744855E-5,-1.0055266E-3,-1.1235193E-4,-4.530504E-4,5.922412E-4,8.2636985E-4,-9.145716E-4,2.846849E-3,1.7087051E-3,-1.1272408E-3,2.8358446E-4,4.62019E-3,2.0984702E-3,7.859285E-4,1.2597246E-3,1.1685594E-3,4.0567173E-3,2.1296407E-3,9.30121E-5,-1.5813412E-4,7.2945055E-4,1.4572354E-3,-7.506176E-4],"split_indices":[3,21,41,37,20,32,33,5,16,32,0,2,35,30,25,35,32,35,0,37,35,1,33,2,21,32,28,31,1,0,0,0,0,0,0,0,0,0,0,0,0,0,0,0,0,0,0,0,0,0,0,0,0,0,0],"split_type":[0,0,0,0,0,0,0,0,0,0,0,0,0,0,0,0,0,0,0,0,0,0,0,0,0,0,0,0,0,0,0,0,0,0,0,0,0,0,0,0,0,0,0,0,0,0,0,0,0,0,0,0,0,0,0],"sum_hessian":[2.8349193E4,2.0289203E4,8.0599907E3,1.486463E4,5.4245723E3,4.958533E3,3.1014573E3,8.220048E3,6.644582E3,5.3991045E3,2.5468035E1,3.0274792E2,4.655785E3,6.0508276E2,2.4963745E3,7.9924766E3,2.275716E2,6.6189863E3,2.5595331E1,2.2675256E3,3.1315789E3,5.04488E1,2.5229912E2,7.626086E1,4.5795244E3,1.5141232E2,4.536704E2,1.6645432E3,8.318315E2,2.5138336E2,7.741093E3,1.2651927E2,1.0105231E2,5.5323865E2,6.065748E3,1.4094242E3,8.581013E2,2.8795808E3,2.5199796E2,2.5234951E1,2.5213848E1,1.5138994E2,1.0090918E2,2.5597612E1,5.0663246E1,2.4530164E3,2.126508E3,1.00878685E2,5.0533638E1,5.0436287E1,4.0323413E2,8.5698816E2,8.07555E2,1.0097055E2,7.308609E2],"tree_param":{"num_deleted":"0","num_feature":"42","num_nodes":"55","size_leaf_vector":"1"}},{"base_weights":[-1.6303984E-3,6.1004035E-2,-2.3567691E-2,-7.891015E-3,8.565197E-2,-4.6224892E-2,3.5423096E-2,-2.3629375E-2,1.5277003E-1,5.561792E-2,1.2576729E-1,-4.7745652E-2,2.5913888E-1,-2.5340474E-1,3.7916977E-2,-5.2967954E-2,2.2299327E-2,5.8004033E-2,2.7617356E-1,5.1232E-2,5.7406323E-3,2.4065776E-1,1.1494609E-1,-6.2383633E-2,-2.2957116E-2,1.7065412E-1,4.20745E-3,-2.863737E-3,-2.1089474E-3,3.6156084E-2,4.3043005E-3,4.2479904E-5,-8.2527765E-4,-6.9393386E-4,3.7632664E-4,1.1008107E-3,-9.6384046E-4,3.643694E-3,9.242363E-4,7.7176205E-4,-6.0501527E-5,1.1130528E-3,2.8280108E-3,-2.7752583E-4,1.2562277E-3,-9.972283E-4,-5.2686204E-4,-4.8600647E-4,8.385379E-5,1.2974624E-3,2.0505188E-3,3.9376246E-4,-1.4797412E-3],"categories":[],"categories_nodes":[],"categories_segments":[],"categories_sizes":[],"default_left":[0,0,0,0,0,0,0,0,0,0,0,0,0,0,0,0,0,0,0,0,0,0,0,0,0,0,0,0,0,0,0,0,0,0,0,0,0,0,0,0,0,0,0,0,0,0,0,0,0,0,0,0,0],"id":5,"left_children":[1,3,5,7,9,11,13,15,17,19,21,23,25,27,29,31,33,35,37,39,-1,41,43,45,47,49,-1,-1,-1,51,-1,-1,-1,-1,-1,-1,-1,-1,-1,-1,-1,-1,-1,-1,-1,-1,-1,-1,-1,-1,-1,-1,-1],"loss_changes":[4.002821E1,1.2832745E1,2.8838451E1,5.0405555E0,6.698574E0,7.2514915E0,4.3225465E0,2.447095E0,2.0639977E0,7.2117233E0,2.9338684E0,5.627243E0,1.0350604E0,1.1626959E-2,4.088134E0,1.8741822E0,9.983703E-1,8.2966053E-1,1.2140627E0,4.6950274E0,0E0,1.0813313E0,3.323227E0,3.5260239E0,4.6305823E0,4.6144962E-2,0E0,0E0,0E0,3.511145E0,0E0,0E0,0E0,0E0,0E0,0E0,0E0,0E0,0E0,0E0,0E0,0E0,0E0,0E0,0E0,0E0,0E0,0E0,0E0,0E0,0E0,0E0,0E0],"parents":[2147483647,0,0,1,1,2,2,3,3,4,4,5,5,6,6,7,7,8,8,9,9,10,10,11,11,12,12,13,13,14,14,15,15,16,16,17,17,18,18,19,19,21,21,22,22,23,23,24,24,25,25,29,29],"right_children":[2,4,6,8,10,12,14,16,18,20,22,24,26,28,30,32,34,36,38,40,-1,42,44,46,48,50,-1,-1,-1,52,-1,-1,-1,-1,-1,-1,-1,-1,-1,-1,-1,-1,-1,-1,-1,-1,-1,-1,-1,-1,-1,-1,-1],"split_conditions":[-5E-1,2.022E3,5E0,1.7E1,4E0,1E0,6E0,4E0,1.4E1,1E0,2.309401E0,1E0,1.4E1,4E0,1E0,1.2071428E1,1.1E1,1.5E1,2E1,1E0,5.7406323E-3,-7.818315E-1,1.1E1,2.022E3,3.804759E0,2.022E3,4.20745E-3,-2.863737E-3,-2.1089474E-3,3.1E1,4.3043005E-3,4.2479904E-5,-8.2527765E-4,-6.9393386E-4,3.7632664E-4,1.1008107E-3,-9.6384046E-4,3.643694E-3,9.242363E-4,7.7176205E-4,-6.0501527E-5,1.1130528E-3,2.8280108E-3,-2.7752583E-4,1.2562277E-3,-9.972283E-4,-5.2686204E-4,-4.8600647E-4,8.385379E-5,1.2974624E-3,2.0505188E-3,3.9376246E-4,-1.4797412E-3],"split_indices":[41,0,3,31,3,16,31,3,28,20,33,22,28,1,18,34,31,30,28,25,0,38,30,0,33,0,0,0,0,2,0,0,0,0,0,0,0,0,0,0,0,0,0,0,0,0,0,0,0,0,0,0,0],"split_type":[0,0,0,0,0,0,0,0,0,0,0,0,0,0,0,0,0,0,0,0,0,0,0,0,0,0,0,0,0,0,0,0,0,0,0,0,0,0,0,0,0,0,0,0,0,0,0,0,0,0,0,0,0],"sum_hessian":[2.9129932E4,7.555631E3,2.15743E4,1.991036E3,5.5645947E3,1.5587619E4,5.986681E3,1.8141726E3,1.7686346E2,3.18351E3,2.3810847E3,1.5511215E4,7.640468E1,5.03881E1,5.936293E3,1.1069292E3,7.072434E2,1.0087103E2,7.599243E1,3.1578938E3,2.5616192E1,2.031343E2,2.1779504E3,9.751373E3,5.759841E3,5.0700462E1,2.5704214E1,2.514787E1,2.5240229E1,5.910868E3,2.542522E1,3.773626E2,7.295666E2,1.0081978E2,6.064236E2,7.564276E1,2.5228268E1,5.0682842E1,2.5309593E1,2.1732424E3,9.846513E2,5.081292E1,1.5232137E2,1.5149915E2,2.0264514E3,2.0085038E3,7.7428696E3,3.167628E3,2.5922131E3,2.5338425E1,2.5362038E1,5.810045E3,1.0082286E2],"tree_param":{"num_deleted":"0","num_feature":"42","num_nodes":"53","size_leaf_vector":"1"}},{"base_weights":[1.8377462E-3,-2.2563076E-2,6.3615546E-2,-4.2835057E-2,3.1053025E-2,3.6336552E-2,1.1975509E-1,-4.8218615E-2,1.09129116E-1,1.0575361E-3,8.83947E-2,-2.5281134E-1,3.9083403E-2,8.44152E-2,1.577375E-1,-6.791049E-2,-2.4276694E-2,6.0457937E-2,1.5725094E-1,-3.0935716E-3,5.6816363E-3,1.0616543E-1,-2.9224357E-2,-2.8579396E-3,-2.1031457E-3,-1.5318042E-2,5.0125938E-2,7.693226E-2,4.57404E-3,1.4677529E-1,3.2515752E-3,-7.088241E-4,1.3571278E-4,-2.6627185E-4,2.680927E-3,2.0366912E-3,4.364578E-4,1.1048157E-3,3.3645758E-3,-5.7004957E-4,1.6000815E-4,6.636376E-4,1.3923188E-3,2.4541044E-3,-6.070945E-4,1.5770963E-4,-1.082982E-3,4.34018E-3,4.7843615E-4,3.951048E-3,7.0513214E-4,2.1365215E-3,1.050017E-3],"categories":[],"categories_nodes":[],"categories_segments":[],"categories_sizes":[],"default_left":[0,0,0,0,0,0,0,0,0,0,0,0,0,0,0,0,0,0,0,0,0,0,0,0,0,0,0,0,0,0,0,0,0,0,0,0,0,0,0,0,0,0,0,0,0,0,0,0,0,0,0,0,0],"id":6,"left_children":[1,3,5,7,9,11,13,15,17,19,21,23,25,27,29,31,33,35,37,39,-1,41,43,-1,-1,45,47,49,-1,51,-1,-1,-1,-1,-1,-1,-1,-1,-1,-1,-1,-1,-1,-1,-1,-1,-1,-1,-1,-1,-1,-1,-1],"loss_changes":[4.2970543E1,2.2211887E1,1.2356144E1,1.213669E1,9.643991E0,4.3252163E0,3.5289345E0,6.750614E0,1.1795039E0,8.670453E0,4.028161E0,1.1746407E-2,3.2344875E0,3.7862797E0,2.284521E0,1.9038086E0,4.449991E0,6.026965E-1,2.0971112E0,3.7650228E0,0E0,2.1927986E0,2.2072694E0,0E0,0E0,2.6294668E0,3.9000196E0,2.7159648E0,0E0,3.3146343E0,0E0,0E0,0E0,0E0,0E0,0E0,0E0,0E0,0E0,0E0,0E0,0E0,0E0,0E0,0E0,0E0,0E0,0E0,0E0,0E0,0E0,0E0,0E0],"parents":[2147483647,0,0,1,1,2,2,3,3,4,4,5,5,6,6,7,7,8,8,9,9,10,10,11,11,12,12,13,13,14,14,15,15,16,16,17,17,18,18,19,19,21,21,22,22,25,25,26,26,27,27,29,29],"right_children":[2,4,6,8,10,12,14,16,18,20,22,24,26,28,30,32,34,36,38,40,-1,42,44,-1,-1,46,48,50,-1,52,-1,-1,-1,-1,-1,-1,-1,-1,-1,-1,-1,-1,-1,-1,-1,-1,-1,-1,-1,-1,-1,-1,-1],"split_conditions":[5E0,1E0,1.3035714E1,1E0,1.4178572E1,6E0,1E0,3.708991E0,1E0,1E0,1.5321428E1,4E0,1.0892858E1,1E0,1.5321428E1,4.1224394E0,1E0,9E0,1.3142858E1,3.4526272E0,5.6816363E-3,8E0,3.258688E0,-2.8579396E-3,-2.1031457E-3,1.5E1,7E0,7E0,4.57404E-3,1.4E1,3.2515752E-3,-7.088241E-4,1.3571278E-4,-2.6627185E-4,2.680927E-3,2.0366912E-3,4.364578E-4,1.1048157E-3,3.3645758E-3,-5.7004957E-4,1.6000815E-4,6.636376E-4,1.3923188E-3,2.4541044E-3,-6.070945E-4,1.5770963E-4,-1.082982E-3,4.34018E-3,4.7843615E-4,3.951048E-3,7.0513214E-4,2.1365215E-3,1.050017E-3],"split_indices":[3,21,36,5,36,31,21,37,26,20,36,1,36,5,36,35,19,31,32,37,0,1,37,0,0,30,30,28,0,32,0,0,0,0,0,0,0,0,0,0,0,0,0,0,0,0,0,0,0,0,0,0,0],"split_type":[0,0,0,0,0,0,0,0,0,0,0,0,0,0,0,0,0,0,0,0,0,0,0,0,0,0,0,0,0,0,0,0,0,0,0,0,0,0,0,0,0,0,0,0,0,0,0,0,0,0,0,0,0],"sum_hessian":[2.8503896E4,2.043369E4,8.0702065E3,1.4827635E4,5.606054E3,5.432248E3,2.6379583E3,1.4320976E4,5.0665936E2,3.681353E3,1.924701E3,5.026301E1,5.3819854E3,1.3681841E3,1.2697743E3,7.85693E3,6.4640454E3,2.5301366E2,2.536457E2,3.6555894E3,2.5763668E1,1.672157E3,2.5254407E2,2.5075958E1,2.5187052E1,9.080513E2,4.473934E3,1.3424578E3,2.572628E1,1.1935037E3,7.627063E1,7.5805713E3,2.7635913E2,6.413394E3,5.0651264E1,2.5414093E1,2.2759956E2,2.0243161E2,5.1214104E1,9.555865E2,2.700003E3,7.6016406E2,9.11993E2,2.5275873E1,2.2726819E2,6.811359E2,2.2691536E2,2.5323338E1,4.4486104E3,2.5350618E1,1.3171072E3,4.5729263E2,7.3621106E2],"tree_param":{"num_deleted":"0","num_feature":"42","num_nodes":"53","size_leaf_vector":"1"}},{"base_weights":[-1.8319839E-3,-2.68322E-2,5.850646E-2,-4.699698E-2,2.990093E-2,3.007453E-2,1.2474255E-1,-5.1804796E-2,9.691691E-2,4.2296266E-3,8.556835E-2,1.8661596E-2,1.573472E-1,2.2841293E-1,1.03099205E-1,-7.018436E-2,-2.1076676E-2,6.952217E-2,1.9716373E-1,1.2305501E-2,-1.1657859E-1,3.7712222E-1,7.141737E-2,1.3584622E-2,1.9182733E-1,3.6336835E-3,1.3229029E-1,-9.733405E-4,2.488186E-1,9.457298E-2,3.225243E-3,-7.247935E-4,9.188594E-4,-1.335983E-3,-1.4999814E-4,8.1594597E-4,-9.662295E-4,1.1898474E-3,4.140825E-3,-3.0929103E-4,4.1902397E-4,1.9319874E-4,-1.8423256E-3,2.6550945E-3,5.817393E-3,9.271794E-4,-7.5393904E-4,-3.8209624E-4,2.5204057E-4,9.4688724E-4,3.7951993E-3,1.5541209E-3,-4.110347E-4,2.338296E-3,4.5321253E-3,2.0038427E-3,7.7338354E-4],"categories":[],"categories_nodes":[],"categories_segments":[],"categories_sizes":[],"default_left":[0,0,0,0,0,0,0,0,0,0,0,0,0,0,0,0,0,0,0,0,0,0,0,0,0,0,0,0,0,0,0,0,0,0,0,0,0,0,0,0,0,0,0,0,0,0,0,0,0,0,0,0,0,0,0,0,0],"id":7,"left_children":[1,3,5,7,9,11,13,15,17,19,21,23,25,27,29,31,33,35,37,39,41,43,45,47,49,-1,51,-1,53,55,-1,-1,-1,-1,-1,-1,-1,-1,-1,-1,-1,-1,-1,-1,-1,-1,-1,-1,-1,-1,-1,-1,-1,-1,-1,-1,-1],"loss_changes":[4.3148663E1,2.3138401E1,1.5777044E1,1.0329327E1,7.579384E0,8.515293E0,5.6226387E0,8.15361E0,1.3119602E0,3.5440278E0,6.8794127E0,4.7297697E0,2.4425135E0,2.907652E0,3.8676167E0,3.367218E0,3.694353E0,7.714094E-1,1.6984439E0,4.357673E0,2.0963008E0,1.6098375E0,5.003254E0,3.1488442E0,2.7580767E0,0E0,1.7372189E0,0E0,1.1455288E0,3.6446362E0,0E0,0E0,0E0,0E0,0E0,0E0,0E0,0E0,0E0,0E0,0E0,0E0,0E0,0E0,0E0,0E0,0E0,0E0,0E0,0E0,0E0,0E0,0E0,0E0,0E0,0E0,0E0],"parents":[2147483647,0,0,1,1,2,2,3,3,4,4,5,5,6,6,7,7,8,8,9,9,10,10,11,11,12,12,13,13,14,14,15,15,16,16,17,17,18,18,19,19,20,20,21,21,22,22,23,23,24,24,26,26,28,28,29,29],"right_children":[2,4,6,8,10,12,14,16,18,20,22,24,26,28,30,32,34,36,38,40,42,44,46,48,50,-1,52,-1,54,56,-1,-1,-1,-1,-1,-1,-1,-1,-1,-1,-1,-1,-1,-1,-1,-1,-1,-1,-1,-1,-1,-1,-1,-1,-1,-1,-1],"split_conditions":[5E0,1E0,1.3142858E1,1E0,1.4178572E1,1E0,2.7688746E0,3.7709124E0,1E0,4.8334913E0,1.3928572E1,1E0,2.2886887E0,1E1,1.5321428E1,1.4857142E1,9.571428E0,2.025E3,1E0,2.022E3,1.3714286E1,3E1,1.5321428E1,1.0892858E1,1E0,3.6336835E-3,1.8E1,-9.733405E-4,1E0,1.2285714E1,3.225243E-3,-7.247935E-4,9.188594E-4,-1.335983E-3,-1.4999814E-4,8.1594597E-4,-9.662295E-4,1.1898474E-3,4.140825E-3,-3.0929103E-4,4.1902397E-4,1.9319874E-4,-1.8423256E-3,2.6550945E-3,5.817393E-3,9.271794E-4,-7.5393904E-4,-3.8209624E-4,2.5204057E-4,9.4688724E-4,3.7951993E-3,1.5541209E-3,-4.110347E-4,2.338296E-3,4.5321253E-3,2.0038427E-3,7.7338354E-4],"split_indices":[3,21,36,5,36,40,33,35,16,35,34,5,33,30,36,32,32,0,26,0,34,2,36,36,24,0,31,0,5,32,0,0,0,0,0,0,0,0,0,0,0,0,0,0,0,0,0,0,0,0,0,0,0,0,0,0,0],"split_type":[0,0,0,0,0,0,0,0,0,0,0,0,0,0,0,0,0,0,0,0,0,0,0,0,0,0,0,0,0,0,0,0,0,0,0,0,0,0,0,0,0,0,0,0,0,0,0,0,0,0,0,0,0,0,0,0,0],"sum_hessian":[2.8602137E4,2.0223447E4,8.378689E3,1.4920422E4,5.303026E3,5.8633105E3,2.5153794E3,1.4438699E4,4.8172205E2,3.6300752E3,1.6729509E3,5.3818496E3,4.814605E2,4.3278946E2,2.08259E3,9.033916E3,5.4047837E3,3.7966376E2,1.0205829E2,3.4034565E3,2.2661859E2,7.625307E1,1.5966978E3,5.2296035E3,1.5224615E2,5.0743004E1,4.307175E2,2.5290678E1,4.0749878E2,2.0060709E3,7.6519035E1,8.908322E3,1.2559342E2,2.7586005E2,5.1289233E3,3.544198E2,2.5243937E1,7.615871E1,2.5899584E1,1.383061E3,2.0203956E3,7.5557846E1,1.5106075E2,5.0826347E1,2.5426723E1,1.3947103E3,2.019875E2,9.578131E2,4.2717905E3,1.0131565E2,5.0930504E1,3.8013126E2,5.058622E1,3.8165457E2,2.5844223E1,2.7949515E2,1.7265758E3],"tree_param":{"num_deleted":"0","num_feature":"42","num_nodes":"57","size_leaf_vector":"1"}},{"base_weights":[-4.629866E-3,-2.893587E-2,5.920427E-2,-4.7288183E-2,2.2074183E-2,2.089595E-2,9.061521E-2,-7.594086E-2,-2.0884464E-2,-7.3778178E-3,8.87795E-2,2.463098E-2,-2.3351396E-3,-1.9529288E-3,9.40426E-2,-4.7563524E-3,-8.207901E-2,-2.2362279E-2,4.1045872E-3,-5.7163395E-2,1.4526078E-2,8.086392E-2,5.7571977E-3,2.2160538E-1,2.0163696E-2,3.124202E-1,8.999184E-2,-1.1749811E-3,3.5228278E-4,-8.402001E-4,1.6797547E-3,-4.5149715E-4,-7.42361E-5,-1.4470611E-4,-7.9906895E-4,1.4458167E-3,5.0521183E-5,5.576556E-4,1.5738991E-3,1.2857261E-3,2.6464933E-3,1.2323035E-4,1.2890345E-3,3.7902584E-3,1.6890368E-3,7.609339E-4,1.5220538E-3],"categories":[],"categories_nodes":[],"categories_segments":[],"categories_sizes":[],"default_left":[0,0,0,0,0,0,0,0,0,0,0,0,0,0,0,0,0,0,0,0,0,0,0,0,0,0,0,0,0,0,0,0,0,0,0,0,0,0,0,0,0,0,0,0,0,0,0],"id":8,"left_children":[1,3,5,7,9,11,13,15,17,19,21,23,-1,-1,25,27,29,31,-1,33,35,37,-1,39,41,43,45,-1,-1,-1,-1,-1,-1,-1,-1,-1,-1,-1,-1,-1,-1,-1,-1,-1,-1,-1,-1],"loss_changes":[4.418239E1,1.9307644E1,9.447361E0,1.1472828E1,1.0722155E1,3.3688505E0,4.24625E0,3.1776352E0,5.0415983E0,4.1302524E0,6.39649E0,3.0655982E0,0E0,0E0,3.7438927E0,2.6117399E0,3.264019E0,2.6782649E0,0E0,1.1224601E0,3.2404618E0,3.152708E0,0E0,2.7541256E-1,2.90803E0,6.7442656E-1,3.6095314E0,0E0,0E0,0E0,0E0,0E0,0E0,0E0,0E0,0E0,0E0,0E0,0E0,0E0,0E0,0E0,0E0,0E0,0E0,0E0,0E0],"parents":[2147483647,0,0,1,1,2,2,3,3,4,4,5,5,6,6,7,7,8,8,9,9,10,10,11,11,14,14,15,15,16,16,17,17,19,19,20,20,21,21,23,23,24,24,25,25,26,26],"right_children":[2,4,6,8,10,12,14,16,18,20,22,24,-1,-1,26,28,30,32,-1,34,36,38,-1,40,42,44,46,-1,-1,-1,-1,-1,-1,-1,-1,-1,-1,-1,-1,-1,-1,-1,-1,-1,-1,-1,-1],"split_conditions":[5E0,1E0,1.2285714E1,3.6447759E0,1.5E1,3.1E1,7E0,7E0,1E0,2.022E3,1E0,-8.660254E-1,-2.3351396E-3,-1.9529288E-3,9E0,5E0,1E0,3.5118847E0,4.1045872E-3,1.2142858E1,2.2677867E0,2.5E1,5.7571977E-3,5E0,1E0,1.7E1,1.9E1,-1.1749811E-3,3.5228278E-4,-8.402001E-4,1.6797547E-3,-4.5149715E-4,-7.42361E-5,-1.4470611E-4,-7.9906895E-4,1.4458167E-3,5.0521183E-5,5.576556E-4,1.5738991E-3,1.2857261E-3,2.6464933E-3,1.2323035E-4,1.2890345E-3,3.7902584E-3,1.6890368E-3,7.609339E-4,1.5220538E-3],"split_indices":[3,21,34,37,31,2,31,30,16,0,14,41,0,0,30,2,16,33,0,34,33,2,0,2,40,2,31,0,0,0,0,0,0,0,0,0,0,0,0,0,0,0,0,0,0,0,0],"split_type":[0,0,0,0,0,0,0,0,0,0,0,0,0,0,0,0,0,0,0,0,0,0,0,0,0,0,0,0,0,0,0,0,0,0,0,0,0,0,0,0,0,0,0,0,0,0,0],"sum_hessian":[2.8474135E4,2.0622348E4,7.851786E3,1.5166017E4,5.4563315E3,3.5382522E3,4.313534E3,7.272356E3,7.8936606E3,3.78573E3,1.6706014E3,3.4879482E3,5.0303905E1,5.0433712E1,4.2631006E3,5.774462E2,6.6949097E3,7.867654E3,2.6007053E1,1.1561945E3,2.6295356E3,1.6450264E3,2.5575073E1,7.627277E1,3.4116755E3,7.625113E1,4.186849E3,1.5067114E2,4.267751E2,6.644001E3,5.090885E1,3.1146086E3,4.753045E3,4.024239E2,7.5377057E2,1.775753E2,2.4519602E3,1.2400529E3,4.0497348E2,2.538787E1,5.0884903E1,3.1832605E3,2.2841515E2,5.095981E1,2.5291323E1,3.424126E3,7.627233E2],"tree_param":{"num_deleted":"0","num_feature":"42","num_nodes":"47","size_leaf_vector":"1"}},{"base_weights":[-2.3615046E-3,-2.7424023E-2,6.064227E-2,-4.4932615E-2,2.1024276E-2,3.697284E-2,1.1265667E-1,-4.938837E-2,1.0429508E-1,1.8301733E-2,5.613598E-3,3.1120302E-2,1.8928005E-1,3.6773494E-1,1.0717216E-1,-6.682116E-2,-1.9325158E-2,6.526703E-2,2.8109366E-1,-2.3089182E-2,4.4223763E-2,-3.8089253E-2,4.2990234E-2,4.2408267E-3,1.5336826E-1,4.4838423E-3,2.7230983E-3,1.00229956E-1,3.1910308E-3,-9.521936E-4,-5.4420024E-4,-2.2134894E-4,2.662525E-3,1.3391009E-3,2.661046E-4,9.191226E-4,3.7069772E-3,-3.240522E-3,-1.9227683E-4,2.0528746E-4,1.135604E-3,1.6134894E-3,-5.9712003E-4,1.3447382E-3,3.5829443E-4,1.2505023E-3,3.1104633E-3,1.1710665E-3,3.3449376E-4],"categories":[],"categories_nodes":[],"categories_segments":[],"categories_sizes":[],"default_left":[0,0,0,0,0,0,0,0,0,0,0,0,0,0,0,0,0,0,0,0,0,0,0,0,0,0,0,0,0,0,0,0,0,0,0,0,0,0,0,0,0,0,0,0,0,0,0,0,0],"id":9,"left_children":[1,3,5,7,9,11,13,15,17,19,-1,21,23,25,27,29,31,33,35,37,39,41,43,-1,45,-1,-1,47,-1,-1,-1,-1,-1,-1,-1,-1,-1,-1,-1,-1,-1,-1,-1,-1,-1,-1,-1,-1,-1],"loss_changes":[4.4723328E1,1.7189054E1,9.919449E0,9.902E0,7.9034805E0,4.9333515E0,3.4865017E0,7.5735016E0,2.9615374E0,5.7450895E0,0E0,4.386257E0,1.6622553E0,2.8300524E-1,3.600134E0,3.216488E0,4.2636776E0,9.3861485E-1,1.2846007E0,2.3905227E0,5.4066687E0,3.3814883E0,2.9800243E0,0E0,7.614269E-1,0E0,0E0,2.6917953E0,0E0,0E0,0E0,0E0,0E0,0E0,0E0,0E0,0E0,0E0,0E0,0E0,0E0,0E0,0E0,0E0,0E0,0E0,0E0,0E0,0E0],"parents":[2147483647,0,0,1,1,2,2,3,3,4,4,5,5,6,6,7,7,8,8,9,9,11,11,12,12,13,13,14,14,15,15,16,16,17,17,18,18,19,19,20,20,21,21,22,22,24,24,27,27],"right_children":[2,4,6,8,10,12,14,16,18,20,-1,22,24,26,28,30,32,34,36,38,40,42,44,-1,46,-1,-1,48,-1,-1,-1,-1,-1,-1,-1,-1,-1,-1,-1,-1,-1,-1,-1,-1,-1,-1,-1,-1,-1],"split_conditions":[5E0,1.3357142E1,1.3035714E1,1E0,1E0,1E0,2.345208E0,3.708991E0,1.2785714E1,1E0,5.613598E-3,1.0892858E1,1.0357142E1,2.023E3,1.5321428E1,1.1357142E1,1E0,1.1E1,1E0,-8.660254E-1,1.6E1,8E0,2.1602468E0,4.2408267E-3,2.4E1,4.4838423E-3,2.7230983E-3,1.9E1,3.1910308E-3,-9.521936E-4,-5.4420024E-4,-2.2134894E-4,2.662525E-3,1.3391009E-3,2.661046E-4,9.191226E-4,3.7069772E-3,-3.240522E-3,-1.9227683E-4,2.0528746E-4,1.135604E-3,1.6134894E-3,-5.9712003E-4,1.3447382E-3,3.5829443E-4,1.2505023E-3,3.1104633E-3,1.1710665E-3,3.3449376E-4],"split_indices":[3,34,36,5,20,5,35,37,36,21,0,36,34,0,36,36,19,29,26,40,31,28,33,0,29,0,0,28,0,0,0,0,0,0,0,0,0,0,0,0,0,0,0,0,0,0,0,0,0],"split_type":[0,0,0,0,0,0,0,0,0,0,0,0,0,0,0,0,0,0,0,0,0,0,0,0,0,0,0,0,0,0,0,0,0,0,0,0,0,0,0,0,0,0,0,0,0,0,0,0,0],"sum_hessian":[2.8321184E4,2.0261748E4,8.059435E3,1.4883218E4,5.378531E3,5.5400957E3,2.5193396E3,1.4452357E4,4.3086066E2,5.352595E3,2.593579E1,5.33625E3,2.0384573E2,5.1638573E1,2.467701E3,9.147033E3,5.305323E3,3.5406943E2,7.6791214E1,2.0613118E3,3.2912832E3,7.8089685E2,4.555353E3,2.5607405E1,1.7823833E2,2.5981382E1,2.5657192E1,2.390857E3,7.684417E1,2.7782507E3,6.3687827E3,5.2545474E3,5.0775864E1,1.2667197E2,2.2739748E2,2.5332457E1,5.1458755E1,2.5062162E1,2.0362496E3,2.4539646E3,8.373188E2,7.57502E1,7.051466E2,3.2939154E2,4.2259614E3,1.526215E2,2.561682E1,1.9079326E3,4.8292416E2],"tree_param":{"num_deleted":"0","num_feature":"42","num_nodes":"49","size_leaf_vector":"1"}},{"base_weights":[-4.855743E-3,-2.7137382E-2,5.1821865E-2,-4.4382963E-2,2.2577025E-2,3.0157167E-2,1.2035645E-1,-4.828565E-2,8.1756145E-2,-3.6938217E-2,4.3664545E-2,-1.8832274E-1,3.290383E-2,9.5095925E-2,1.7472984E-1,-6.765771E-2,-2.7267426E-2,9.2348166E-2,-9.602992E-4,1.8478518E-2,-7.120479E-2,1.936544E-2,8.372678E-2,-2.521108E-1,-5.621319E-4,3.5963632E-2,-1.468452E-1,-5.3658936E-2,1.10859536E-1,2.4037933E-1,1.08359925E-1,-9.845885E-4,-5.624874E-4,-2.9414785E-4,2.642633E-3,5.5843004E-4,1.3284177E-3,-3.8507007E-4,5.3489587E-4,-1.4693115E-3,-2.9819872E-4,-2.3794117E-4,4.8847013E-4,7.156674E-4,4.131505E-3,-2.850398E-3,-2.0972379E-3,3.192486E-4,1.4886422E-3,1.833739E-4,-2.0167686E-3,3.5284794E-4,-1.1279035E-3,3.9010812E-4,1.3818758E-3,2.0445108E-3,4.1170125E-3,1.9990134E-3,4.2091025E-4],"categories":[],"categories_nodes":[],"categories_segments":[],"categories_sizes":[],"default_left":[0,0,0,0,0,0,0,0,0,0,0,0,0,0,0,0,0,0,0,0,0,0,0,0,0,0,0,0,0,0,0,0,0,0,0,0,0,0,0,0,0,0,0,0,0,0,0,0,0,0,0,0,0,0,0,0,0,0,0],"id":10,"left_children":[1,3,5,7,9,11,13,15,17,19,21,23,25,27,29,31,33,35,-1,37,39,41,43,45,-1,47,49,51,53,55,57,-1,-1,-1,-1,-1,-1,-1,-1,-1,-1,-1,-1,-1,-1,-1,-1,-1,-1,-1,-1,-1,-1,-1,-1,-1,-1,-1,-1],"loss_changes":[3.6081055E1,1.7583721E1,1.1967318E1,7.499708E0,6.6313553E0,3.6831183E0,2.6426983E0,6.0120964E0,8.700843E-1,2.6267447E0,3.795876E0,6.281576E-1,3.3338876E0,3.1110516E0,2.644762E0,2.6952057E0,4.4436393E0,6.3136935E-1,0E0,1.0575883E0,2.6736274E0,3.092473E0,5.868891E0,1.1565924E-2,0E0,2.7090387E0,9.2295504E-1,6.74828E-1,2.3461456E0,1.8075752E0,1.8517325E0,0E0,0E0,0E0,0E0,0E0,0E0,0E0,0E0,0E0,0E0,0E0,0E0,0E0,0E0,0E0,0E0,0E0,0E0,0E0,0E0,0E0,0E0,0E0,0E0,0E0,0E0,0E0,0E0],"parents":[2147483647,0,0,1,1,2,2,3,3,4,4,5,5,6,6,7,7,8,8,9,9,10,10,11,11,12,12,13,13,14,14,15,15,16,16,17,17,19,19,20,20,21,21,22,22,23,23,25,25,26,26,27,27,28,28,29,29,30,30],"right_children":[2,4,6,8,10,12,14,16,18,20,22,24,26,28,30,32,34,36,-1,38,40,42,44,46,-1,48,50,52,54,56,58,-1,-1,-1,-1,-1,-1,-1,-1,-1,-1,-1,-1,-1,-1,-1,-1,-1,-1,-1,-1,-1,-1,-1,-1,-1,-1,-1,-1],"split_conditions":[5E0,1E0,1E0,1E0,2.022E3,6E0,3.9445562E0,3.6760342E0,2.025E3,1.2142858E1,1.5E1,5E0,3.1E1,1.1785714E1,1.4E1,2.022E3,1E0,1.2E1,-9.602992E-4,1E1,1.2642858E1,1.3E1,2E1,4E0,-5.621319E-4,1E0,2.022E3,1E0,1.4E1,2.024E3,4.154904E0,-9.845885E-4,-5.624874E-4,-2.9414785E-4,2.642633E-3,5.5843004E-4,1.3284177E-3,-3.8507007E-4,5.3489587E-4,-1.4693115E-3,-2.9819872E-4,-2.3794117E-4,4.8847013E-4,7.156674E-4,4.131505E-3,-2.850398E-3,-2.0972379E-3,3.192486E-4,1.4886422E-3,1.833739E-4,-2.0167686E-3,3.5284794E-4,-1.1279035E-3,3.9010812E-4,1.3818758E-3,2.0445108E-3,4.1170125E-3,1.9990134E-3,4.2091025E-4],"split_indices":[3,21,21,5,0,31,37,37,0,34,31,1,2,34,32,0,19,30,0,30,34,29,28,1,0,5,0,25,30,0,37,0,0,0,0,0,0,0,0,0,0,0,0,0,0,0,0,0,0,0,0,0,0,0,0,0,0,0,0],"split_type":[0,0,0,0,0,0,0,0,0,0,0,0,0,0,0,0,0,0,0,0,0,0,0,0,0,0,0,0,0,0,0,0,0,0,0,0,0,0,0,0,0,0,0,0,0,0,0,0,0,0,0,0,0,0,0,0,0,0,0],"sum_hessian":[2.856856E4,2.0507125E4,8.061434E3,1.5225584E4,5.281542E3,6.1262764E3,1.9351578E3,1.4769248E4,4.563364E2,1.3815751E3,3.8999668E3,7.522264E1,6.0510537E3,1.323187E3,6.119708E2,7.684439E3,7.0848086E3,4.3113132E2,2.520508E1,5.28054E2,8.5352106E2,2.428489E3,1.4714778E3,5.011611E1,2.5106527E1,5.9505596E3,1.0049419E2,1.26553E2,1.196634E3,3.0633713E2,3.056337E2,2.074965E3,5.6094736E3,7.0338975E3,5.091123E1,2.2798282E2,2.031485E2,2.009231E2,3.2713095E2,3.0071698E2,5.528041E2,9.8568634E2,1.4428026E3,1.4202686E3,5.120921E1,2.4982996E1,2.5133118E1,5.7462817E3,2.04278E2,2.5210897E1,7.5283295E1,5.0697937E1,7.5855064E1,3.304001E2,8.6623395E2,2.5504462E2,5.129251E1,1.2749721E2,1.7813649E2],"tree_param":{"num_deleted":"0","num_feature":"42","num_nodes":"59","size_leaf_vector":"1"}},{"base_weights":[-7.1705715E-4,-2.8323123E-2,6.4879425E-2,-4.7863323E-2,3.108483E-2,9.08621E-2,2.4242159E-2,-6.719299E-2,-2.2083404E-2,2.8199257E-2,5.549312E-3,1.5319679E-3,1.0339388E-1,1.4988685E-2,2.1170314E-1,-7.201133E-2,7.6360844E-2,-2.438993E-2,2.622939E-1,9.684297E-4,8.221429E-2,3.8357083E-2,-5.3632542E-2,1.4072087E-1,8.168503E-2,3.511008E-2,-7.326264E-2,3.0585974E-1,1.1461363E-1,-1.013393E-3,-6.302856E-4,1.0234042E-3,-4.081052E-4,-8.567812E-4,-1.7137016E-4,2.007945E-3,3.1390397E-3,-6.1070157E-4,2.1138851E-4,1.4386169E-3,9.839361E-5,1.7460498E-4,1.7094534E-3,-1.1938456E-3,-9.396427E-5,1.3168672E-3,3.2314723E-3,6.2494207E-4,1.3895334E-3,-3.8301532E-5,8.15104E-4,-2.0942402E-3,-3.5167995E-4,3.7019057E-3,1.6633358E-3,1.469459E-3,4.7186948E-4],"categories":[],"categories_nodes":[],"categories_segments":[],"categories_sizes":[],"default_left":[0,0,0,0,0,0,0,0,0,0,0,0,0,0,0,0,0,0,0,0,0,0,0,0,0,0,0,0,0,0,0,0,0,0,0,0,0,0,0,0,0,0,0,0,0,0,0,0,0,0,0,0,0,0,0,0,0],"id":11,"left_children":[1,3,5,7,9,11,13,15,17,19,-1,21,23,25,27,29,31,33,35,37,39,41,43,45,47,49,51,53,55,-1,-1,-1,-1,-1,-1,-1,-1,-1,-1,-1,-1,-1,-1,-1,-1,-1,-1,-1,-1,-1,-1,-1,-1,-1,-1,-1,-1],"loss_changes":[5.1521E1,2.3246252E1,8.895634E0,7.507328E0,7.4768643E0,5.7539253E0,5.7004595E0,5.9616547E0,4.2425785E0,7.2521944E0,0E0,1.2887266E0,3.641182E0,5.5685167E0,1.3781767E0,2.1886177E0,8.568944E-1,2.8466911E0,1.0216308E-1,4.1044955E0,7.3718224E0,1.0509908E0,7.3757803E-1,2.6869507E0,3.1262512E0,4.6134396E0,3.0129845E0,6.374874E-1,1.624794E-1,0E0,0E0,0E0,0E0,0E0,0E0,0E0,0E0,0E0,0E0,0E0,0E0,0E0,0E0,0E0,0E0,0E0,0E0,0E0,0E0,0E0,0E0,0E0,0E0,0E0,0E0,0E0,0E0],"parents":[2147483647,0,0,1,1,2,2,3,3,4,4,5,5,6,6,7,7,8,8,9,9,11,11,12,12,13,13,14,14,15,15,16,16,17,17,18,18,19,19,20,20,21,21,22,22,23,23,24,24,25,25,26,26,27,27,28,28],"right_children":[2,4,6,8,10,12,14,16,18,20,-1,22,24,26,28,30,32,34,36,38,40,42,44,46,48,50,52,54,56,-1,-1,-1,-1,-1,-1,-1,-1,-1,-1,-1,-1,-1,-1,-1,-1,-1,-1,-1,-1,-1,-1,-1,-1,-1,-1,-1,-1],"split_conditions":[5E0,1E0,5E-1,3.718074E0,1E0,1.1428572E1,1E0,1E0,1E0,1.4178572E1,5.549312E-3,1.4E1,3.207135E0,4.3094583E0,6E0,9E0,3.3158271E0,3.207135E0,2E0,3.4355364E0,1.4928572E1,1.3E1,3.071244E0,3.1471832E0,4.5617456E0,3.4783914E0,3.6092181E0,1E0,1.2E1,-1.013393E-3,-6.302856E-4,1.0234042E-3,-4.081052E-4,-8.567812E-4,-1.7137016E-4,2.007945E-3,3.1390397E-3,-6.1070157E-4,2.1138851E-4,1.4386169E-3,9.839361E-5,1.7460498E-4,1.7094534E-3,-1.1938456E-3,-9.396427E-5,1.3168672E-3,3.2314723E-3,6.2494207E-4,1.3895334E-3,-3.8301532E-5,8.15104E-4,-2.0942402E-3,-3.5167995E-4,3.7019057E-3,1.6633358E-3,1.469459E-3,4.7186948E-4],"split_indices":[3,21,41,37,20,34,5,5,19,36,0,31,33,33,3,29,37,35,3,37,36,31,37,33,33,37,37,8,28,0,0,0,0,0,0,0,0,0,0,0,0,0,0,0,0,0,0,0,0,0,0,0,0,0,0,0,0],"split_type":[0,0,0,0,0,0,0,0,0,0,0,0,0,0,0,0,0,0,0,0,0,0,0,0,0,0,0,0,0,0,0,0,0,0,0,0,0,0,0,0,0,0,0,0,0,0,0,0,0,0,0,0,0,0,0,0,0],"sum_hessian":[2.8449092E4,2.0023033E4,8.42606E3,1.5067344E4,4.955689E3,5.139029E3,3.2870308E3,8.609999E3,6.457344E3,4.9295884E3,2.6100464E1,6.323782E2,4.506651E3,3.1334375E3,1.5359322E2,8.330874E3,2.791251E2,6.4062983E3,5.1045948E1,3.2780361E3,1.6515524E3,3.7940845E2,2.5296973E2,1.6551846E3,2.8514663E3,2.5521475E3,5.812901E2,7.68827E1,7.671052E1,1.9509404E3,6.3799336E3,2.2857204E2,5.0553066E1,6.767604E2,5.729538E3,2.5522974E1,2.5522974E1,8.0378625E2,2.4742498E3,8.913402E2,7.6021216E2,3.2873053E2,5.0677906E1,1.01058624E2,1.519111E2,1.5787244E3,7.646013E1,2.1373303E3,7.1413605E2,1.3881212E3,1.1640261E3,1.2609439E2,4.551957E2,5.148945E1,2.5393251E1,5.1051224E1,2.5659296E1],"tree_param":{"num_deleted":"0","num_feature":"42","num_nodes":"57","size_leaf_vector":"1"}},{"base_weights":[-1.3214151E-3,-2.5417173E-2,5.886046E-2,-4.3819446E-2,2.5549095E-2,3.8426906E-2,1.1228457E-1,-6.1744153E-2,-1.9852905E-2,-4.258589E-2,5.081269E-2,3.654792E-2,4.417736E-3,3.5459165E-2,1.332915E-1,-9.566665E-2,-5.0490968E-2,-2.1662213E-2,4.033248E-3,1.4895202E-2,-7.77907E-2,4.154656E-2,1.5139057E-1,2.6904365E-2,1.08926095E-1,1.9283274E-2,3.1362192E-3,2.3103975E-1,1.2206156E-1,-1.0335083E-3,2.1838895E-3,2.1655456E-5,-6.112596E-4,3.600916E-5,-3.6858625E-4,-4.0599259E-4,5.321718E-4,-1.4447272E-3,-3.0164828E-4,4.8933947E-4,-1.2583847E-3,2.9393987E-4,2.5485852E-3,2.8480232E-5,6.649444E-4,-6.1990507E-4,1.476267E-3,-4.9209135E-4,5.345296E-4,1.796716E-3,3.5361473E-3,1.6400611E-3,8.953419E-4],"categories":[],"categories_nodes":[],"categories_segments":[],"categories_sizes":[],"default_left":[0,0,0,0,0,0,0,0,0,0,0,0,0,0,0,0,0,0,0,0,0,0,0,0,0,0,0,0,0,0,0,0,0,0,0,0,0,0,0,0,0,0,0,0,0,0,0,0,0,0,0,0,0],"id":12,"left_children":[1,3,5,7,9,11,13,15,17,19,21,23,-1,25,27,29,31,33,-1,35,37,39,41,43,45,47,-1,49,51,-1,-1,-1,-1,-1,-1,-1,-1,-1,-1,-1,-1,-1,-1,-1,-1,-1,-1,-1,-1,-1,-1,-1,-1],"loss_changes":[4.121442E1,1.9035982E1,8.86628E0,6.404722E0,9.270903E0,4.4396734E0,3.6225986E0,3.251648E0,4.895158E0,2.9496455E0,3.6550179E0,4.0824547E0,0E0,2.171616E0,1.9088421E0,5.148016E0,3.5885296E0,2.4401655E0,0E0,1.1808959E0,2.8658462E0,4.4559073E0,4.1709576E0,4.920141E0,4.558937E0,1.0755552E0,0E0,1.0743618E0,2.1476727E0,0E0,0E0,0E0,0E0,0E0,0E0,0E0,0E0,0E0,0E0,0E0,0E0,0E0,0E0,0E0,0E0,0E0,0E0,0E0,0E0,0E0,0E0,0E0,0E0],"parents":[2147483647,0,0,1,1,2,2,3,3,4,4,5,5,6,6,7,7,8,8,9,9,10,10,11,11,13,13,14,14,15,15,16,16,17,17,19,19,20,20,21,21,22,22,23,23,24,24,25,25,27,27,28,28],"right_children":[2,4,6,8,10,12,14,16,18,20,22,24,-1,26,28,30,32,34,-1,36,38,40,42,44,46,48,-1,50,52,-1,-1,-1,-1,-1,-1,-1,-1,-1,-1,-1,-1,-1,-1,-1,-1,-1,-1,-1,-1,-1,-1,-1,-1],"split_conditions":[5E0,1E0,1E0,3.708991E0,2.022E3,1E0,2.022E3,2.022E3,1E0,1.2142858E1,2.9E1,1E0,4.417736E-3,1.9E1,2.309401E0,1.3142858E1,1.1E1,1.1E1,4.033248E-3,1E1,1.2642858E1,5.669467E0,1E0,1E0,2.022E3,1.2214286E1,3.1362192E-3,2.1E1,1.3857142E1,-1.0335083E-3,2.1838895E-3,2.1655456E-5,-6.112596E-4,3.600916E-5,-3.6858625E-4,-4.0599259E-4,5.321718E-4,-1.4447272E-3,-3.0164828E-4,4.8933947E-4,-1.2583847E-3,2.9393987E-4,2.5485852E-3,2.8480232E-5,6.649444E-4,-6.1990507E-4,1.476267E-3,-4.9209135E-4,5.345296E-4,1.796716E-3,3.5361473E-3,1.6400611E-3,8.953419E-4],"split_indices":[3,21,21,37,0,15,0,0,16,34,2,40,0,28,33,32,32,31,0,30,34,33,26,26,0,34,0,2,32,0,0,0,0,0,0,0,0,0,0,0,0,0,0,0,0,0,0,0,0,0,0,0,0],"split_type":[0,0,0,0,0,0,0,0,0,0,0,0,0,0,0,0,0,0,0,0,0,0,0,0,0,0,0,0,0,0,0,0,0,0,0,0,0,0,0,0,0,0,0,0,0,0,0,0,0,0,0,0,0],"sum_hessian":[2.8419197E4,2.0294297E4,8.1249E3,1.4910674E4,5.3836226E3,5.878299E3,2.246601E3,8.529694E3,6.3809805E3,1.4560428E3,3.9275798E3,5.8521274E3,2.6171465E1,4.829757E2,1.7636255E3,2.1228638E3,6.40683E3,6.3547593E3,2.6221148E1,5.5326666E2,9.0277625E2,3.5975542E3,3.300256E2,5.1652847E3,6.868427E2,4.574435E2,2.5532206E1,1.7972026E2,1.5839052E3,2.0728179E3,5.0046013E1,1.0766855E3,5.3301445E3,2.3871038E3,3.9676553E3,2.2597314E2,3.2729352E2,3.752904E2,5.274858E2,3.4461682E3,1.513859E2,1.5204137E2,1.7798422E2,3.2136367E3,1.9516482E3,1.2669732E2,5.601454E2,1.5210738E2,3.0533612E2,1.2838365E2,5.133661E1,6.900423E2,8.938629E2],"tree_param":{"num_deleted":"0","num_feature":"42","num_nodes":"53","size_leaf_vector":"1"}},{"base_weights":[3.6695763E-3,-2.1152837E-2,6.352703E-2,-2.7095653E-2,1.261192E-1,4.5260035E-2,1.1532797E-1,-3.521939E-2,3.5234515E-2,1.1057036E-1,5.626327E-3,3.9543997E-2,2.1179262E-1,1.5938883E-1,7.502332E-2,-3.6138907E-2,5.488328E-3,-5.172481E-2,7.062677E-2,4.1415103E-2,1.705648E-1,-4.330563E-2,5.28021E-2,3.4132865E-1,7.89072E-2,5.617864E-2,1.9243741E-1,2.6245056E-2,1.0737332E-1,-5.6135154E-4,-1.1534484E-4,-1.2901574E-3,-3.257283E-5,8.8223873E-4,-5.110692E-4,6.8106625E-4,-1.1779817E-3,3.2607743E-3,1.332207E-3,5.3670496E-4,-9.198246E-4,8.61835E-4,3.3104167E-4,3.959384E-3,1.6525543E-3,1.4580066E-3,1.06258514E-4,4.833003E-5,2.547746E-3,3.1507283E-3,1.6255507E-3,1.3327447E-4,2.3613854E-3,-2.346005E-4,1.3682358E-3],"categories":[],"categories_nodes":[],"categories_segments":[],"categories_sizes":[],"default_left":[0,0,0,0,0,0,0,0,0,0,0,0,0,0,0,0,0,0,0,0,0,0,0,0,0,0,0,0,0,0,0,0,0,0,0,0,0,0,0,0,0,0,0,0,0,0,0,0,0,0,0,0,0,0,0],"id":13,"left_children":[1,3,5,7,9,11,13,15,17,19,-1,21,23,25,27,29,-1,31,33,35,37,39,41,43,45,47,49,51,53,-1,-1,-1,-1,-1,-1,-1,-1,-1,-1,-1,-1,-1,-1,-1,-1,-1,-1,-1,-1,-1,-1,-1,-1,-1,-1],"loss_changes":[4.2763336E1,1.7809252E1,7.9779854E0,9.903673E0,5.294944E0,5.930435E0,3.8928604E0,9.31172E0,6.945242E0,3.1601877E0,0E0,6.6291685E0,3.5329075E0,3.569252E0,1.8122606E0,8.498892E0,0E0,2.4458063E0,3.4393587E0,1.5206474E0,2.328618E0,3.9362164E0,3.4171925E0,9.386158E-1,4.7066408E-1,2.6090076E0,2.8606968E0,1.2440331E0,2.6667142E0,0E0,0E0,0E0,0E0,0E0,0E0,0E0,0E0,0E0,0E0,0E0,0E0,0E0,0E0,0E0,0E0,0E0,0E0,0E0,0E0,0E0,0E0,0E0,0E0,0E0,0E0],"parents":[2147483647,0,0,1,1,2,2,3,3,4,4,5,5,6,6,7,7,8,8,9,9,11,11,12,12,13,13,14,14,15,15,17,17,18,18,19,19,20,20,21,21,22,22,23,23,24,24,25,25,26,26,27,27,28,28],"right_children":[2,4,6,8,10,12,14,16,18,20,-1,22,24,26,28,30,-1,32,34,36,38,40,42,44,46,48,50,52,54,-1,-1,-1,-1,-1,-1,-1,-1,-1,-1,-1,-1,-1,-1,-1,-1,-1,-1,-1,-1,-1,-1,-1,-1,-1,-1],"split_conditions":[5E0,1E0,1E0,1.4178572E1,1.9E1,1E0,3.6891584E0,1E0,1E0,3.5738616E0,5.626327E-3,1.0857142E1,6E0,2.7063215E0,3.9167154E0,3.708991E0,5.488328E-3,3.532165E0,1.5321428E1,1.4E1,3.391165E0,9E0,3.207135E0,2.023E3,1.2E1,1.5928572E1,1.3E1,1E0,2.022E3,-5.6135154E-4,-1.1534484E-4,-1.2901574E-3,-3.257283E-5,8.8223873E-4,-5.110692E-4,6.8106625E-4,-1.1779817E-3,3.2607743E-3,1.332207E-3,5.3670496E-4,-9.198246E-4,8.61835E-4,3.3104167E-4,3.959384E-3,1.6525543E-3,1.4580066E-3,1.06258514E-4,4.833003E-5,2.547746E-3,3.1507283E-3,1.6255507E-3,1.3327447E-4,2.3613854E-3,-2.346005E-4,1.3682358E-3],"split_indices":[3,5,21,36,31,5,35,20,21,37,0,36,3,35,35,37,0,33,36,31,35,28,33,0,28,34,31,13,0,0,0,0,0,0,0,0,0,0,0,0,0,0,0,0,0,0,0,0,0,0,0,0,0,0,0],"split_type":[0,0,0,0,0,0,0,0,0,0,0,0,0,0,0,0,0,0,0,0,0,0,0,0,0,0,0,0,0,0,0,0,0,0,0,0,0,0,0,0,0,0,0,0,0,0,0,0,0,0,0,0,0,0,0],"sum_hessian":[2.8779324E4,2.0343629E4,8.435694E3,1.9555336E4,7.8829346E2,6.2378594E3,2.1978354E3,1.7300879E4,2.2544568E3,7.623901E2,2.590342E1,6.032053E3,2.058057E2,1.0485789E3,1.1492566E3,1.727462E4,2.6258553E1,6.5200604E2,1.6024508E3,3.5494135E2,4.074487E2,8.3181165E2,5.2002417E3,1.0342192E2,1.0238377E2,2.5498013E2,7.9359875E2,4.5898975E2,6.902669E2,9.529016E3,7.7456045E3,2.5064377E2,4.013623E2,1.400306E3,2.0214474E2,3.0447028E2,5.0471092E1,7.7399796E1,3.3004892E2,2.7795496E2,5.538567E2,1.9285759E3,3.271666E3,7.798567E1,2.5436249E1,5.114402E1,5.1239754E1,2.0341333E2,5.15668E1,1.5361754E2,6.399812E2,4.3338135E2,2.5608368E1,1.26865906E2,5.63401E2],"tree_param":{"num_deleted":"0","num_feature":"42","num_nodes":"55","size_leaf_vector":"1"}},{"base_weights":[7.925084E-4,-2.1026408E-2,6.665011E-2,-4.535227E-2,4.0227253E-2,3.516744E-3,8.392778E-2,-6.0119726E-2,-1.3051948E-2,3.479428E-2,2.4521157E-1,-1.3935459E-2,1.5814896E-1,8.045567E-2,4.429826E-1,-6.522018E-2,9.519535E-2,-1.6075077E-2,2.6074013E-1,6.2560156E-2,8.724859E-3,3.4685382E-1,1.3913889E-1,-4.6908706E-2,8.616829E-3,2.4503832E-1,1.1264027E-1,4.97349E-2,1.2274747E-1,3.1062888E-3,5.569095E-3,-6.407633E-4,-2.9008272E-3,3.6828536E-5,1.7235046E-3,1.975115E-4,-3.9333978E-4,1.997725E-3,3.1183579E-3,-3.413855E-6,8.240832E-4,1.6080516E-3,-7.921225E-6,4.3098577E-3,1.642039E-3,1.2530788E-3,1.6107485E-3,-3.3227308E-4,-3.2330244E-3,-8.7013474E-4,3.5362286E-4,3.8430323E-3,9.4103086E-4,7.986804E-4,2.042184E-3,6.1233965E-4,-9.91736E-4,2.6779154E-3,1.1030183E-3],"categories":[],"categories_nodes":[],"categories_segments":[],"categories_sizes":[],"default_left":[0,0,0,0,0,0,0,0,0,0,0,0,0,0,0,0,0,0,0,0,0,0,0,0,0,0,0,0,0,0,0,0,0,0,0,0,0,0,0,0,0,0,0,0,0,0,0,0,0,0,0,0,0,0,0,0,0,0,0],"id":14,"left_children":[1,3,5,7,9,11,13,15,17,19,21,23,25,27,29,31,33,35,37,39,41,43,45,47,49,51,53,55,57,-1,-1,-1,-1,-1,-1,-1,-1,-1,-1,-1,-1,-1,-1,-1,-1,-1,-1,-1,-1,-1,-1,-1,-1,-1,-1,-1,-1,-1,-1],"loss_changes":[4.0622658E1,3.1643007E1,7.673725E0,7.249264E0,6.714223E0,4.084444E0,6.850464E0,8.268909E0,3.9524357E0,4.256977E0,1.6303959E0,1.0118732E0,5.7934046E-1,7.103161E0,6.2135506E-1,2.5790367E0,2.3438063E0,3.9329648E0,1.00168705E-1,3.555812E0,4.392477E0,1.1407375E0,3.437996E-3,2.0789332E0,2.0711644E0,1.0549521E0,2.9156566E-1,5.436166E0,4.125347E0,0E0,0E0,0E0,0E0,0E0,0E0,0E0,0E0,0E0,0E0,0E0,0E0,0E0,0E0,0E0,0E0,0E0,0E0,0E0,0E0,0E0,0E0,0E0,0E0,0E0,0E0,0E0,0E0,0E0,0E0],"parents":[2147483647,0,0,1,1,2,2,3,3,4,4,5,5,6,6,7,7,8,8,9,9,10,10,11,11,12,12,13,13,14,14,15,15,16,16,17,17,18,18,19,19,20,20,21,21,22,22,23,23,24,24,25,25,26,26,27,27,28,28],"right_children":[2,4,6,8,10,12,14,16,18,20,22,24,26,28,30,32,34,36,38,40,42,44,46,48,50,52,54,56,58,-1,-1,-1,-1,-1,-1,-1,-1,-1,-1,-1,-1,-1,-1,-1,-1,-1,-1,-1,-1,-1,-1,-1,-1,-1,-1,-1,-1,-1,-1],"split_conditions":[1E0,5E0,2.022E3,3.9258232E0,1E0,1.6E1,1E0,1E0,1E0,5E-1,3.7306275E0,3E0,3.0309756E0,4E0,2.023E3,4.980916E0,1E0,1.1E1,2.023E3,1.1428572E1,1.976047E0,2.023E3,2.024E3,1.5E1,1.1E1,8E0,9E0,4.716699E0,2.2677867E0,3.1062888E-3,5.569095E-3,-6.407633E-4,-2.9008272E-3,3.6828536E-5,1.7235046E-3,1.975115E-4,-3.9333978E-4,1.997725E-3,3.1183579E-3,-3.413855E-6,8.240832E-4,1.6080516E-3,-7.921225E-6,4.3098577E-3,1.642039E-3,1.2530788E-3,1.6107485E-3,-3.3227308E-4,-3.2330244E-3,-8.7013474E-4,3.5362286E-4,3.8430323E-3,9.4103086E-4,7.986804E-4,2.042184E-3,6.1233965E-4,-9.91736E-4,2.6779154E-3,1.1030183E-3],"split_indices":[21,3,0,35,5,31,14,5,19,41,35,3,35,3,0,33,26,31,0,34,33,0,0,31,31,2,2,35,33,0,0,0,0,0,0,0,0,0,0,0,0,0,0,0,0,0,0,0,0,0,0,0,0,0,0,0,0,0,0],"split_type":[0,0,0,0,0,0,0,0,0,0,0,0,0,0,0,0,0,0,0,0,0,0,0,0,0,0,0,0,0,0,0,0,0,0,0,0,0,0,0,0,0,0,0,0,0,0,0,0,0,0,0,0,0,0,0,0,0,0,0],"sum_hessian":[2.826825E4,2.1234008E4,7.0342407E3,1.5198457E4,6.035552E3,1.5116844E3,5.522556E3,1.0429368E4,4.769088E3,5.880853E3,1.5469841E2,1.3591923E3,1.5249219E2,5.470876E3,5.168016E1,1.0098325E4,3.3104294E2,4.7179355E3,5.1152725E1,2.84709E3,3.0337632E3,7.783982E1,7.685858E1,5.516118E2,8.075805E2,5.0908524E1,1.0158366E2,3.170211E3,2.300665E3,2.5630585E1,2.6049574E1,1.0048495E4,4.9830288E1,1.5191116E2,1.7913177E2,1.857278E3,2.8606575E3,2.55619E1,2.5590828E1,6.831325E2,2.1639575E3,1.7773181E2,2.8560312E3,5.2361504E1,2.5478317E1,5.1254288E1,2.5604298E1,5.266624E2,2.4949394E1,1.760058E2,6.315747E2,2.5673733E1,2.5234789E1,7.619027E1,2.539339E1,2.943496E3,2.2671497E2,1.8018889E2,2.1204763E3],"tree_param":{"num_deleted":"0","num_feature":"42","num_nodes":"59","size_leaf_vector":"1"}},{"base_weights":[-9.5504103E-4,-2.486452E-2,5.730533E-2,-5.264802E-2,7.4027395E-3,3.1243837E-2,1.1082001E-1,-8.531762E-2,-4.020342E-2,-9.865759E-3,6.317592E-2,2.607136E-2,1.8523252E-1,1.0357651E-1,2.9019E-1,-3.0755136E-2,-1.106144E-1,1.4405525E-2,-5.232592E-2,-1.1994061E-2,5.4270634E-3,1.11301474E-1,8.860096E-3,-1.8806283E-1,2.9130047E-2,1.4513615E-1,4.0794704E-3,9.708433E-2,3.1169197E-3,4.2744474E-3,1.4403093E-1,5.702806E-4,-5.430193E-4,-3.250516E-4,-1.2950605E-3,7.0895185E-5,1.4191443E-3,-4.4779538E-4,-1.137213E-3,-1.813381E-4,1.2428731E-3,1.5509581E-3,3.6108313E-4,4.169139E-4,-5.4787536E-4,-5.660198E-4,-2.5169265E-3,3.520478E-4,-8.043575E-4,1.7932293E-3,-2.6717887E-4,3.3408373E-3,9.2046947E-4,2.3369952E-3,4.8586982E-4],"categories":[],"categories_nodes":[],"categories_segments":[],"categories_sizes":[],"default_left":[0,0,0,0,0,0,0,0,0,0,0,0,0,0,0,0,0,0,0,0,0,0,0,0,0,0,0,0,0,0,0,0,0,0,0,0,0,0,0,0,0,0,0,0,0,0,0,0,0,0,0,0,0,0,0],"id":15,"left_children":[1,3,5,7,9,11,13,15,17,19,21,23,25,27,29,31,33,35,37,39,-1,41,43,45,47,49,-1,51,-1,-1,53,-1,-1,-1,-1,-1,-1,-1,-1,-1,-1,-1,-1,-1,-1,-1,-1,-1,-1,-1,-1,-1,-1,-1,-1],"loss_changes":[3.9701317E1,1.8116737E1,1.1562754E1,4.411207E0,9.0061865E0,4.4384665E0,3.4982948E0,4.1296234E0,5.2074375E0,8.404207E0,5.7778893E0,3.5412495E0,1.5582762E0,3.4985905E0,2.041915E0,1.9665723E0,3.0141277E0,1.3325759E0,2.9770432E0,5.954972E0,0E0,3.854127E0,2.1748152E0,6.2280583E-1,3.5458736E0,9.1570973E-1,0E0,2.9947605E0,0E0,0E0,4.3614352E-1,0E0,0E0,0E0,0E0,0E0,0E0,0E0,0E0,0E0,0E0,0E0,0E0,0E0,0E0,0E0,0E0,0E0,0E0,0E0,0E0,0E0,0E0,0E0,0E0],"parents":[2147483647,0,0,1,1,2,2,3,3,4,4,5,5,6,6,7,7,8,8,9,9,10,10,11,11,12,12,13,13,14,14,15,15,16,16,17,17,18,18,19,19,21,21,22,22,23,23,24,24,25,25,27,27,30,30],"right_children":[2,4,6,8,10,12,14,16,18,20,22,24,26,28,30,32,34,36,38,40,-1,42,44,46,48,50,-1,52,-1,-1,54,-1,-1,-1,-1,-1,-1,-1,-1,-1,-1,-1,-1,-1,-1,-1,-1,-1,-1,-1,-1,-1,-1,-1,-1],"split_conditions":[1E0,1.2571428E1,1.3035714E1,1.1357142E1,1.4178572E1,1E0,1E0,9E0,1.1E1,1E0,1.4892858E1,6E0,1E0,1.5285714E1,2.9E1,7E0,1.0214286E1,1E0,1.3142858E1,1E0,5.4270634E-3,1E0,4.027379E0,1E0,1.4428572E1,1E0,4.0794704E-3,1.0857142E1,3.1169197E-3,4.2744474E-3,2.024E3,5.702806E-4,-5.430193E-4,-3.250516E-4,-1.2950605E-3,7.0895185E-5,1.4191443E-3,-4.4779538E-4,-1.137213E-3,-1.813381E-4,1.2428731E-3,1.5509581E-3,3.6108313E-4,4.169139E-4,-5.4787536E-4,-5.660198E-4,-2.5169265E-3,3.520478E-4,-8.043575E-4,1.7932293E-3,-2.6717887E-4,3.3408373E-3,9.2046947E-4,2.3369952E-3,4.8586982E-4],"split_indices":[4,32,36,36,36,5,5,30,32,20,36,31,18,36,2,2,36,5,34,5,0,25,35,22,32,15,0,32,0,0,0,0,0,0,0,0,0,0,0,0,0,0,0,0,0,0,0,0,0,0,0,0,0,0,0],"split_type":[0,0,0,0,0,0,0,0,0,0,0,0,0,0,0,0,0,0,0,0,0,0,0,0,0,0,0,0,0,0,0,0,0,0,0,0,0,0,0,0,0,0,0,0,0,0,0,0,0,0,0,0,0,0,0],"sum_hessian":[2.849907E4,2.0206922E4,8.292147E3,1.0857509E4,9.349414E3,5.5775034E3,2.714644E3,2.993392E3,7.8641167E3,7.139656E3,2.209758E3,5.397375E3,1.8012843E2,2.61079E3,1.03854065E2,9.489097E2,2.0444823E3,1.428569E3,6.435548E3,7.113237E3,2.6419237E1,1.1710876E3,1.0386704E3,7.515843E1,5.322217E3,1.5404639E2,2.6082045E1,2.5332322E3,7.755792E1,5.2565994E1,5.128807E1,2.0039793E2,7.485118E2,3.987081E2,1.6457742E3,1.3520488E3,7.6520134E1,5.7326514E3,7.028964E2,6.807416E3,3.0582074E2,7.393876E2,4.3170013E2,6.854436E2,3.5322678E2,2.5129595E1,5.002884E1,5.0432773E3,2.7893924E2,1.284504E2,2.5595984E1,5.136332E1,2.4818687E3,2.5697235E1,2.5590834E1],"tree_param":{"num_deleted":"0","num_feature":"42","num_nodes":"55","size_leaf_vector":"1"}},{"base_weights":[3.030271E-3,-2.2763796E-2,6.358608E-2,-3.971051E-2,2.3208683E-2,4.9700573E-2,1.300587E-1,-6.813358E-2,-2.7973628E-2,4.14186E-2,-6.3842416E-2,-1.2440188E-1,5.354422E-2,2.263319E-1,9.8380454E-2,-7.74053E-2,3.4376472E-2,-3.936913E-2,2.0427823E-2,3.830816E-2,5.372854E-3,-8.468148E-2,6.89123E-2,-2.2755107E-1,-2.0202605E-2,-5.3266834E-2,5.8475435E-2,2.7015498E-1,1.460677E-1,6.330177E-2,2.1266535E-1,-1.7973963E-3,-7.1837887E-4,1.0772644E-3,-9.771942E-4,-4.097275E-4,2.1245724E-3,5.7896756E-4,-3.9690573E-4,1.822707E-4,8.3772145E-4,-1.4716269E-3,-5.1791896E-4,1.7736483E-3,-4.7985268E-5,-2.8375362E-3,-1.9485945E-3,-7.785161E-4,9.3204156E-4,-1.6843995E-4,-2.3262724E-3,2.0222797E-3,5.4982415E-4,3.4138316E-3,2.3264852E-3,6.661199E-4,1.9718457E-3,3.3867913E-3,5.4177013E-4,1.0781415E-3,2.8066367E-3],"categories":[],"categories_nodes":[],"categories_segments":[],"categories_sizes":[],"default_left":[0,0,0,0,0,0,0,0,0,0,0,0,0,0,0,0,0,0,0,0,0,0,0,0,0,0,0,0,0,0,0,0,0,0,0,0,0,0,0,0,0,0,0,0,0,0,0,0,0,0,0,0,0,0,0,0,0,0,0,0,0],"id":16,"left_children":[1,3,5,7,9,11,13,15,17,19,21,23,25,27,29,31,33,35,37,39,-1,41,43,45,47,49,51,53,55,57,59,-1,-1,-1,-1,-1,-1,-1,-1,-1,-1,-1,-1,-1,-1,-1,-1,-1,-1,-1,-1,-1,-1,-1,-1,-1,-1,-1,-1,-1,-1],"loss_changes":[4.4325474E1,1.5505402E1,7.817734E0,4.849003E0,8.5005045E0,4.700163E0,4.443022E0,4.0411186E0,5.67809E0,6.818226E0,2.572565E0,1.6269352E0,3.6178722E0,1.2328796E0,4.4101057E0,2.2072887E0,3.4320495E0,3.3734226E0,4.4223533E0,4.0222926E0,0E0,1.6412196E0,1.0115587E0,8.468819E-2,5.0812846E-1,1.9780463E0,3.283123E0,5.4250526E-1,5.145588E-1,2.1066859E0,1.8143291E0,0E0,0E0,0E0,0E0,0E0,0E0,0E0,0E0,0E0,0E0,0E0,0E0,0E0,0E0,0E0,0E0,0E0,0E0,0E0,0E0,0E0,0E0,0E0,0E0,0E0,0E0,0E0,0E0,0E0,0E0],"parents":[2147483647,0,0,1,1,2,2,3,3,4,4,5,5,6,6,7,7,8,8,9,9,10,10,11,11,12,12,13,13,14,14,15,15,16,16,17,17,18,18,19,19,21,21,22,22,23,23,24,24,25,25,26,26,27,27,28,28,29,29,30,30],"right_children":[2,4,6,8,10,12,14,16,18,20,22,24,26,28,30,32,34,36,38,40,-1,42,44,46,48,50,52,54,56,58,60,-1,-1,-1,-1,-1,-1,-1,-1,-1,-1,-1,-1,-1,-1,-1,-1,-1,-1,-1,-1,-1,-1,-1,-1,-1,-1,-1,-1,-1,-1],"split_conditions":[5E0,1.3357142E1,1.4071428E1,2.022E3,9E0,7E0,3.0394235E0,4.7745895E0,4.076197E0,1E0,1.9E1,6E0,1.0071428E1,1E0,4.5250626E0,6E0,3E0,1E0,8E0,8E0,5.372854E-3,3.5118847E0,2.023E3,4E0,2.022E3,9.857142E0,1.7994708E0,1.5E1,1.8E1,2.8400588E0,7E0,-1.7973963E-3,-7.1837887E-4,1.0772644E-3,-9.771942E-4,-4.097275E-4,2.1245724E-3,5.7896756E-4,-3.9690573E-4,1.822707E-4,8.3772145E-4,-1.4716269E-3,-5.1791896E-4,1.7736483E-3,-4.7985268E-5,-2.8375362E-3,-1.9485945E-3,-7.785161E-4,9.3204156E-4,-1.6843995E-4,-2.3262724E-3,2.0222797E-3,5.4982415E-4,3.4138316E-3,2.3264852E-3,6.661199E-4,1.9718457E-3,3.3867913E-3,5.4177013E-4,1.0781415E-3,2.8066367E-3],"split_indices":[3,34,34,0,1,31,33,35,35,20,30,3,34,25,33,31,3,16,1,1,0,33,0,1,0,34,33,30,31,35,2,0,0,0,0,0,0,0,0,0,0,0,0,0,0,0,0,0,0,0,0,0,0,0,0,0,0,0,0,0,0],"split_type":[0,0,0,0,0,0,0,0,0,0,0,0,0,0,0,0,0,0,0,0,0,0,0,0,0,0,0,0,0,0,0,0,0,0,0,0,0,0,0,0,0,0,0,0,0,0,0,0,0,0,0,0,0,0,0,0,0,0,0,0,0],"sum_hessian":[2.8375812E4,1.9899947E4,8.475864E3,1.4540177E4,5.3597715E3,7.012721E3,1.4631433E3,4.248012E3,1.0292164E4,4.4329766E3,9.267948E2,1.507977E2,6.8619233E3,3.6072412E2,1.1024192E3,3.895886E3,3.5212634E2,8.3309375E3,1.9612261E3,4.4064136E3,2.6563007E1,8.013635E2,1.2543128E2,7.51858E1,7.561191E1,3.0238596E2,6.5595376E3,2.3179929E2,1.2892484E2,8.447002E2,2.5771896E2,1.9940227E2,3.6964836E3,2.2652592E2,1.25600426E2,8.279055E3,5.1883408E1,1.2082305E3,7.529956E2,3.0573894E3,1.3490242E3,2.7516013E2,5.2620337E2,5.0185665E1,7.524562E1,2.4825974E1,5.0359825E1,5.0337128E1,2.5274776E1,2.522544E2,5.0131554E1,1.5425835E2,6.4052793E3,7.7161156E1,1.5463812E2,5.137345E1,7.755139E1,2.5933489E1,8.187667E2,1.0240279E2,1.5531618E2],"tree_param":{"num_deleted":"0","num_feature":"42","num_nodes":"61","size_leaf_vector":"1"}},{"base_weights":[-1.4842459E-3,-2.8127512E-2,6.2748626E-2,-4.7943845E-2,2.8608114E-2,3.5330378E-2,1.1363016E-1,-6.754451E-2,-2.5866466E-2,2.1782399E-3,8.2727514E-2,3.822635E-2,-1.6615042E-1,7.9231955E-2,1.4430487E-1,-1.0861465E-1,-5.4842092E-2,-2.7510323E-2,3.9265007E-3,-4.32124E-2,2.1027204E-2,4.182398E-1,7.195985E-2,3.1162716E-2,1.4471257E-1,-1.968575E-3,-9.986649E-4,7.2115816E-2,4.247658E-3,1.3545363E-1,3.0682525E-3,-1.2182299E-3,1.2451448E-3,-4.0115873E-4,-1.0049789E-3,-4.9987243E-4,1.2650358E-6,3.8207058E-4,-9.011223E-4,5.2700494E-4,-2.297223E-4,2.686716E-3,5.500083E-3,1.1852568E-3,1.7212746E-4,2.6314097E-4,1.4505159E-3,-1.0077405E-3,1.6542014E-3,3.8261951E-3,6.5818167E-4,1.897359E-3,9.845347E-4],"categories":[],"categories_nodes":[],"categories_segments":[],"categories_sizes":[],"default_left":[0,0,0,0,0,0,0,0,0,0,0,0,0,0,0,0,0,0,0,0,0,0,0,0,0,0,0,0,0,0,0,0,0,0,0,0,0,0,0,0,0,0,0,0,0,0,0,0,0,0,0,0,0],"id":17,"left_children":[1,3,5,7,9,11,13,15,17,19,21,23,25,27,29,31,33,35,-1,37,39,41,43,45,47,-1,-1,49,-1,51,-1,-1,-1,-1,-1,-1,-1,-1,-1,-1,-1,-1,-1,-1,-1,-1,-1,-1,-1,-1,-1,-1,-1],"loss_changes":[4.878323E1,2.2653622E1,1.1655045E1,6.4601707E0,7.4608636E0,3.1759706E0,3.075962E0,4.1203537E0,4.843427E0,3.0002356E0,6.1530275E0,4.0242295E0,1.3739252E-1,3.3663168E0,2.181656E0,5.765354E0,4.058964E0,4.34698E0,0E0,3.932537E0,3.4541726E0,8.97007E-1,4.2285786E0,2.7705488E0,1.7090125E0,0E0,0E0,2.6241198E0,0E0,2.9286556E0,0E0,0E0,0E0,0E0,0E0,0E0,0E0,0E0,0E0,0E0,0E0,0E0,0E0,0E0,0E0,0E0,0E0,0E0,0E0,0E0,0E0,0E0,0E0],"parents":[2147483647,0,0,1,1,2,2,3,3,4,4,5,5,6,6,7,7,8,8,9,9,10,10,11,11,12,12,13,13,14,14,15,15,16,16,17,17,19,19,20,20,21,21,22,22,23,23,24,24,27,27,29,29],"right_children":[2,4,6,8,10,12,14,16,18,20,22,24,26,28,30,32,34,36,-1,38,40,42,44,46,48,-1,-1,50,-1,52,-1,-1,-1,-1,-1,-1,-1,-1,-1,-1,-1,-1,-1,-1,-1,-1,-1,-1,-1,-1,-1,-1,-1],"split_conditions":[5E0,1E0,1.3035714E1,3.6760342E0,1.4178572E1,1.5E1,1E0,2.022E3,1E0,3.4677272E0,1.3928572E1,1E0,2.022E3,1E0,1.5321428E1,1.5E1,1.4E1,1.2246469E-16,3.9265007E-3,1.2285714E1,1.4E1,2E0,1.4928572E1,4.218252E0,9E0,-1.968575E-3,-9.986649E-4,7E0,4.247658E-3,1.4E1,3.0682525E-3,-1.2182299E-3,1.2451448E-3,-4.0115873E-4,-1.0049789E-3,-4.9987243E-4,1.2650358E-6,3.8207058E-4,-9.011223E-4,5.2700494E-4,-2.297223E-4,2.686716E-3,5.500083E-3,1.1852568E-3,1.7212746E-4,2.6314097E-4,1.4505159E-3,-1.0077405E-3,1.6542014E-3,3.8261951E-3,6.5818167E-4,1.897359E-3,9.845347E-4],"split_indices":[3,21,36,37,36,32,21,0,16,37,34,40,0,15,36,31,31,40,0,36,32,3,36,37,30,0,0,28,0,32,0,0,0,0,0,0,0,0,0,0,0,0,0,0,0,0,0,0,0,0,0,0,0],"split_type":[0,0,0,0,0,0,0,0,0,0,0,0,0,0,0,0,0,0,0,0,0,0,0,0,0,0,0,0,0,0,0,0,0,0,0,0,0,0,0,0,0,0,0,0,0,0,0,0,0,0,0,0,0],"sum_hessian":[2.8503275E4,2.014702E4,8.356256E3,1.4931853E4,5.2151675E3,5.4312456E3,2.9250103E3,7.9084966E3,7.023356E3,3.5046626E3,1.7105048E3,5.355085E3,7.6160706E1,1.3805088E3,1.5445013E3,1.8664006E3,6.042096E3,6.996808E3,2.654792E1,1.0279468E3,2.4767158E3,5.2011864E1,1.6584929E3,5.023172E3,3.319133E2,5.07022E1,2.5458504E1,1.3538358E3,2.6673038E1,1.4664675E3,7.80338E1,1.7667782E3,9.962246E1,4.5699453E3,1.4721511E3,3.8581675E3,3.1386409E3,3.757754E2,6.5217145E2,1.4399559E3,1.0367598E3,2.5783928E1,2.6227938E1,8.955807E2,7.6291223E2,4.8192324E3,2.0393925E2,2.551917E1,3.0639413E2,2.5724815E1,1.328111E3,5.9274036E2,8.737272E2],"tree_param":{"num_deleted":"0","num_feature":"42","num_nodes":"53","size_leaf_vector":"1"}},{"base_weights":[-1.4287973E-4,-2.5814619E-2,6.5154E-2,-4.5316767E-2,2.786629E-2,3.253101E-2,9.954893E-2,-5.0582584E-2,1.05484195E-1,-4.49793E-2,5.166662E-2,2.5507975E-2,1.676448E-1,1.9298954E-1,8.7794386E-2,-9.048451E-2,-3.9230365E-2,7.967611E-2,2.4598894E-1,-2.2593647E-2,-1.3236581E-1,4.6681277E-2,4.3423966E-1,1.1862158E-2,9.345569E-2,2.6452592E-2,2.5104332E-1,2.869981E-1,8.5678205E-2,6.1064526E-2,1.2605841E-1,1.6319618E-4,-1.0445582E-3,-5.4303074E-4,-1.1297989E-4,3.1116104E-4,1.2229214E-3,1.6524459E-3,3.8929137E-3,-1.3551766E-3,-4.2267424E-5,-1.1229847E-3,-3.224172E-3,4.3358564E-4,5.3283935E-3,3.0545502E-3,5.4447744E-3,-1.9427862E-4,5.723139E-4,2.2374783E-3,6.197388E-4,9.0652524E-4,-1.0039002E-3,2.037528E-3,3.1666034E-3,4.0287185E-3,2.2599362E-3,9.625871E-5,2.098447E-3,-1.3905511E-3,6.616976E-4,1.0401885E-3,2.0580972E-3],"categories":[],"categories_nodes":[],"categories_segments":[],"categories_sizes":[],"default_left":[0,0,0,0,0,0,0,0,0,0,0,0,0,0,0,0,0,0,0,0,0,0,0,0,0,0,0,0,0,0,0,0,0,0,0,0,0,0,0,0,0,0,0,0,0,0,0,0,0,0,0,0,0,0,0,0,0,0,0,0,0,0,0],"id":18,"left_children":[1,3,5,7,9,11,13,15,17,19,21,23,25,27,29,31,33,35,37,39,41,43,45,47,49,51,53,55,57,59,61,-1,-1,-1,-1,-1,-1,-1,-1,-1,-1,-1,-1,-1,-1,-1,-1,-1,-1,-1,-1,-1,-1,-1,-1,-1,-1,-1,-1,-1,-1,-1,-1],"loss_changes":[4.8160355E1,2.1590876E1,9.0942955E0,1.2017811E1,9.531377E0,3.9456468E0,4.3174324E0,6.617874E0,1.8323984E0,2.6458058E0,7.8818073E0,3.6688488E0,2.4131188E0,4.415436E0,3.5793686E0,4.831745E0,4.791294E0,8.9217234E-1,8.471708E-1,2.2376032E0,1.0161147E0,6.5853367E0,5.886078E-1,4.6819534E0,2.7007775E0,6.396006E-1,3.3599377E-1,1.5642986E0,1.9521935E0,2.1206641E0,2.512169E0,0E0,0E0,0E0,0E0,0E0,0E0,0E0,0E0,0E0,0E0,0E0,0E0,0E0,0E0,0E0,0E0,0E0,0E0,0E0,0E0,0E0,0E0,0E0,0E0,0E0,0E0,0E0,0E0,0E0,0E0,0E0,0E0],"parents":[2147483647,0,0,1,1,2,2,3,3,4,4,5,5,6,6,7,7,8,8,9,9,10,10,11,11,12,12,13,13,14,14,15,15,16,16,17,17,18,18,19,19,20,20,21,21,22,22,23,23,24,24,25,25,26,26,27,27,28,28,29,29,30,30],"right_children":[2,4,6,8,10,12,14,16,18,20,22,24,26,28,30,32,34,36,38,40,42,44,46,48,50,52,54,56,58,60,62,-1,-1,-1,-1,-1,-1,-1,-1,-1,-1,-1,-1,-1,-1,-1,-1,-1,-1,-1,-1,-1,-1,-1,-1,-1,-1,-1,-1,-1,-1,-1,-1],"split_conditions":[5E0,1E0,1.25E1,1E0,2.022E3,1E0,2.3704531E0,1.1357142E1,1E0,4.0606666E0,1E0,1.7E1,9E0,3.6520271E0,1E0,7E0,3.90618E0,1E0,1E0,2.1491969E0,1.4E1,1E0,2.023E3,1E0,3.2764995E0,1E0,1.2E1,1.2E1,2.1491969E0,3.258688E0,4.5981364E0,1.6319618E-4,-1.0445582E-3,-5.4303074E-4,-1.1297989E-4,3.1116104E-4,1.2229214E-3,1.6524459E-3,3.8929137E-3,-1.3551766E-3,-4.2267424E-5,-1.1229847E-3,-3.224172E-3,4.3358564E-4,5.3283935E-3,3.0545502E-3,5.4447744E-3,-1.9427862E-4,5.723139E-4,2.2374783E-3,6.197388E-4,9.0652524E-4,-1.0039002E-3,2.037528E-3,3.1666034E-3,4.0287185E-3,2.2599362E-3,9.625871E-5,2.098447E-3,-1.3905511E-3,6.616976E-4,1.0401885E-3,2.0580972E-3],"split_indices":[3,21,36,5,0,40,33,36,16,35,14,31,30,37,21,30,35,26,26,33,31,20,0,26,37,26,30,30,33,37,33,0,0,0,0,0,0,0,0,0,0,0,0,0,0,0,0,0,0,0,0,0,0,0,0,0,0,0,0,0,0,0,0],"split_type":[0,0,0,0,0,0,0,0,0,0,0,0,0,0,0,0,0,0,0,0,0,0,0,0,0,0,0,0,0,0,0,0,0,0,0,0,0,0,0,0,0,0,0,0,0,0,0,0,0,0,0,0,0,0,0,0,0,0,0,0,0,0,0],"sum_hessian":[2.8728408E4,2.062156E4,8.1068477E3,1.512635E4,5.495211E3,4.1615947E3,3.9452532E3,1.4616617E4,5.0973273E2,1.353049E3,4.142162E3,3.9570986E3,2.0449594E2,4.3912134E2,3.5061318E3,3.2358728E3,1.1380744E4,4.3195734E2,7.7775406E1,1.0781257E3,2.7492316E2,4.0899873E3,5.2174965E1,3.296286E3,6.608127E2,7.642572E1,1.2807022E2,2.3317621E2,2.0594511E2,2.0657031E3,1.4404288E3,3.7430658E2,2.8615664E3,7.391331E3,3.9894128E3,2.0270723E2,2.2925009E2,5.112304E1,2.6652367E1,1.499318E2,9.28194E2,2.5010564E2,2.4817505E1,4.0633052E3,2.668205E1,2.5802376E1,2.6372591E1,1.9511788E3,1.3451072E3,1.27408066E2,5.334046E2,5.093226E1,2.5493465E1,7.681468E1,5.1255535E1,7.84886E1,1.5468762E2,1.283859E2,7.755922E1,5.0734337E1,2.0149688E3,1.1303552E3,3.1007367E2],"tree_param":{"num_deleted":"0","num_feature":"42","num_nodes":"63","size_leaf_vector":"1"}},{"base_weights":[-2.1728287E-3,5.718314E-2,-2.4256596E-2,3.230113E-2,1.0832798E-1,-4.709948E-2,3.1444162E-2,4.526258E-3,9.9611774E-2,3.5635287E-1,1.003915E-1,-6.819027E-2,-1.7722156E-2,2.5308209E-2,2.053325E-1,6.000423E-4,5.2756537E-3,1.5366295E-1,6.0762346E-2,2.5404873E-3,5.3902995E-3,9.951563E-3,1.1307674E-1,-7.273745E-2,6.851069E-2,-9.103093E-2,-9.92268E-3,5.7840906E-2,-3.5022518E-3,3.3071798E-1,7.578435E-2,-5.633912E-4,2.1701206E-4,2.253727E-3,1.1296761E-3,-2.0968622E-5,1.1924184E-3,-5.477601E-4,1.3839139E-3,1.2890103E-3,3.8680263E-4,-1.0908649E-3,-6.1312347E-4,1.1464744E-3,-1.2921239E-4,-6.441412E-4,-1.9082914E-3,6.2973454E-4,-1.666308E-4,8.140326E-4,1.1978839E-4,1.6387529E-4,-8.2235364E-4,3.8265048E-3,1.6163115E-3,1.4194556E-3,8.217326E-5],"categories":[],"categories_nodes":[],"categories_segments":[],"categories_sizes":[],"default_left":[0,0,0,0,0,0,0,0,0,0,0,0,0,0,0,0,0,0,0,0,0,0,0,0,0,0,0,0,0,0,0,0,0,0,0,0,0,0,0,0,0,0,0,0,0,0,0,0,0,0,0,0,0,0,0,0,0],"id":19,"left_children":[1,3,5,7,9,11,13,15,17,19,21,23,25,27,29,31,-1,33,35,-1,-1,37,39,41,43,45,47,49,51,53,55,-1,-1,-1,-1,-1,-1,-1,-1,-1,-1,-1,-1,-1,-1,-1,-1,-1,-1,-1,-1,-1,-1,-1,-1,-1,-1],"loss_changes":[3.7888847E1,9.971165E0,2.6806273E1,9.860058E0,5.012945E0,9.255722E0,6.5326614E0,7.669111E0,3.225689E0,1.3419695E0,2.85174E0,5.410713E0,3.5697966E0,5.54871E0,3.3650904E0,4.4561596E0,0E0,1.8527117E0,3.3012652E0,0E0,0E0,2.5596871E0,2.5623035E0,3.4887924E0,1.055236E0,1.5825677E0,2.7750032E0,3.0035172E0,4.919224E0,8.668537E-1,4.635135E-1,0E0,0E0,0E0,0E0,0E0,0E0,0E0,0E0,0E0,0E0,0E0,0E0,0E0,0E0,0E0,0E0,0E0,0E0,0E0,0E0,0E0,0E0,0E0,0E0,0E0,0E0],"parents":[2147483647,0,0,1,1,2,2,3,3,4,4,5,5,6,6,7,7,8,8,9,9,10,10,11,11,12,12,13,13,14,14,15,15,17,17,18,18,21,21,22,22,23,23,24,24,25,25,26,26,27,27,28,28,29,29,30,30],"right_children":[2,4,6,8,10,12,14,16,18,20,22,24,26,28,30,32,-1,34,36,-1,-1,38,40,42,44,46,48,50,52,54,56,-1,-1,-1,-1,-1,-1,-1,-1,-1,-1,-1,-1,-1,-1,-1,-1,-1,-1,-1,-1,-1,-1,-1,-1,-1,-1],"split_conditions":[-5E-1,1.4178572E1,5E0,5E0,1.3928572E1,3.708991E0,1E0,1E0,1.2E1,3E1,1E0,1E0,3.207135E0,5E-1,6E0,3.4677272E0,5.2756537E-3,3.6472178E0,1.2964286E1,2.5404873E-3,5.3902995E-3,1.4E1,1.6428572E1,2.022E3,3.2250736E0,1.4E1,3.7466035E0,1.6E1,1.6E1,2.023E3,1.2E1,-5.633912E-4,2.1701206E-4,2.253727E-3,1.1296761E-3,-2.0968622E-5,1.1924184E-3,-5.477601E-4,1.3839139E-3,1.2890103E-3,3.8680263E-4,-1.0908649E-3,-6.1312347E-4,1.1464744E-3,-1.2921239E-4,-6.441412E-4,-1.9082914E-3,6.2973454E-4,-1.666308E-4,8.140326E-4,1.1978839E-4,1.6387529E-4,-8.2235364E-4,3.8265048E-3,1.6163115E-3,1.4194556E-3,8.217326E-5],"split_indices":[41,36,3,3,34,37,5,20,2,2,3,5,35,41,3,37,0,35,36,0,0,31,32,0,35,28,37,29,28,0,28,0,0,0,0,0,0,0,0,0,0,0,0,0,0,0,0,0,0,0,0,0,0,0,0,0,0],"split_type":[0,0,0,0,0,0,0,0,0,0,0,0,0,0,0,0,0,0,0,0,0,0,0,0,0,0,0,0,0,0,0,0,0,0,0,0,0,0,0,0,0,0,0,0,0,0,0,0,0,0,0,0,0,0,0,0,0],"sum_hessian":[2.8902998E4,7.837108E3,2.106589E4,5.2732827E3,2.563825E3,1.4939397E4,6.1264927E3,3.7336907E3,1.5395923E3,7.813421E1,2.4856907E3,8.695405E3,6.243992E3,5.9187837E3,2.0770903E2,3.706866E3,2.6824604E1,6.425951E2,8.9699713E2,5.161763E1,2.6516577E1,3.059798E2,2.179711E3,8.415928E3,2.794773E2,5.994043E2,5.644588E3,2.779346E3,3.1394377E3,1.047612E2,1.0294784E2,1.0018403E3,2.705026E3,2.3100322E2,4.115919E2,4.3277475E2,4.642224E2,2.0383179E2,1.02148026E2,1.7967957E3,3.8291522E2,2.0106104E3,6.4053174E3,1.7814058E2,1.0133671E2,4.7449814E2,1.2490617E2,4.7704916E2,5.167539E3,1.8355356E3,9.4381024E2,2.5069236E3,6.325143E2,7.917938E1,2.5581812E1,5.1458836E1,5.1489E1],"tree_param":{"num_deleted":"0","num_feature":"42","num_nodes":"57","size_leaf_vector":"1"}},{"base_weights":[2.9083749E-3,-2.2081656E-2,6.2663816E-2,-4.2853106E-2,3.6726814E-2,3.8511164E-2,1.1096722E-1,-4.718118E-2,8.911375E-2,1.5638336E-3,1.1379995E-1,1.6101379E-2,6.897408E-2,1.3187179E-1,4.7876384E-2,-6.5781355E-2,-2.2186764E-2,3.4916773E-2,1.4833282E-1,-2.3926115E-3,5.2236905E-3,1.03482984E-1,4.2729634E-1,1.2916942E-2,3.998877E-3,8.783504E-2,1.4997596E-3,2.1174492E-1,1.1423685E-1,3.1604692E-2,1.4401507E-1,-9.162481E-4,-5.4930744E-4,-9.956058E-4,-1.553333E-4,5.866727E-4,-5.997969E-4,9.731295E-4,3.1659934E-3,-8.054118E-5,1.5456283E-3,1.3445842E-3,5.7685666E-4,3.0210784E-3,5.3366385E-3,2.261274E-4,-1.037424E-3,6.3221395E-4,1.3123107E-3,2.6246705E-4,-1.0276955E-3,4.7994714E-4,2.5185347E-3,2.273965E-3,9.022987E-4,8.767283E-4,1.2753309E-4,1.7567374E-3,4.6079114E-4],"categories":[],"categories_nodes":[],"categories_segments":[],"categories_sizes":[],"default_left":[0,0,0,0,0,0,0,0,0,0,0,0,0,0,0,0,0,0,0,0,0,0,0,0,0,0,0,0,0,0,0,0,0,0,0,0,0,0,0,0,0,0,0,0,0,0,0,0,0,0,0,0,0,0,0,0,0,0,0],"id":20,"left_children":[1,3,5,7,9,11,13,15,17,19,21,23,25,27,29,31,33,35,37,39,-1,41,43,45,-1,47,49,51,53,55,57,-1,-1,-1,-1,-1,-1,-1,-1,-1,-1,-1,-1,-1,-1,-1,-1,-1,-1,-1,-1,-1,-1,-1,-1,-1,-1,-1,-1],"loss_changes":[4.380361E1,2.5267498E1,1.0087284E1,8.734678E0,1.46325E1,3.9365892E0,3.795868E0,6.879383E0,1.5537946E0,7.643211E0,5.426813E0,4.058016E0,3.1107855E0,3.0250893E0,1.1202905E0,2.3743935E0,3.2501519E0,5.780932E-1,1.9592409E0,3.2728684E0,0E0,2.3172817E0,5.5217457E-1,3.7330842E0,0E0,2.0323038E0,1.3832923E0,2.5516472E0,4.8027554E0,6.502338E-1,3.137505E-1,0E0,0E0,0E0,0E0,0E0,0E0,0E0,0E0,0E0,0E0,0E0,0E0,0E0,0E0,0E0,0E0,0E0,0E0,0E0,0E0,0E0,0E0,0E0,0E0,0E0,0E0,0E0,0E0],"parents":[2147483647,0,0,1,1,2,2,3,3,4,4,5,5,6,6,7,7,8,8,9,9,10,10,11,11,12,12,13,13,14,14,15,15,16,16,17,17,18,18,19,19,21,21,22,22,23,23,25,25,26,26,27,27,28,28,29,29,30,30],"right_children":[2,4,6,8,10,12,14,16,18,20,22,24,26,28,30,32,34,36,38,40,-1,42,44,46,-1,48,50,52,54,56,58,-1,-1,-1,-1,-1,-1,-1,-1,-1,-1,-1,-1,-1,-1,-1,-1,-1,-1,-1,-1,-1,-1,-1,-1,-1,-1,-1,-1],"split_conditions":[5E0,1E0,1.3035714E1,1E0,1.4178572E1,3.6180031E0,4.157609E0,3.7039948E0,1E0,1E0,1E0,1E0,1.7E1,2.7688746E0,5.559205E0,1.1214286E1,3.207135E0,1.4E1,1.3142858E1,1E0,5.2236905E-3,1.4928572E1,2.023E3,4.3369946E0,3.998877E-3,1.2571428E1,1.3642858E1,1.2142858E1,1.2285714E1,1.2E1,1.5E1,-9.162481E-4,-5.4930744E-4,-9.956058E-4,-1.553333E-4,5.866727E-4,-5.997969E-4,9.731295E-4,3.1659934E-3,-8.054118E-5,1.5456283E-3,1.3445842E-3,5.7685666E-4,3.0210784E-3,5.3366385E-3,2.261274E-4,-1.037424E-3,6.3221395E-4,1.3123107E-3,2.6246705E-4,-1.0276955E-3,4.7994714E-4,2.5185347E-3,2.273965E-3,9.022987E-4,8.767283E-4,1.2753309E-4,1.7567374E-3,4.6079114E-4],"split_indices":[3,21,36,5,36,37,37,37,26,20,14,18,28,33,33,36,35,28,32,5,0,36,0,33,0,34,34,32,32,28,28,0,0,0,0,0,0,0,0,0,0,0,0,0,0,0,0,0,0,0,0,0,0,0,0,0,0,0,0],"split_type":[0,0,0,0,0,0,0,0,0,0,0,0,0,0,0,0,0,0,0,0,0,0,0,0,0,0,0,0,0,0,0,0,0,0,0,0,0,0,0,0,0,0,0,0,0,0,0,0,0,0,0,0,0,0,0,0,0,0,0],"sum_hessian":[2.9331697E4,2.0682713E4,8.648985E3,1.5284441E4,5.398271E3,5.767113E3,2.8818728E3,1.4799703E4,4.8473853E2,3.707722E3,1.6905491E3,3.3236362E3,2.4434766E3,2.1638203E3,7.180526E2,8.484291E3,6.315412E3,2.5393144E2,2.308071E2,3.6807556E3,2.6966497E1,1.6379745E3,5.2574596E1,3.2973105E3,2.6325514E1,1.9094342E3,5.3404236E2,3.8934985E2,1.7744703E3,6.152491E2,1.0280354E2,2.5066438E3,5.977647E3,4.989603E2,5.816452E3,2.0340533E2,5.0526104E1,1.783179E2,5.248919E1,3.5535256E3,1.2722979E2,9.759475E2,6.62027E2,2.59147E1,2.6659897E1,3.0450374E3,2.5227322E2,1.2199512E3,6.894831E2,4.3221103E2,1.0183131E2,7.703552E1,3.1231433E2,3.0908597E2,1.4653844E3,1.5389145E2,4.6135764E2,7.708981E1,2.5713722E1],"tree_param":{"num_deleted":"0","num_feature":"42","num_nodes":"59","size_leaf_vector":"1"}},{"base_weights":[-2.3886873E-3,-2.7407091E-2,5.9568193E-2,-4.5717087E-2,2.3993006E-2,5.3722188E-2,2.3887928E-1,-6.7050844E-2,-1.8926093E-2,-1.5556634E-2,5.1014706E-2,3.705963E-2,1.02820255E-1,3.2995644E-1,1.444185E-1,-7.0781685E-2,6.633929E-2,-2.059683E-2,3.834253E-3,-2.8672634E-2,5.8371548E-2,6.2182073E-2,-7.963625E-2,6.257102E-2,2.1019202E-2,8.607011E-2,1.6305605E-1,4.1211173E-3,1.9734156E-1,2.9390566E-3,1.0396721E-1,-1.0340232E-3,-6.0885574E-4,1.9486244E-3,4.9185415E-4,-9.6754235E-4,-1.3108224E-4,-7.4051326E-4,5.843594E-6,3.5757204E-3,3.2369856E-4,-4.781345E-4,7.0210826E-4,-1.232472E-3,9.215278E-4,1.6061592E-4,1.00418E-3,4.0119447E-4,-1.762345E-4,2.1934141E-3,7.413664E-4,2.4733196E-3,8.7038736E-4,2.2643963E-3,1.6046518E-3,6.524781E-4,1.4066164E-3],"categories":[],"categories_nodes":[],"categories_segments":[],"categories_sizes":[],"default_left":[0,0,0,0,0,0,0,0,0,0,0,0,0,0,0,0,0,0,0,0,0,0,0,0,0,0,0,0,0,0,0,0,0,0,0,0,0,0,0,0,0,0,0,0,0,0,0,0,0,0,0,0,0,0,0,0,0],"id":21,"left_children":[1,3,5,7,9,11,13,15,17,19,21,23,25,27,29,31,33,35,-1,37,39,41,43,45,47,49,51,-1,53,-1,55,-1,-1,-1,-1,-1,-1,-1,-1,-1,-1,-1,-1,-1,-1,-1,-1,-1,-1,-1,-1,-1,-1,-1,-1,-1,-1],"loss_changes":[4.47207E1,1.9343199E1,8.686575E0,8.6600895E0,5.77048E0,6.572256E0,2.204111E0,4.2028656E0,4.5247116E0,2.1272936E0,4.684966E0,2.4552164E0,2.0403843E0,1.3619976E0,7.571137E-1,2.643013E0,4.9758363E-1,3.8154836E0,0E0,2.4728065E0,2.5607915E0,2.613533E0,1.906956E0,4.0766487E0,2.72215E0,2.5208492E0,2.8094864E0,0E0,2.009964E-2,0E0,1.3867664E-1,0E0,0E0,0E0,0E0,0E0,0E0,0E0,0E0,0E0,0E0,0E0,0E0,0E0,0E0,0E0,0E0,0E0,0E0,0E0,0E0,0E0,0E0,0E0,0E0,0E0,0E0],"parents":[2147483647,0,0,1,1,2,2,3,3,4,4,5,5,6,6,7,7,8,8,9,9,10,10,11,11,12,12,13,13,14,14,15,15,16,16,17,17,19,19,20,20,21,21,22,22,23,23,24,24,25,25,26,26,28,28,30,30],"right_children":[2,4,6,8,10,12,14,16,18,20,22,24,26,28,30,32,34,36,-1,38,40,42,44,46,48,50,52,-1,54,-1,56,-1,-1,-1,-1,-1,-1,-1,-1,-1,-1,-1,-1,-1,-1,-1,-1,-1,-1,-1,-1,-1,-1,-1,-1,-1,-1],"split_conditions":[5E0,1E0,1E0,3.708991E0,1.3571428E1,1E0,3.7621598E0,1E0,1E0,3.9284272E0,4.8334913E0,3.1997023E0,2.024E3,2.9E1,6E0,2.022E3,9E0,3.207135E0,3.834253E-3,-8.660254E-1,1.1428572E1,2.022E3,2.9E1,3.2764995E0,1E0,2.309401E0,3.6162028E0,4.1211173E-3,2.024E3,2.9390566E-3,2.023E3,-1.0340232E-3,-6.0885574E-4,1.9486244E-3,4.9185415E-4,-9.6754235E-4,-1.3108224E-4,-7.4051326E-4,5.843594E-6,3.5757204E-3,3.2369856E-4,-4.781345E-4,7.0210826E-4,-1.232472E-3,9.215278E-4,1.6061592E-4,1.00418E-3,4.0119447E-4,-1.762345E-4,2.1934141E-3,7.413664E-4,2.4733196E-3,8.7038736E-4,2.2643963E-3,1.6046518E-3,6.524781E-4,1.4066164E-3],"split_indices":[3,21,5,37,32,21,35,5,16,37,35,33,0,2,3,0,31,35,0,41,32,0,2,37,25,33,35,0,0,0,0,0,0,0,0,0,0,0,0,0,0,0,0,0,0,0,0,0,0,0,0,0,0,0,0,0,0],"split_type":[0,0,0,0,0,0,0,0,0,0,0,0,0,0,0,0,0,0,0,0,0,0,0,0,0,0,0,0,0,0,0,0,0,0,0,0,0,0,0,0,0,0,0,0,0,0,0,0,0,0,0,0,0,0,0,0,0],"sum_hessian":[2.8848848E4,2.0550887E4,8.297962E3,1.5153089E4,5.3977974E3,8.0372275E3,2.6073468E2,8.43487E3,6.7182188E3,2.19117E3,3.2066272E3,6.002049E3,2.0351783E3,1.3147557E2,1.2925912E2,8.205827E3,2.2904251E2,6.6913823E3,2.6836695E1,1.8615199E3,3.296502E2,2.9546067E3,2.5202036E2,2.3158774E3,3.6861716E3,1.5942767E3,4.4090164E2,7.988129E1,5.1594284E1,2.6193968E1,1.0306515E2,1.907772E3,6.2980557E3,2.5750519E1,2.0329199E2,5.9799445E2,6.0933877E3,7.291108E2,1.132409E3,2.5337753E1,3.0431244E2,2.006539E2,2.753953E3,2.0122043E2,5.0799923E1,1.0396707E3,1.2762067E3,2.466831E3,1.2193406E3,1.2959518E2,1.4646815E3,2.0802403E2,2.328776E2,2.5965302E1,2.5628983E1,5.1500618E1,5.156453E1],"tree_param":{"num_deleted":"0","num_feature":"42","num_nodes":"57","size_leaf_vector":"1"}},{"base_weights":[4.473953E-5,-2.5089942E-2,6.2217306E-2,-4.1136112E-2,1.9444685E-2,4.1361526E-2,1.16803035E-1,-6.0415644E-2,-1.6541785E-2,1.6799599E-2,5.1724324E-3,-1.8733852E-1,4.4347428E-2,1.590284E-1,8.3862446E-2,-7.372963E-2,-3.3090636E-2,-1.8253133E-2,3.8017812E-3,-1.9406555E-2,4.603182E-2,-2.5082856E-1,-5.6619535E-4,4.256519E-2,4.082653E-3,1.3550922E-1,2.612852E-1,7.6893374E-2,3.9441544E-3,-7.595603E-4,1.6225923E-3,2.1150296E-4,-5.4671755E-4,-2.0510852E-4,2.5933217E-3,-3.6567208E-4,7.7584584E-4,5.9721485E-4,-1.1674993E-3,-2.8323026E-3,-2.0921433E-3,8.7617576E-5,6.266556E-4,1.0864096E-3,2.7259104E-3,3.3715146E-3,1.5693046E-3,5.007515E-4,1.3535301E-3],"categories":[],"categories_nodes":[],"categories_segments":[],"categories_sizes":[],"default_left":[0,0,0,0,0,0,0,0,0,0,0,0,0,0,0,0,0,0,0,0,0,0,0,0,0,0,0,0,0,0,0,0,0,0,0,0,0,0,0,0,0,0,0,0,0,0,0,0,0],"id":22,"left_children":[1,3,5,7,9,11,13,15,17,19,-1,21,23,25,27,29,31,33,-1,35,37,39,-1,41,-1,43,45,47,-1,-1,-1,-1,-1,-1,-1,-1,-1,-1,-1,-1,-1,-1,-1,-1,-1,-1,-1,-1,-1],"loss_changes":[4.410563E1,1.436362E1,9.245356E0,7.00506E0,7.001916E0,4.024087E0,3.1102982E0,3.0107079E0,4.4160185E0,5.6073656E0,0E0,6.16384E-1,3.7481346E0,2.3288097E0,2.7046003E0,2.9378357E0,3.179555E0,4.0584126E0,0E0,3.9425964E0,6.5388474E0,9.307861E-3,0E0,3.9257374E0,0E0,2.921691E0,1.393878E0,1.9328532E0,0E0,0E0,0E0,0E0,0E0,0E0,0E0,0E0,0E0,0E0,0E0,0E0,0E0,0E0,0E0,0E0,0E0,0E0,0E0,0E0,0E0],"parents":[2147483647,0,0,1,1,2,2,3,3,4,4,5,5,6,6,7,7,8,8,9,9,11,11,12,12,13,13,14,14,15,15,16,16,17,17,19,19,20,20,21,21,23,23,25,25,26,26,27,27],"right_children":[2,4,6,8,10,12,14,16,18,20,-1,22,24,26,28,30,32,34,-1,36,38,40,-1,42,-1,44,46,48,-1,-1,-1,-1,-1,-1,-1,-1,-1,-1,-1,-1,-1,-1,-1,-1,-1,-1,-1,-1,-1],"split_conditions":[5E0,1E0,1E0,3.708991E0,1E0,6E0,3.6891584E0,1E0,1E0,1.3571428E1,5.1724324E-3,5E0,1E0,3.708991E0,1E0,1E0,9E0,1E0,3.8017812E-3,3.9284272E0,4.8334913E0,4E0,-5.6619535E-4,3.4783914E0,4.082653E-3,3.59232E0,3.1622777E0,4.221869E0,3.9441544E-3,-7.595603E-4,1.6225923E-3,2.1150296E-4,-5.4671755E-4,-2.0510852E-4,2.5933217E-3,-3.6567208E-4,7.7584584E-4,5.9721485E-4,-1.1674993E-3,-2.8323026E-3,-2.0921433E-3,8.7617576E-5,6.266556E-4,1.0864096E-3,2.7259104E-3,3.3715146E-3,1.5693046E-3,5.007515E-4,1.3535301E-3],"split_indices":[3,21,21,37,20,31,35,26,16,32,0,1,15,37,12,16,2,19,0,37,35,1,0,37,0,33,33,35,0,0,0,0,0,0,0,0,0,0,0,0,0,0,0,0,0,0,0,0,0],"split_type":[0,0,0,0,0,0,0,0,0,0,0,0,0,0,0,0,0,0,0,0,0,0,0,0,0,0,0,0,0,0,0,0,0,0,0,0,0,0,0,0,0,0,0,0,0,0,0,0,0],"sum_hessian":[2.8222217E4,2.0097812E4,8.124404E3,1.4774517E4,5.3232964E3,5.8796865E3,2.244717E3,8.28132E3,6.493196E3,5.2961885E3,2.7107893E1,7.498006E1,5.8047065E3,9.820432E2,1.2626738E3,5.567086E3,2.7142344E3,6.4662563E3,2.693979E1,2.3660305E3,2.9301582E3,4.9849415E1,2.5130638E1,5.777529E3,2.7177673E1,8.002988E2,1.817444E2,1.2361804E3,2.649334E1,5.5157266E3,5.135922E1,7.725543E2,1.94168E3,6.4150063E3,5.1249863E1,2.01087E3,3.5516043E2,2.703437E3,2.2672127E2,2.4762629E1,2.5086786E1,2.1549375E3,3.6225916E3,6.7064404E2,1.2965482E2,1.039451E2,7.77993E1,8.4869855E2,3.874819E2],"tree_param":{"num_deleted":"0","num_feature":"42","num_nodes":"49","size_leaf_vector":"1"}},{"base_weights":[-3.377199E-3,-2.718691E-2,5.740974E-2,-4.3114852E-2,2.7173463E-2,3.4243885E-2,1.13246895E-1,-8.543108E-2,-3.329926E-2,1.8555474E-2,1.9540437E-1,-1.8678114E-1,3.713858E-2,7.1357004E-2,1.4387783E-1,-3.386635E-2,-1.13832906E-1,-9.518266E-3,-4.8262596E-2,3.0464305E-2,-8.941933E-2,1.4975375E-1,5.270946E-3,-2.5023523E-1,-5.6379865E-4,3.246629E-2,1.6156004E-1,1.0976339E-1,3.6407847E-2,2.8832167E-1,1.3206378E-1,-1.268519E-3,1.054108E-5,-1.004408E-3,-1.8933914E-3,-4.030586E-5,-8.384276E-4,-5.7155755E-4,3.6009951E-6,-2.3438147E-4,5.2904745E-4,9.654647E-4,-1.4303098E-3,1.9206107E-3,-1.4168107E-3,-2.8264867E-3,-2.0863556E-3,6.855194E-7,5.2157167E-4,3.9236406E-3,1.2579653E-3,2.289954E-3,7.7333645E-4,-3.6689456E-4,9.1099134E-4,2.5665439E-3,3.6993392E-3,3.717723E-4,1.527211E-3],"categories":[],"categories_nodes":[],"categories_segments":[],"categories_sizes":[],"default_left":[0,0,0,0,0,0,0,0,0,0,0,0,0,0,0,0,0,0,0,0,0,0,0,0,0,0,0,0,0,0,0,0,0,0,0,0,0,0,0,0,0,0,0,0,0,0,0,0,0,0,0,0,0,0,0,0,0,0,0],"id":23,"left_children":[1,3,5,7,9,11,13,15,17,19,21,23,25,27,29,31,33,35,37,39,41,43,-1,45,-1,47,49,51,53,55,57,-1,-1,-1,-1,-1,-1,-1,-1,-1,-1,-1,-1,-1,-1,-1,-1,-1,-1,-1,-1,-1,-1,-1,-1,-1,-1,-1,-1],"loss_changes":[4.2582623E1,1.8305984E1,1.0707405E1,6.7885056E0,6.942891E0,3.7523575E0,3.1047955E0,4.503845E0,4.7228804E0,5.8648562E0,3.454874E0,6.1345744E-1,3.3543973E0,1.3750353E0,2.353241E0,3.5544384E0,1.9874859E0,2.0910609E0,3.522869E0,4.9688263E0,4.531422E0,2.5738463E0,0E0,9.428501E-3,0E0,3.5541396E0,1.6751037E0,1.8730388E0,2.1597488E0,1.766882E-1,2.5370102E0,0E0,0E0,0E0,0E0,0E0,0E0,0E0,0E0,0E0,0E0,0E0,0E0,0E0,0E0,0E0,0E0,0E0,0E0,0E0,0E0,0E0,0E0,0E0,0E0,0E0,0E0,0E0,0E0],"parents":[2147483647,0,0,1,1,2,2,3,3,4,4,5,5,6,6,7,7,8,8,9,9,10,10,11,11,12,12,13,13,14,14,15,15,16,16,17,17,18,18,19,19,20,20,21,21,23,23,25,25,26,26,27,27,28,28,29,29,30,30],"right_children":[2,4,6,8,10,12,14,16,18,20,22,24,26,28,30,32,34,36,38,40,42,44,-1,46,-1,48,50,52,54,56,58,-1,-1,-1,-1,-1,-1,-1,-1,-1,-1,-1,-1,-1,-1,-1,-1,-1,-1,-1,-1,-1,-1,-1,-1,-1,-1,-1,-1],"split_conditions":[5E0,1.3464286E1,1.3142858E1,1.1214286E1,1E0,6E0,1E0,9E0,1.1E1,4.7745895E0,2E1,5E0,1E0,1.5E1,1.2285714E1,8E0,1.2E1,1.3214286E1,1E0,1.3571428E1,1.3714286E1,1.6285715E1,5.270946E-3,4E0,-5.6379865E-4,1.3E1,1.0357142E1,1.5E1,1.3607142E1,1.2142858E1,1.3571428E1,-1.268519E-3,1.054108E-5,-1.004408E-3,-1.8933914E-3,-4.030586E-5,-8.384276E-4,-5.7155755E-4,3.6009951E-6,-2.3438147E-4,5.2904745E-4,9.654647E-4,-1.4303098E-3,1.9206107E-3,-1.4168107E-3,-2.8264867E-3,-2.0863556E-3,6.855194E-7,5.2157167E-4,3.9236406E-3,1.2579653E-3,2.289954E-3,7.7333645E-4,-3.6689456E-4,9.1099134E-4,2.5665439E-3,3.6993392E-3,3.717723E-4,1.527211E-3],"split_indices":[3,36,36,36,5,31,21,30,31,35,28,1,5,28,32,29,1,36,21,32,34,32,0,1,0,31,34,30,36,32,34,0,0,0,0,0,0,0,0,0,0,0,0,0,0,0,0,0,0,0,0,0,0,0,0,0,0,0,0],"split_type":[0,0,0,0,0,0,0,0,0,0,0,0,0,0,0,0,0,0,0,0,0,0,0,0,0,0,0,0,0,0,0,0,0,0,0,0,0,0,0,0,0,0,0,0,0,0,0,0,0,0,0,0,0,0,0,0,0,0,0],"sum_hessian":[2.9419639E4,2.1139885E4,8.279754E3,1.63495625E4,4.790322E3,5.8530425E3,2.4267114E3,3.0769124E3,1.327265E4,4.5579414E3,2.3238007E2,7.484335E1,5.778199E3,1.0263871E3,1.4003243E3,1.0936096E3,1.9833027E3,5.126624E3,8.146026E3,4.105818E3,4.521238E2,2.0554266E2,2.6837399E1,4.9726944E1,2.5116411E1,5.570284E3,2.0791524E2,4.8798694E2,5.3840015E2,1.0410365E2,1.2962207E3,2.9785477E2,7.957548E2,1.686507E3,2.9679572E2,4.7751123E3,3.5151175E2,6.886331E3,1.2596951E3,1.2068623E3,2.8989553E3,1.0099519E2,3.5112863E2,1.797845E2,2.5758163E1,2.4692589E1,2.5034357E1,2.1060945E3,3.4641895E3,2.6556784E1,1.8135846E2,1.0304988E2,3.8493707E2,2.3056676E2,3.078334E2,7.7987595E1,2.6116058E1,2.3224341E2,1.0639773E3],"tree_param":{"num_deleted":"0","num_feature":"42","num_nodes":"59","size_leaf_vector":"1"}},{"base_weights":[-3.6703094E-4,-2.3731383E-2,5.562235E-2,-4.189546E-2,2.9053954E-2,3.3729278E-2,1.0958918E-1,-6.506635E-2,-1.4159373E-2,-4.0436644E-2,5.3927064E-2,-1.5678552E-1,3.8609713E-2,1.0201215E-1,2.752504E-1,-6.932766E-2,6.888809E-2,-9.5966615E-2,-5.69931E-3,-1.354336E-1,-1.9302627E-2,5.0524972E-2,5.1219445E-3,-8.553432E-2,-2.2662792E-1,3.397091E-2,1.8352894E-1,1.1035221E-1,-1.6685542E-2,4.0351436E-3,1.3669837E-1,-1.0159425E-3,-5.8746437E-4,1.1540935E-3,-2.1244365E-5,-4.264746E-4,-1.5778943E-3,-7.916522E-5,2.5742673E-3,-6.312131E-4,-2.4283077E-3,2.8087784E-4,-5.097911E-4,2.1323616E-4,9.0273726E-4,-9.876539E-4,-5.61411E-4,-2.8206678E-3,-1.9452156E-3,1.4696312E-4,6.384655E-4,2.8769537E-3,1.0223626E-3,7.3484314E-4,1.3578102E-3,-1.0544697E-3,2.8272002E-4,2.2345711E-3,4.3999287E-4],"categories":[],"categories_nodes":[],"categories_segments":[],"categories_sizes":[],"default_left":[0,0,0,0,0,0,0,0,0,0,0,0,0,0,0,0,0,0,0,0,0,0,0,0,0,0,0,0,0,0,0,0,0,0,0,0,0,0,0,0,0,0,0,0,0,0,0,0,0,0,0,0,0,0,0,0,0,0,0],"id":24,"left_children":[1,3,5,7,9,11,13,15,17,19,21,23,25,27,29,31,33,35,37,39,41,43,-1,45,47,49,51,53,55,-1,57,-1,-1,-1,-1,-1,-1,-1,-1,-1,-1,-1,-1,-1,-1,-1,-1,-1,-1,-1,-1,-1,-1,-1,-1,-1,-1,-1,-1],"loss_changes":[3.783546E1,1.9567318E1,1.0057728E1,9.756653E0,9.033421E0,5.6402426E0,3.0562668E0,4.7265663E0,4.783165E0,2.7636168E0,5.973772E0,7.3478127E-1,3.966136E0,2.3295212E0,1.8442926E0,2.731327E0,8.44419E-1,2.1284418E0,3.6571925E0,1.9306922E0,1.6951251E0,4.433153E0,0E0,2.4254858E-2,8.027458E-2,3.296904E0,1.5206695E0,2.0498123E0,6.224406E-1,0E0,4.155618E-1,0E0,0E0,0E0,0E0,0E0,0E0,0E0,0E0,0E0,0E0,0E0,0E0,0E0,0E0,0E0,0E0,0E0,0E0,0E0,0E0,0E0,0E0,0E0,0E0,0E0,0E0,0E0,0E0],"parents":[2147483647,0,0,1,1,2,2,3,3,4,4,5,5,6,6,7,7,8,8,9,9,10,10,11,11,12,12,13,13,14,14,15,15,16,16,17,17,18,18,19,19,20,20,21,21,23,23,24,24,25,25,26,26,27,27,28,28,30,30],"right_children":[2,4,6,8,10,12,14,16,18,20,22,24,26,28,30,32,34,36,38,40,42,44,-1,46,48,50,52,54,56,-1,58,-1,-1,-1,-1,-1,-1,-1,-1,-1,-1,-1,-1,-1,-1,-1,-1,-1,-1,-1,-1,-1,-1,-1,-1,-1,-1,-1,-1],"split_conditions":[5E0,1E0,1.3214286E1,3.6853778E0,2.022E3,7E0,1E0,1E0,3.1804693E0,1E0,1E0,1.2E1,1E0,2.1E1,2.9E1,2.022E3,1.1142858E1,1.2E1,1E0,1.2428572E1,1.1E1,1.4178572E1,5.1219445E-3,4E0,4E0,3.6462274E0,6E0,1E0,1.8E1,4.0351436E-3,2.024E3,-1.0159425E-3,-5.8746437E-4,1.1540935E-3,-2.1244365E-5,-4.264746E-4,-1.5778943E-3,-7.916522E-5,2.5742673E-3,-6.312131E-4,-2.4283077E-3,2.8087784E-4,-5.097911E-4,2.1323616E-4,9.0273726E-4,-9.876539E-4,-5.61411E-4,-2.8206678E-3,-1.9452156E-3,1.4696312E-4,6.384655E-4,2.8769537E-3,1.0223626E-3,7.3484314E-4,1.3578102E-3,-1.0544697E-3,2.8272002E-4,2.2345711E-3,4.3999287E-4],"split_indices":[3,21,36,37,0,31,5,5,35,3,20,29,5,28,2,0,32,29,19,34,29,36,0,1,1,37,3,21,30,0,0,0,0,0,0,0,0,0,0,0,0,0,0,0,0,0,0,0,0,0,0,0,0,0,0,0,0,0,0],"split_type":[0,0,0,0,0,0,0,0,0,0,0,0,0,0,0,0,0,0,0,0,0,0,0,0,0,0,0,0,0,0,0,0,0,0,0,0,0,0,0,0,0,0,0,0,0,0,0,0,0,0,0,0,0,0,0,0,0,0,0],"sum_hessian":[2.8920742E4,2.040593E4,8.5148125E3,1.518187E4,5.22406E3,6.0586045E3,2.4562078E3,8.270936E3,6.910935E3,1.3768329E3,3.8472273E3,1.5054979E2,5.9080547E3,2.3503242E3,1.05883606E2,8.016403E3,2.5453207E2,6.467396E2,6.2641953E3,2.4957777E2,1.1272551E3,3.8199788E3,2.724857E1,7.562453E1,7.492526E1,5.7260024E3,1.8205246E2,2.1960906E3,1.5423364E2,5.3990116E1,5.1893494E1,1.9775173E3,6.0388857E3,1.5340753E2,1.01124535E2,3.4815924E2,2.9858038E2,6.2128135E3,5.1381905E1,1.501004E2,9.947736E1,4.5165634E2,6.7559875E2,2.203049E3,1.6169297E3,5.0522274E1,2.5102253E1,2.4622894E1,5.0302372E1,3.4814187E3,2.2445837E3,7.868651E1,1.0336596E2,8.98007E2,1.2980834E3,5.1402397E1,1.02831245E2,2.6076996E1,2.5816498E1],"tree_param":{"num_deleted":"0","num_feature":"42","num_nodes":"59","size_leaf_vector":"1"}},{"base_weights":[1.3446272E-3,-2.0740053E-2,5.5982947E-2,-4.087892E-2,3.5240315E-2,3.0361192E-2,1.2163852E-1,-4.5296375E-2,1.027601E-1,4.143211E-3,1.0299867E-1,3.3445146E-2,-1.15052626E-1,1.1367984E-1,3.4547803E-1,-9.116588E-2,-3.4306437E-2,5.3814337E-2,1.6260165E-1,3.6794491E-4,5.0722235E-3,1.5041082E-1,3.0068435E-2,3.7149064E-2,-8.666821E-2,1.5268501E-4,-2.0191135E-1,8.6102314E-2,1.5037006E-1,3.9995527E-3,2.219092E-3,-4.9728693E-5,-1.0292543E-3,-3.5567317E-4,2.5552514E-3,8.1972627E-4,-5.932682E-4,1.09606E-3,3.1142097E-3,-5.2777756E-5,1.1385331E-3,8.780449E-4,2.2947676E-3,-7.6841374E-5,9.390851E-4,-1.5269124E-4,4.6244086E-4,-1.4028666E-3,-1.5018036E-4,-2.3328199E-3,-1.3252626E-3,1.1214694E-3,4.2056857E-4,2.6368573E-3,1.2853594E-3],"categories":[],"categories_nodes":[],"categories_segments":[],"categories_sizes":[],"default_left":[0,0,0,0,0,0,0,0,0,0,0,0,0,0,0,0,0,0,0,0,0,0,0,0,0,0,0,0,0,0,0,0,0,0,0,0,0,0,0,0,0,0,0,0,0,0,0,0,0,0,0,0,0,0,0],"id":25,"left_children":[1,3,5,7,9,11,13,15,17,19,21,23,25,27,29,31,33,35,37,39,-1,41,43,45,47,-1,49,51,53,-1,-1,-1,-1,-1,-1,-1,-1,-1,-1,-1,-1,-1,-1,-1,-1,-1,-1,-1,-1,-1,-1,-1,-1,-1,-1],"loss_changes":[3.559929E1,2.3687687E1,1.428191E1,9.80913E0,1.1713188E1,2.7437487E0,4.2067375E0,7.5541344E0,1.3424845E0,7.23872E0,6.04212E0,2.6652703E0,1.441907E0,2.3173847E0,4.5882607E-1,2.935854E0,4.4292984E0,8.180955E-1,1.5989656E0,2.4250677E0,0E0,5.2244396E0,1.6641921E0,2.7683582E0,6.867081E-1,0E0,1.3525867E-1,1.5062666E0,2.4079056E0,0E0,0E0,0E0,0E0,0E0,0E0,0E0,0E0,0E0,0E0,0E0,0E0,0E0,0E0,0E0,0E0,0E0,0E0,0E0,0E0,0E0,0E0,0E0,0E0,0E0,0E0],"parents":[2147483647,0,0,1,1,2,2,3,3,4,4,5,5,6,6,7,7,8,8,9,9,10,10,11,11,12,12,13,13,14,14,15,15,16,16,17,17,18,18,19,19,21,21,22,22,23,23,24,24,26,26,27,27,28,28],"right_children":[2,4,6,8,10,12,14,16,18,20,22,24,26,28,30,32,34,36,38,40,-1,42,44,46,48,-1,50,52,54,-1,-1,-1,-1,-1,-1,-1,-1,-1,-1,-1,-1,-1,-1,-1,-1,-1,-1,-1,-1,-1,-1,-1,-1,-1,-1],"split_conditions":[5E0,1E0,1.3214286E1,1E0,1.4178572E1,3.1E1,1E0,1.1214286E1,1E0,1E0,1.4928572E1,1.4571428E1,2.022E3,1.8E1,2.9E1,7E0,1E0,1.4E1,1.2428572E1,1E0,5.0722235E-3,8E0,2.024E3,1.075E1,1.2892858E1,1.5268501E-4,2.024E3,1.2E1,2.309401E0,3.9995527E-3,2.219092E-3,-4.9728693E-5,-1.0292543E-3,-3.5567317E-4,2.5552514E-3,8.1972627E-4,-5.932682E-4,1.09606E-3,3.1142097E-3,-5.2777756E-5,1.1385331E-3,8.780449E-4,2.2947676E-3,-7.6841374E-5,9.390851E-4,-1.5269124E-4,4.6244086E-4,-1.4028666E-3,-1.5018036E-4,-2.3328199E-3,-1.3252626E-3,1.1214694E-3,4.2056857E-4,2.6368573E-3,1.2853594E-3],"split_indices":[3,21,36,5,36,2,5,36,26,20,36,32,0,2,2,30,19,28,32,5,0,1,0,36,36,0,0,2,33,0,0,0,0,0,0,0,0,0,0,0,0,0,0,0,0,0,0,0,0,0,0,0,0,0,0],"split_type":[0,0,0,0,0,0,0,0,0,0,0,0,0,0,0,0,0,0,0,0,0,0,0,0,0,0,0,0,0,0,0,0,0,0,0,0,0,0,0,0,0,0,0,0,0,0,0,0,0,0,0,0,0,0,0],"sum_hessian":[2.9500133E4,2.1008975E4,8.491158E3,1.5450829E4,5.558147E3,6.108722E3,2.3824355E3,1.4990498E4,4.6033096E2,3.81044E3,1.7477069E3,5.9826123E3,1.2610992E2,2.3020918E3,8.034375E1,2.8959915E3,1.2094506E4,2.5426286E2,2.060681E2,3.7830515E3,2.7388493E1,1.0585065E3,6.892004E2,5.804316E3,1.7829623E2,5.0765926E1,7.5343994E1,1.3161665E3,9.859253E2,5.420842E1,2.613533E1,3.4784512E2,2.5481465E3,1.2042992E4,5.1514343E1,2.0381369E2,5.044917E1,1.5323611E2,5.2831993E1,3.6046777E3,1.7837363E2,5.9192035E2,4.6658618E2,4.336412E2,2.5555914E2,8.580956E2,4.9462207E3,1.0143258E2,7.6863655E1,5.0258698E1,2.5085293E1,8.261233E2,4.9004324E2,1.5749162E2,8.2843365E2],"tree_param":{"num_deleted":"0","num_feature":"42","num_nodes":"55","size_leaf_vector":"1"}},{"base_weights":[3.7967204E-3,-2.1593697E-2,6.2764056E-2,-4.016255E-2,3.197765E-2,9.250566E-2,1.576812E-2,-4.450576E-2,1.0296087E-1,-2.9814867E-2,5.2463952E-2,1.9872364E-2,1.04363084E-1,-7.8790225E-3,4.8267193E-2,-6.798798E-2,-2.8124455E-2,3.707818E-2,1.7530358E-1,-1.19998E-1,-7.7725644E-3,4.9095523E-2,5.023218E-3,2.3031212E-1,-4.8662205E-3,1.3010164E-1,7.880284E-2,4.1170873E-2,-4.355353E-2,1.0852309E-1,1.3792143E-2,-3.051346E-4,-8.32693E-4,-6.4197683E-4,-1.20778335E-4,6.447277E-4,-5.9072394E-4,1.2749622E-3,3.0895509E-3,2.1062203E-4,-1.3575077E-3,1.1418822E-3,-2.491783E-4,3.6587205E-4,1.5993098E-3,1.5168868E-3,3.7196977E-3,-2.4413191E-4,1.4313636E-3,1.1264553E-3,2.379441E-3,7.498991E-4,3.8289144E-3,3.183907E-4,3.1748107E-3,-1.2171143E-3,-1.750498E-4,1.5714248E-3,3.4940205E-4,-4.4388647E-4,6.2660355E-4],"categories":[],"categories_nodes":[],"categories_segments":[],"categories_sizes":[],"default_left":[0,0,0,0,0,0,0,0,0,0,0,0,0,0,0,0,0,0,0,0,0,0,0,0,0,0,0,0,0,0,0,0,0,0,0,0,0,0,0,0,0,0,0,0,0,0,0,0,0,0,0,0,0,0,0,0,0,0,0,0,0],"id":26,"left_children":[1,3,5,7,9,11,13,15,17,19,21,23,25,27,29,31,33,35,37,39,41,43,-1,45,47,49,51,53,55,57,59,-1,-1,-1,-1,-1,-1,-1,-1,-1,-1,-1,-1,-1,-1,-1,-1,-1,-1,-1,-1,-1,-1,-1,-1,-1,-1,-1,-1,-1,-1],"loss_changes":[4.2682507E1,1.9824549E1,1.1991802E1,9.203726E0,6.4955583E0,4.5234985E0,2.5570588E0,5.523329E0,2.0722833E0,2.5393786E0,5.813875E0,3.8466718E0,2.961422E0,3.3728569E0,2.9094396E0,3.3771877E0,4.8979535E0,6.084156E-1,1.2871933E0,5.604451E-1,2.1524322E0,5.297674E0,0E0,8.0922365E-1,1.9185358E0,4.207203E0,2.602005E0,2.082837E0,2.2695436E0,1.8184185E0,2.5402446E0,0E0,0E0,0E0,0E0,0E0,0E0,0E0,0E0,0E0,0E0,0E0,0E0,0E0,0E0,0E0,0E0,0E0,0E0,0E0,0E0,0E0,0E0,0E0,0E0,0E0,0E0,0E0,0E0,0E0,0E0],"parents":[2147483647,0,0,1,1,2,2,3,3,4,4,5,5,6,6,7,7,8,8,9,9,10,10,11,11,12,12,13,13,14,14,15,15,16,16,17,17,18,18,19,19,20,20,21,21,23,23,24,24,25,25,26,26,27,27,28,28,29,29,30,30],"right_children":[2,4,6,8,10,12,14,16,18,20,22,24,26,28,30,32,34,36,38,40,42,44,-1,46,48,50,52,54,56,58,60,-1,-1,-1,-1,-1,-1,-1,-1,-1,-1,-1,-1,-1,-1,-1,-1,-1,-1,-1,-1,-1,-1,-1,-1,-1,-1,-1,-1,-1,-1],"split_conditions":[5E0,1E0,5E-1,1E0,2.022E3,1.15E1,3.6180031E0,3.370851E0,1E0,1E1,1E0,4E0,3.6891584E0,1.3E1,3.8283267E0,2.745626E0,3.6413267E0,1.4E1,1.3142858E1,1E1,1.1714286E1,2.9E1,5.023218E-3,2.022E3,1.6E1,3.5895147E0,1E0,1.8E1,8E0,6E0,1.3E1,-3.051346E-4,-8.32693E-4,